-0.239069
0.148976
-0.0380571
-0.0719361
-0.0694091
-0.068536
-0.0117581
-0.0986641
-0.0153379
-0.0684021
-0.118226
-0.0616411
0.0978144
0.295794
-0.0746994
-0.0295479
0.0265922
-0.145128
-0.0407848
0.0477718
0.0265922
0.0519703
0.0415725
0.0211378
0.0211378
0.17126
-0.0582772
0.192173
-0.0296741
0.0306417
-0.407172
0.00279932
-0.0313808
-0.091865
0.262443
0.00786018
-0.397485
-0.148306
0.0463299
0.252921
-0.252408
0.186851
0.0673444
0.020946
0.226067
0.219472
0.0673444
-0.00985456
0.0264728
0.137361
-0.233137
0.124665
0.120243
0.540307
-0.253089
0.010612
-0.00393147
0.000909095
0.238613
0.00932089
-0.0177462
-0.407328
-0.312068
0.0355506
-0.179755
-0.091568
-0.119774
0.0263184
-0.091568
0.0694023
-0.374893
0.0563189
0.213323
0.03706
-0.0873279
-0.025849
0.125067
-0.0382183
0.114819
-0.165574
-0.0365485
-0.0868767
0.0329946
-0.0357415
0.19169
-0.238326
0.271105
0.0414373
0.0560817
-0.0357415
0.0072946
-0.23523
-0.549605
0.249985
-0.122001
-0.0132102
0.032913
-0.142288
0.0506653
0.0190003
0.0835649
0.0818207
0.0639255
0.0589863
0.103217
0.0466912
-0.0429475
-0.00878112
-0.0170446
0.0645295
0.269952
-0.435619
-0.110886
0.0750587
0.0506653
0.0111085
-0.0210472
0.0246444
0.431852
0.0965365
-0.169282
-0.0526701
0.13409
-0.043456
-0.153058
-0.386668
0.319425
0.189747
0.117459
-0.122737
-0.215266
0.0327958
0.0230829
-0.208511
0.00568847
-0.0409793
0.123369
-0.0584207
-0.0229212
-0.0229212
-0.0848755
0.0783624
0.0637055
0.393853
0.0988053
-0.196589
0.0134921
0.0446232
0.149
0.0805187
0.107573
0.1803
0.120612
0.124644
-0.252681
-0.0923243
0.0402943
0.0132377
-0.257685
0.119359
-0.0907759
-0.194923
0.196044
-0.0557408
0.202166
-0.291344
0.00348104
0.00299245
-0.243306
0.00625896
0.0086934
0.0170607
-0.0325082
0.050801
0.105327
-0.0799009
-0.476131
0.231051
-0.103517
-0.161862
-0.15067
0.00457887
-0.418648
-0.328034
0.142041
0.0944102
-0.601398
-0.116459
-0.0948055
0.272651
0.020612
0.0445466
0.291572
0.0132011
0.00759577
0.00759577
0.061291
-0.0610873
0.0465377
0.1146
0.144917
-0.0969762
0.0883916
-0.0382399
0.141262
-0.137809
-0.0984712
0.473527
0.00675359
-0.150854
-0.0471723
0.0156365
0.0682739
-0.170394
-0.0709983
0.249806
-0.0749712
-0.141343
0.0752484
-0.0943533
0.0381152
0.0177526
0.0520493
0.111324
0.226574
0.128079
0.1051
0.17335
0.206101
0.153038
-0.11233
-0.0807895
0.213539
0.117991
0.0996357
0.264279
0.141553
0.333644
0.0261726
0.165484
0.0207434
-0.0167206
0.248717
0.00971289
-0.0943684
-0.144902
-0.116693
-0.116693
0.297855
-0.0423493
-0.0185926
0.0651379
0.0300636
0.255754
0.473723
-2.91692e-95
-2.91692e-95
0.0935161
-0.0272296
-0.0373202
-0.0542853
-0.0188867
-0.0693319
0.110034
-0.0437119
-0.0462899
-0.146294
-0.113247
0.244634
-0.0462899
-0.0462899
0.140475
0.0181864
-0.271427
-0.0836936
-0.0462899
0.0172289
-0.0650418
0.0224446
0.0226009
0.037127
-0.235069
0.0500434
-0.0988504
-0.0988504
-0.0272917
-0.172136
-0.283655
0.20803
-0.119294
-0.0858279
0.391957
0.113334
-0.305543
0.0301483
0.184326
0.10304
0.0557534
-0.0971387
-0.0392919
0.0997503
0.0794886
0.123166
-0.0171252
0.106228
-0.0160642
0.0705736
-0.0630838
-0.0914487
-0.115268
-0.141469
-0.181776
-0.068693
-0.0681808
0.241831
-0.126213
0.10133
-0.37873
0.113371
0.0149761
0.0327507
0.00762542
-0.418222
-0.0351766
0.0196942
0.0196942
0.0509776
0.0123033
0.00860399
0.0897967
-2.38673e-95
-2.38673e-95
-0.172627
0.0643535
0.153576
-0.0557855
0.104665
-0.128346
0.0316526
-0.0974797
-0.0198899
-2.38673e-95
-2.38673e-95
0.28475
0.121393
0.0178046
0.00828358
0.0669127
0.165652
-0.191724
0.0903126
0.00828358
-0.11517
-0.0966926
0.0540057
-0.0521446
-0.0504702
0.0782217
-0.0859044
0.0387388
-0.213593
-0.134801
-0.10269
0.164738
-0.253795
0.114487
-0.278077
-0.142615
0.206613
-0.0727356
0.114808
0.241553
0.0567763
-0.548797
-0.0555897
-0.0747032
0.204277
-0.338315
-0.0175662
-0.098445
-0.0300601
-0.0516825
0.173616
0.0133501
0.0854153
-0.0698789
0.144032
0.33491
0.18248
0.316582
0.0630965
0.00580885
0.085148
-0.618711
-0.218877
-0.335551
-0.0373558
-0.229776
0.0402419
-0.115317
-1.15186e-14
-0.241462
0.150951
0.233262
0.0295192
-0.0283707
-0.374841
0.0746763
0.322016
0.291675
0.108373
0.412545
-0.221842
0.00480949
0.0816893
0.0177563
-0.349847
-0.412213
-0.0502659
-0.111543
-0.460368
-0.369211
-0.171683
-0.355826
-0.114861
0.192766
0.29236
0.252715
-0.189049
0.16667
0.129165
0.219393
-0.185979
-2.73724e-94
0.0666746
-0.098212
-0.0327186
-0.19471
0.3344
0.153929
-0.197028
0.110917
0.243138
-0.167167
-0.252064
-0.136149
-0.0146982
-0.0934975
0.087894
0.189945
0.030949
0.043544
0.076958
-0.123305
-0.32977
0.0650444
0.275855
0.120142
0.118954
-0.0084201
0.07407
-0.0328505
-0.180121
0.0746723
0.103466
-0.409615
0.0757204
0.0709232
-0.346612
0.00108782
-0.0585506
0.0223309
0.00720322
-0.0827209
0.0736956
0.0852666
-0.0351168
-0.0351168
-0.0351168
0.00982238
0.20187
0.0318724
0.320832
0.145759
0.031531
0.158752
0.333257
-0.154862
-0.0998656
0.217016
-0.1691
0.115301
-0.0877537
-0.433119
-0.0219272
-0.0328877
-0.0315105
-0.210689
0.225948
-0.142898
-0.2267
-0.0788114
0.0409728
-0.39389
0.0657461
-0.211557
-0.0237819
-0.157852
-0.165702
0.109322
-0.175708
0.0428594
0.136138
-0.0938354
-0.416811
0.0739458
0.332638
0.225981
0.0629954
0.0809643
0.0913856
0.0823439
0.040962
0.097345
0.0862571
0.141851
0.0581001
0.127771
0.408067
-0.0457428
0.0456311
0.0480399
-0.151253
-0.0766571
0.063836
-0.149064
0.0899767
0.00716626
0.161185
0.144864
0.125452
-0.128481
0.092973
0.0412918
0.0736097
0.0433124
-0.00851154
-0.163446
0.120814
0.0593071
0.13822
-0.461572
0.211611
-0.342579
-0.0856078
-0.0157003
-0.0760267
0.0314522
0.0837998
-0.175718
-0.176506
0.0730273
0.204613
-0.111488
0.213947
0.0685219
-0.432942
0.267266
0.0162004
0.550301
0.274188
0.092541
-0.438962
0.0978141
0.3514
0.398076
-0.135558
0.0333998
-0.0434038
0.0800026
-0.342953
-0.0378615
-0.41594
-0.309963
0.167106
-0.0823938
0.245638
0.325932
-0.0155444
0.132991
0.0309303
-0.0302856
0.381127
0.15332
0.00922864
-0.0563851
0.0379539
0.116943
-0.0408454
0.541716
0.220297
0.117009
0.138005
0.0763161
0.129125
0.00628504
0.139782
0.258631
0.127502
-0.183908
0.139558
0.133978
0.365589
-0.129329
-0.0127497
0.0443684
0.0832816
0.0534261
0.0370995
-0.0983417
-0.0458016
-0.297496
-0.36066
0.174476
-0.124309
-0.0919996
0.102627
0.0561906
-0.126973
-0.111708
-0.19688
0.373176
-0.0542275
-0.0142974
0.229822
-0.0142974
-0.00782051
-0.524733
0.0038559
0.100953
-0.0886353
-0.186837
0.00263092
0.207525
0.271111
0.11693
-0.0285765
0.09003
-0.0246642
-0.357679
0.09003
0.111322
-0.229861
0.275812
0.0156556
-0.00761487
-0.0837482
-0.164964
-0.0766308
0.175335
-0.013412
-0.0358138
-0.0784207
-0.0889455
0.00915794
-0.0766353
-0.0454342
-0.0254333
-0.561557
0.0183355
0.261716
-0.13183
0.0511817
-0.312494
-0.324312
0.162162
0.11161
0.200093
0.111955
0.0559152
0.0256599
-0.00949737
-0.395586
-0.03295
-0.03295
-0.0300498
0.0707051
-0.0595075
-0.151138
-0.056502
0.157413
-0.0197179
-0.0124659
0.0237896
0.0301999
0.0301999
0.0301999
0.0344866
-0.019871
-0.164805
0.00529623
-0.00518016
0.0380229
-0.0758116
-0.017357
0.00529623
-0.0775475
0.25532
-0.12109
0.079563
0.356937
-0.560216
-0.0185333
0.0448294
0.151661
0.0825153
-0.0647423
-0.03603
0.130778
-0.149729
0.00918216
-0.00743358
0.0215991
0.0215991
-0.0228992
0.0642783
-0.182969
-0.158416
-0.24593
0.033881
0.033881
-0.115395
0.0118901
-0.0426228
-0.25556
-0.133664
0.0253345
-0.133674
0.163876
0.00607247
0.0153177
-0.148757
0.27263
-0.00814594
0.209017
0.20538
-0.194072
0.320341
0.00851089
-0.296173
-0.157309
0.0316096
0.0689012
-0.0214968
-0.0632594
0.206701
-0.0210256
0.104658
-0.322096
-0.0222206
-0.140572
-0.0614329
-0.0186179
0.0686058
-0.0114865
-0.0192691
-0.0577898
0.225906
-0.276272
0.1554
0.0130971
0.0353038
-0.284361
0.202383
0.0608696
-0.00389963
0.0155782
-0.174478
0.228439
-0.0471763
-0.342027
-0.0513253
0.219764
0.300409
0.0122419
-0.00530518
0.401785
0.125935
0.0233563
0.0236733
-0.0313688
0.148389
-0.0166058
0.282784
-0.135548
-0.00738933
-0.255858
-0.0394397
0.116353
-0.0441937
-0.0123649
0.0619366
0.0259819
0.0226997
-0.180573
-0.070353
-0.139483
0.0557076
-0.0669942
0.00493131
0.208067
0.0784448
-0.380472
0.231046
0.115355
-0.0431941
0.368085
0.516803
-0.0119162
-0.136908
-0.210658
-0.0212601
-0.0391954
-0.0963576
-0.0708659
-0.273177
-0.509302
0.260573
0.0239993
-0.0853332
-0.273174
-0.153959
-0.226677
-0.0849591
-0.106815
-0.106815
0.012457
-0.0962322
0.00689692
-0.468561
-0.031029
0.0591809
0.254695
-0.291187
0.503999
-0.106292
-0.249665
0.31255
0.077019
8.3462e-206
8.3462e-206
8.3462e-206
0.299284
0.0672256
0.0260394
-0.0380328
0.0570173
0.016355
0.145947
8.3462e-206
-0.0373847
0.466649
0.0807909
-0.135529
0.382537
-0.0176625
-0.0563288
-0.0573394
-0.133074
-0.166255
0.0960877
-0.248571
0.0400757
0.195995
0.122013
-0.1562
0.0924098
0.0955082
0.179633
1.18709e-124
0.135146
-0.189964
-0.170043
-0.0758276
-0.00328652
0.118145
0.0220022
0.0142456
0.043578
0.043578
-0.119549
-0.0509205
0.0320823
-0.0930017
0.0457858
-0.103137
-0.0643404
0.0692869
-0.107387
0.0435802
0.191074
0.0204173
0.0571857
-0.206886
0.0182873
0.0309953
-0.061628
-0.0830433
0.0976575
0.156886
0.159911
-0.00682714
0.0226347
0.075072
-1.33359e-47
0.0402585
0.163577
-0.118633
0.0781736
0.0781736
0.0547379
-0.0174036
0.0368748
0.0390868
0.0390868
-0.277433
0.0390868
0.181826
0.0525386
0.0180693
-0.0367724
0.0321329
0.320396
-0.0588165
0.194877
0.180097
-0.176532
-0.171653
0.0458016
0.172034
-0.0382103
-0.184927
0.0414747
-0.0309615
0.0403948
-0.0352274
0.0769417
-0.0485447
0.0574207
0.0919038
0.122235
-0.265542
0.169414
0.0464674
-0.521544
0.0402587
-0.0458495
0.0368278
0.0185707
0.151818
0.00497607
0.0663361
0.373471
-0.0183307
0.0363115
0.291061
-0.0129758
0.00847814
0.271221
-0.192141
2.68746e-123
-0.0587919
0.162298
0.0369715
2.68746e-123
2.68746e-123
0.068245
0.134232
0.199593
0.0370509
0.00919296
0.0370509
0.0884169
-0.119867
-0.405975
-0.0940025
-0.43499
-0.0945696
0.265649
-0.331593
0.0758658
0.0156124
0.0908737
0.112422
0.305978
-0.237677
-0.021765
-0.0783397
-0.023248
0.0363165
0.0284091
0.460318
0.0162485
0.269274
0.279888
-0.168217
0.573301
0.336672
-0.427927
0.0967426
0.163576
-0.099696
0.129667
-0.0283729
0.00851966
0.0719454
0.119299
0.0432794
0.0414149
-0.18256
0.144271
-0.0442053
0.0414149
0.0579355
0.0414149
0.152567
-0.238845
-0.00744937
-0.575699
0.244223
-0.0790825
-0.0384063
0.0923084
-0.106305
0.136262
0.108269
0.0358988
0.0358988
0.156294
-0.0732413
0.0797322
0.0426119
0.00638718
-0.029073
0.212771
-0.079809
0.00746375
0.0770953
0.049999
0.0833713
0.0867544
0.0101803
-0.0298256
-0.166788
-0.0154242
-0.0154242
-0.0393894
0.272286
0.0286004
-0.248045
0.0866671
-0.316567
0.0657312
-0.134412
0.00610468
-0.0180951
0.0297942
0.0683885
0.297418
-0.0348887
0.0311263
-0.27522
0.119412
0.0870998
-0.0255485
-0.119557
0.0358247
-0.691072
-0.0334848
0.0671243
-0.127317
0.0220683
-0.0358677
0.190471
-0.0986584
-0.553191
0.0231154
-0.0459303
-0.262601
0.042863
-0.168302
-0.144503
-0.00141572
0.0267409
0.0793477
0.180474
0.133
0.163692
-0.056118
0.0124971
0.0124971
0.0124971
0.35415
-0.13154
-0.255468
-0.319142
0.11518
0.148125
-0.268694
-0.156669
-0.0699177
0.214884
-0.241788
-0.0685882
0.11863
-0.0699177
-0.0154211
-0.138722
0.353901
0.0236476
0.234235
-0.0954516
-0.311223
-0.0934213
-0.0934213
-0.0854603
0.259247
1.50164e-32
0.123248
-0.353
0.168964
0.0517762
-0.0279264
-0.399441
0.224762
0.035069
0.199397
0.17166
0.0176175
-0.18639
-0.00791508
-0.160536
-0.278509
-0.392991
-0.0333769
-0.0313711
0.245566
0.163318
0.0170323
0.114108
-0.106677
-0.0583214
-0.21491
-0.179379
-0.262309
-0.467244
-0.0953903
-0.181808
-0.19475
-0.0650974
-0.0809443
-0.0435722
-0.263047
-0.0435722
-0.103913
-0.0929505
-0.0626264
0.0732516
0.0164344
0.14641
-0.0314027
0.66668
0.0718815
-0.324866
0.0249677
-0.0797756
0.0961214
0.0552985
-0.0559082
0.135528
-0.13845
0.054584
0.347446
0.199623
0.238383
-0.103661
0.238454
0.0638594
0.219255
0.130926
0.349595
0.105003
0.405927
-0.112201
0.00595004
0.148007
0.0497017
-0.0891958
-0.144758
-0.115152
0.0315687
0.0304044
0.0282487
0.0282487
0.0567458
0.0436223
0.0293752
-0.127428
-0.158741
-0.063848
0.0282487
0.0282487
0.0607167
0.0396709
0.0396709
0.0196905
-0.145732
0.0742318
-0.26244
0.0396709
0.15557
-0.0542539
0.0202897
-0.0615212
0.152765
0.0014679
0.0600562
0.0118098
-2.32229e-236
0.021767
0.0250215
-0.0816004
-0.221044
0.0449147
-0.195976
-0.0880087
-0.274282
0.320818
-0.109425
-0.445085
0.0209056
0.134123
0.0763813
-0.0136801
0.0357407
0.00621607
-0.114227
0.0661018
-0.138668
0.161392
0.327907
0.225957
0.0424824
0.0689748
0.23199
-0.351104
-0.365149
0.0327899
0.118627
0.0327899
0.0330801
-0.205908
0.0708566
-0.0103612
-0.245668
0.0292525
0.0559208
-0.163564
-0.141033
0.215214
0.143107
-1.38772e-95
0.0142507
0.025071
0.0506729
0.065384
0.0968857
0.14384
-0.0246147
0.0371752
-0.0909169
-0.207873
-0.143696
-0.0167572
0.126062
-0.0602012
0.11387
0.109685
0.137331
0.0234512
0.0932695
0.0234512
0.0341682
0.108677
0.127616
-0.0663031
-0.0651722
0.0972627
0.0276367
0.383621
0.365476
0.0382041
0.0761415
0.0784466
-0.0337116
-0.016638
-0.0717573
-0.016638
0.118376
0.254056
-0.128696
0.126155
-0.105285
0.253251
0.00459067
-0.0121524
0.00459067
-0.151856
0.0203962
-0.026586
-0.0395287
-0.0662061
-0.368945
0.0580205
0.125141
0.0518467
0.101615
-0.0745634
0.123868
-0.016215
0.0644884
0.0204688
-0.0916144
-0.105244
0.00603948
-0.143958
-0.171046
0.0781137
-0.0147544
0.186609
-0.135764
-0.268643
-0.26824
-0.0402649
0.0570473
0.197514
0.141003
0.0234801
0.257436
-0.26888
0.138393
-0.233206
0.189865
0.302955
-0.199944
-0.202536
0.155307
-0.109979
0.287861
0.0255573
0.0163706
0.264736
0.219186
-0.183703
-0.724695
-0.0175051
-0.10837
0.036238
0.0130655
0.0935593
0.0846331
-0.089681
0.0781933
0.13342
-0.0247022
0.0201494
0.220474
-0.06576
-0.335612
-0.00990907
0.23226
0.0706924
-0.0491503
0.205333
0.0178677
-0.085469
-0.0375941
-0.0568681
-0.188489
-0.119267
0.000714596
-0.0154793
-0.0726809
0.0424545
-0.304586
0.0424545
-0.179387
0.190803
0.0354659
0.0253405
0.152281
0.0147603
0.257218
-5.52127e-95
0.0899459
-0.0788461
0.0303999
-0.00214897
-0.123643
0.148293
-0.265974
0.0738573
-0.0280065
-0.36666
0.0376364
0.411505
0.00814767
0.0678846
0.00814767
0.0409701
-0.0841666
0.0757045
0.200391
0.0351848
0.368669
0.0476143
-0.289079
0.087746
0.024757
0.0442319
0.251802
0.0814088
0.0390844
-0.0277242
-0.226248
-0.0592207
-0.116129
-0.101268
-0.133508
0.193351
0.0714352
-0.113066
0.0274811
0.0274811
0.218364
0.0274811
-0.00470995
-0.312603
-0.0319088
-0.0783415
-0.0513414
-3.22006e-48
-3.22006e-48
0.11779
0.245958
0.114218
-3.22006e-48
-0.00588368
0.137693
0.0310749
-0.221015
0.119809
-0.0329927
-0.213767
-0.140452
-0.0282308
0.0795251
-0.00306786
-0.565814
0.1194
-0.123341
-0.0316436
-0.0930679
0.0993674
-0.211985
0.113854
0.0762881
-0.0750008
0.0435633
0.331513
-0.00507934
-0.0255507
0.0344981
0.000961109
0.284411
-0.0675383
0.483978
0.0827892
0.0460862
-0.240812
0.115418
0.253101
0.191481
-0.120544
0.00174664
-0.120462
0.00162626
0.00269893
-0.64794
-0.170968
0.202051
-0.128407
-0.177634
-0.0323731
0.051973
0.0240801
0.161194
-0.16225
0.55765
-0.247604
-0.200411
0.0544531
0.0394148
-0.127403
-0.123588
-0.0783093
-0.0520713
-0.148369
-0.267383
0.233819
0.0493642
-0.108401
-0.00462817
0.0125831
-0.0220664
-0.00349159
0.12484
-0.0480089
0.0587245
-0.255966
0.0150236
0.0311307
-0.0730394
-0.498902
-0.0663488
0.00501672
-0.139333
0.172269
0.183928
-0.000223533
0.0667611
0.195839
0.141467
0.0621259
0.238906
-0.077765
-0.195379
-0.0463633
-0.0463633
-0.139792
0.168489
0.109573
-0.184398
-0.120318
0.304659
0.0733257
0.14188
0.268247
0.0627702
0.0170935
0.0542738
0.239032
-0.168033
0.0166813
-0.178865
-0.531688
0.0439988
0.153309
0.0208562
-0.0560747
-0.411087
-0.141148
0.0945277
0.0704961
-0.159279
0.0401343
0.0215805
0.0209821
0.106552
-0.117186
-0.141744
-0.0843471
0.115921
0.193243
-0.0332287
-0.0332468
-0.226226
0.0627038
-0.141675
-0.147388
0.127293
0.019047
-0.0936005
0.0237832
0.00174422
-0.141013
0.159551
-0.190162
-0.0876269
0.226846
0.138936
-6.55733e-48
0.0200417
-0.113869
-0.0351852
-0.113869
-0.113869
-0.0840365
0.00900223
0.445125
-0.0180431
-0.0641619
0.00903432
0.128623
-0.145294
-0.0725421
-0.243264
0.269394
0.0231481
0.0466441
-0.0265182
0.0516694
0.0516694
0.104366
0.336659
-0.0157423
-0.111136
0.0658143
-0.0646508
-0.0360245
-0.0481777
0.174076
0.100612
-0.0705461
0.128951
-0.349188
0.243756
0.0539961
0.0821554
0.0629954
-0.162423
-0.217233
-0.0893009
-0.0351756
0.132332
0.349284
0.195098
0.046805
-0.00250193
-0.0379902
-0.336647
-0.0299962
-0.18648
-0.0352353
-0.220847
-0.0247347
0.112349
0.0636231
-0.0782863
-0.0978496
-0.562094
0.0922535
0.482531
0.0881873
-0.132569
-0.100668
0.177465
0.018569
0.201833
0.0450171
-0.115798
0.073308
-0.272744
-0.152208
-0.00544244
-0.163472
0.0393556
-0.189602
0.0346224
-0.199051
-0.0812073
0.168355
-0.121673
-0.0447719
0.0247634
0.0483323
-0.792813
-0.0417533
-0.167184
0.0275433
0.156224
-0.122002
-0.000370514
0.0518651
0.0383548
-0.313277
-0.14935
-0.0772106
0.0640913
0.0640913
0.173272
0.0808431
0.0914303
0.262983
0.124269
0.0262542
-0.135871
0.12142
0.0304661
0.124374
0.0941993
-0.00812585
0.0794992
-0.0432533
-0.0432533
-0.211105
-0.094336
-0.323932
0.0140643
0.122692
-0.199967
-0.648444
0.336253
0.0146306
0.134603
0.438583
0.151149
-0.197119
0.125234
-0.146564
-0.0465144
-0.221616
-0.00708638
-0.0716813
0.253907
-2.29493e-48
0.299758
0.183641
0.323428
-0.212596
-0.0895104
0.121097
-0.0460385
0.0860213
-0.215931
-0.00508199
0.100341
0.285733
0.0261238
-0.0610881
-0.186529
-0.0381524
-0.0381524
-0.0328749
-0.0427403
0.167506
-0.0381524
-0.0230142
-0.0073506
0.0417581
-0.258134
0.115882
-0.0648774
0.00573127
0.0449063
0.0244815
0.272478
0.161934
-0.00651579
-0.11966
0.0175099
-0.0255925
-0.165066
-0.0255925
-0.0255925
0.0234295
-0.189598
-0.0474704
-0.0255925
-0.0529293
-0.109703
0.0385653
-0.0505147
0.128691
-0.223001
-0.043734
-0.019766
-0.0188586
-0.39388
-0.136654
-0.0327799
-0.0327799
0.109446
8.69556e-322
0.131847
0.056101
8.69556e-322
-0.0747319
0.0674331
-0.0675607
0.0198041
-0.016867
0.0265965
-0.116023
-0.0868483
0.011041
-0.192098
0.235232
-0.165289
0.0184683
-0.0859751
0.037118
-0.186169
0.00473487
0.00600301
0.000143881
0.0299947
0.065324
-0.280272
-0.0913416
-0.284784
-0.345197
-0.294001
-0.21765
0.270928
0.415084
-0.151546
0.227533
0.0832992
0.00897272
0.241655
0.00897272
0.267306
0.105781
-0.2101
0.0345144
-0.0750712
-0.0394734
0.0671438
-0.51586
-0.0452777
0.094696
-0.0516871
-0.171116
-0.220952
-0.279146
-0.294721
-0.128055
-0.074598
-0.0371184
-0.0325221
-0.026481
-0.47752
0.0409057
-0.410424
0.174874
-0.0557333
-0.0522248
-0.0208151
-0.0164649
-0.109369
0.0991666
-0.13838
0.198473
-0.0779152
0.103609
-0.156138
0.251856
0.00668375
-0.00459961
0.0752882
-0.177066
0.0296958
-0.0657201
0.00174902
-0.146068
0.0564348
0.034844
-0.453376
0.0873201
0.0194645
0.152161
0.0118553
0.0372254
-0.0858243
0.0194645
0.0194645
0.10387
0.206525
-0.339673
0.0834104
0.114903
-0.020486
-4.85241e-164
-4.85241e-164
-0.0372987
0.0659018
-0.161535
-4.85241e-164
0.0577856
-0.0151143
0.0577856
-0.118664
0.131072
-0.112251
-0.00108763
-0.191278
-0.315808
-0.145414
-0.00108763
-0.132392
0.0399165
-0.332257
0.0329893
0.249544
0.151724
0.00151496
0.0870687
0.00151496
0.00151496
-0.0371658
0.0920155
-0.0428178
-0.0862926
0.150089
-0.357396
0.111774
-0.0992891
-0.246834
0.0242519
0.029406
0.0854861
0.0369799
-0.0943823
-0.180861
-0.216502
0.0179221
0.149516
0.0690478
-0.0859974
0.0132822
1.04781e-17
0.0813975
0.0488392
0.0487797
-0.013798
-0.13182
0.178446
0.245815
0.0706852
0.251441
-0.0364807
-0.0162673
-0.106881
0.178607
0.0500512
-0.0582732
0.260397
-0.13488
0.0437797
0.0218899
0.0399392
0.159242
0.099063
0.134065
0.0303311
0.0830876
0.00228988
0.0606494
-0.200235
-0.144931
-0.048205
0.0790155
-0.0813787
0.0551089
-0.698118
0.155687
-0.274875
0.0015145
-0.181422
-0.103778
-0.384707
0.143897
-0.391115
0.0644819
-0.0576308
0.0168628
0.0342462
0.393928
-0.203489
-0.428512
-0.0170797
-0.188493
0.0355968
-0.470888
-0.0651256
0.0707116
0.0383665
-0.00172223
0.0268553
0.0838195
0.118908
0.0628008
-0.0187347
0.118072
0.0909034
0.033448
0.0209188
0.0209188
0.033448
0.0933532
0.033448
0.241913
-0.00398192
-0.334394
0.051803
0.0705792
0.042754
0.0796892
0.042754
-0.0810361
0.0440494
0.174627
0.0440494
-0.085629
0.227232
-0.0134572
0.116084
-0.0642859
-0.128361
-0.242591
-0.405856
-0.0269145
-0.0516133
-0.00585663
-0.0134572
-0.0229527
-0.25417
-0.0622446
-0.118797
0.210051
0.138348
-0.298327
-0.133119
0.301201
0.128515
0.207694
0.30252
0.123396
0.0350246
-0.191813
-0.0976165
0.0776399
0.334919
0.459401
0.0676644
0.0301685
-0.0671501
-0.0310619
-0.216525
-0.107458
-0.312962
-0.394102
-0.294176
-0.0257362
0.0331165
0.060567
-0.201149
0.0616399
0.0469633
0.109939
0.119918
-0.049129
-0.153511
0.0420232
0.259766
0.0297185
0.0595715
0.0337818
-0.0220142
0.046583
0.122163
0.077856
0.105047
-0.0415042
0.312603
0.0416594
-0.05249
0.0110524
0.0306725
0.00426931
-0.0702875
0.0901232
-8.2509e-322
0.0231091
0.083296
-0.0766177
0.0525216
0.146835
0.0294359
0.168933
0.179769
-8.2509e-322
0.0518071
0.157558
0.264422
0.0187459
0.303795
0.300828
0.0619106
0.0185102
0.0185102
0.238749
0.0462996
-0.231935
0.0557581
0.211222
0.0216942
0.0776934
0.0216942
0.0443776
0.044395
0.0174803
0.0239579
-0.0924822
0.174295
-0.224079
0.0309469
-0.169798
0.0309469
-0.0711688
-0.0151922
0.202392
0.00689563
0.00689563
0.0592781
-0.0398608
-0.144023
-0.0525996
-0.030324
0.276759
-0.0757071
0.0208208
-0.0293494
0.0208208
-0.194058
-0.00213595
-0.0835245
-0.0970466
-0.27653
-0.0224565
-0.0224565
0.155964
-0.0909476
0.0133232
0.0872329
-0.0678189
0.23368
0.125158
0.0754331
0.0216302
0.0961192
0.0347082
0.187097
-0.0299036
0.0347082
0.138698
0.0347082
0.0347082
0.0198671
0.0347082
-0.530913
0.0932284
0.0843287
0.36297
-0.184177
0.167612
-0.0793081
0.112136
-0.0580068
0.0549937
-0.0897375
-0.264058
0.0806552
0.412478
0.086704
-0.204905
0.032549
0.0806552
-0.0855358
0.033625
0.0270048
0.132037
0.0563727
0.107044
-0.0254538
-0.0997247
0.00859769
0.046506
-0.0546726
0.116652
-0.00148107
0.00980485
-0.107334
0.00980485
0.00832115
0.174827
0.035594
0.0447812
0.477088
0.0751921
-0.332014
0.266109
-0.276275
0.0111457
-0.102331
0.038428
-0.121717
-0.493736
-0.0364232
-0.0476928
-0.0476928
0.0936345
0.0391947
-0.102794
-0.33923
-0.0403063
-0.251173
0.0367898
0.101754
-0.0792032
0.0619839
0.00710345
-0.00691545
-0.299395
-0.000841118
0.131539
-0.190895
-0.0228716
-0.0228716
-0.228664
0.27447
0.0645958
0.0273309
0.144262
-0.118041
-0.0623467
-0.274548
0.140421
-0.0535232
-0.00154536
-0.124715
0.0305376
0.0305376
0.0731128
-0.034985
0.114197
0.0944292
0.0295782
-0.184262
-0.380615
-0.134452
-0.0359706
-0.144217
-0.0564139
-0.129092
0.176242
0.0767759
0.0308217
0.0533863
0.0335604
-0.00272702
-0.030433
-0.113942
-0.0359298
-0.131346
-0.0286296
-0.337777
0.070129
0.0104087
0.109349
-0.035753
-0.124548
-0.035753
-0.0612293
-0.031617
0.030393
0.0194284
0.238366
0.0337613
-0.384695
0.030393
-0.466117
-0.106526
0.0329754
0.0622445
-0.156487
0.433824
0.0973633
-0.164611
0.0886928
0.0820643
0.0032264
-0.00732582
-0.213524
0.0473454
-0.035581
0.0299707
-0.364446
-0.0114982
-0.242728
0.0739537
0.140561
0.171703
0.0330538
0.161902
0.0507015
-0.0638855
0.0237885
-0.400809
-0.0613224
0.0186554
0.0188314
0.101377
0.142238
-2.05395e-301
-0.0256356
0.00440156
-0.00187311
-0.0111792
-0.0256356
-0.0564425
-0.0631729
0.03513
0.323834
0.158079
-0.152273
-0.134601
-0.126604
0.0156071
-0.0902475
0.0122469
0.0122469
0.0122469
0.0122469
-0.0460633
-0.273516
0.0252791
0.190973
0.0334798
0.269958
-0.0174928
-0.147752
-0.039459
-0.0598692
-0.379669
-0.221169
-0.194613
-0.184524
-0.079659
-0.0809424
0.194006
-0.0231765
-0.0373842
-0.0621688
-0.248905
0.0798021
-0.095606
0.0307618
0.0307618
-0.0429299
0.157888
-0.0429299
0.0810431
0.0157455
0.19066
0.0896344
0.0980591
-0.266655
-0.199706
-0.249675
-0.321416
-0.135156
-0.0606257
0.125158
0.121175
0.297826
0.123286
-0.00861223
0.0270692
0.259656
0.463014
0.0786572
0.0786572
-0.305
0.133583
-0.0242831
-0.0242831
0.262688
0.0206957
0.0314591
0.081539
-0.126652
-0.0271853
-0.0827812
0.0405346
0.220123
0.0405346
0.0405346
0.237092
-0.041687
0.091588
-0.322663
0.032816
0.211925
0.00819094
0.191999
0.0168146
1.73118e-235
1.73118e-235
0.0142569
0.345693
0.0880402
-0.127717
0.12025
0.139405
-0.0640238
0.0403167
-0.0144621
0.022901
0.0176003
-0.0036484
-0.111858
-0.0209446
-0.0036484
-0.0801322
-0.0352539
0.132336
-0.0448449
-0.179316
0.0248021
-0.122921
-0.0461105
0.0115282
-0.0248484
0.00749571
0.0151814
0.00749571
0.0345299
0.294459
0.305704
0.200311
-0.00394585
-0.199507
-0.414044
-0.390434
0.315272
0.00637755
0.0162643
0.00637755
-0.0882055
0.0748338
-0.60275
-0.0278807
-0.0538405
0.0388509
0.00313957
0.135368
0.230823
0.0093702
-0.462671
-0.306116
-0.0174517
-0.280342
0.105143
0.379653
0.118571
-0.332918
-0.106563
0.0170978
-0.226027
0.0617486
0.0103684
0.038009
0.0230505
0.0230505
0.0230505
-0.212213
0.0206203
-0.0351274
0.209281
0.135664
0.0309013
-0.00585957
0.00832559
-0.00409033
0.0646781
0.135389
0.124361
0.00640925
-0.133442
0.00636672
-0.00204621
0.00128033
0.176905
0.0408729
0.042715
0.0134062
-0.104228
-0.126185
-0.214406
-0.0278499
-0.167156
0.224741
0.0738268
0.0441223
0.572077
-0.0433768
1.82887e-236
1.82887e-236
0.0690086
1.82887e-236
-0.118626
-0.132031
0.0504581
-0.0452803
-0.0349825
-0.069965
0.0384719
-0.0513894
-0.121974
-0.311438
0.0810874
0.0316524
0.0316524
0.0862872
0.0255295
0.211643
-0.0640486
-0.0381609
0.0255295
-0.113993
-0.112742
-0.142944
-0.331048
-0.15025
-0.0418305
0.154947
0.0556658
-0.00937126
-0.110096
-0.294249
-0.222733
0.0764732
0.0288518
0.0288518
0.0114371
0.0713174
0.0638063
-0.0485385
-0.0485385
-0.0643559
-0.218723
0.037944
-0.153233
0.0510231
-0.00769579
-0.0734253
-0.041414
0.151975
-0.0339139
0.213857
-0.228506
-0.0165874
0.0255642
0.0061115
0.00498588
0.0513264
0.176546
0.0417158
-0.00541943
0.0467519
-0.0137836
0.000112851
-0.0344851
-0.0142995
0.145993
-0.0300618
-0.0316745
-0.0689643
0.0353251
-0.0117082
0.210332
-0.422387
-0.0554367
0.0281904
-0.0554367
-0.302627
-0.124803
0.123478
-0.0929066
-0.0929066
-0.0929066
0.055927
-0.0436851
-0.0604449
-0.289757
-0.0397814
-0.133153
-0.0731118
-0.0403805
-0.640219
0.0575095
-0.0449925
0.0820407
-0.111246
-0.172101
0.0242939
-0.0830217
-0.108247
0.042777
-0.0465678
-0.265235
0.0409314
-0.107537
0.053551
0.0381706
0.269991
0.0573179
-0.372211
0.181541
-0.0265175
0.262708
0.063443
0.117454
0.106904
-0.0388463
-0.0308527
0.0106697
0.121388
0.0421783
0.0505321
0.307454
0.0610578
-0.303694
-0.173412
-0.0498038
0.105228
0.0825756
0.177905
0.21797
-0.00143295
0.0377161
-0.0410689
-0.012977
-0.47574
-0.084367
0.0465598
-0.0751633
-0.0442925
-0.0937849
-0.0328311
-0.299673
-0.176113
0.029658
0.029658
-0.356898
0.0950048
0.157908
0.0227891
-0.0485005
-0.167109
0.00189799
-0.0989929
-0.288044
-0.0135736
-0.015478
0.033533
-0.0829341
-0.0511518
-0.00715905
0.0291067
0.0133729
0.0133729
0.106365
-0.161805
-0.0559462
0.0138357
0.0379459
0.125169
0.097853
0.395202
2.01159e-86
-0.0132957
-0.105814
-0.00481623
-0.108414
-0.0293734
-0.129618
-0.00847018
-0.0188758
-0.00198569
-0.313882
0.232909
-0.188221
0.088719
0.0117551
0.112983
-0.105438
0.0117551
0.0117551
0.0682228
0.0117551
0.243712
0.037372
0.00351891
0.181119
-0.202253
0.274841
0.0181659
0.0181659
0.0881188
0.0181659
0.0181659
0.0181659
0.241553
-0.101268
-0.367908
-0.227819
0.423608
0.0389349
0.364826
0.0825555
0.108553
-0.0712057
0.0340054
-0.0191023
-0.290015
-0.0807506
0.0262066
0.0597917
0.262498
0.130423
-0.0213519
0.0162609
-0.171358
0.161686
0.0162609
-4.85363e-48
-0.11837
-0.0338724
-4.85363e-48
-0.121774
0.31696
-0.00174508
-4.85363e-48
-0.107939
0.00663405
0.260598
-0.0667492
0.00227066
0.0551451
0.0147255
-0.478397
-0.00620598
-0.0474977
0.276775
0.143585
-0.0313953
-0.0103869
0.0216119
0.096902
0.12684
0.243954
-0.237279
-0.345882
0.149878
0.111038
-0.0524493
-0.236387
0.027602
0.174609
0.0242574
-0.0713639
0.049983
-0.0538705
-0.0455179
0.164153
-0.132292
-0.437353
-0.00551103
-0.0319687
0.0601432
-0.310365
-0.334468
0.166406
0.228194
-0.0519556
-0.102201
-0.0659498
-0.0659498
-0.110454
-0.113053
-0.0659498
-0.113719
-0.0276857
0.203838
-0.0193554
0.086731
-0.212276
0.0697797
0.0858633
-0.120746
-0.0385196
0.0210166
0.116108
-0.3033
-0.0735615
-0.342392
0.0336776
-0.0857709
-0.00221632
0.097942
0.297436
-0.10807
-0.136128
-0.136695
-0.0298778
-0.0268603
-0.0736357
-0.00861624
-0.276113
0.00602371
0.111166
0.166248
0.106295
-0.0666349
-0.0929552
-0.0315507
-0.0315507
-0.060672
-0.259033
-0.0315507
-0.0420292
-0.133685
-0.0498301
-0.038125
0.0172741
0.0343512
0.0317011
0.0314205
-0.0957298
-0.0691392
0.0473083
0.0573311
0.120359
0.0176322
0.0998743
0.162745
0.0150658
0.0454764
0.0454764
0.227523
-0.0914589
-0.0153019
0.0411324
0.00518459
0.0837417
0.00518459
0.00327752
-0.173684
-0.0246723
0.190343
0.0939407
0.0198344
-0.224998
0.219963
-0.139456
0.123921
0.0249458
0.0498917
0.0054275
0.0236029
0.0498917
0.0249458
0.0708853
0.239259
-0.0490143
-0.126736
-0.0804757
0.291746
-0.0624119
0.0308576
-0.151304
-0.333378
-0.237528
0.213394
0.167171
0.040205
-0.0260584
0.148687
0.0109122
-0.10523
0.0634353
-0.149093
0.0133375
0.227819
0.0268921
0.0215027
0.0319064
0.0373068
0.0303671
-0.104664
0.0303671
0.116998
0.0125579
-0.167951
-0.0484754
-0.104553
-0.110953
-0.138719
-0.0484754
0.0116555
-0.176099
0.0527626
0.165256
0.163498
0.0635363
0.0724643
0.0430567
-0.235731
0.105298
0.328245
0.0805064
0.0554905
0.304767
-0.326653
0.0669532
-0.0696564
0.00456161
-0.052327
0.0262971
0.142466
0.00110405
-0.128379
-0.083456
0.0677864
-0.043926
-0.103196
0.0688729
0.136169
-0.020931
-0.029129
0.0167128
0.0844123
-0.0951504
0.0508382
0.0149885
0.0729646
0.0436852
0.211232
0.0216928
0.0216928
0.0927353
-0.207496
0.0131499
-0.0274567
0.0203837
-0.0992155
0.126307
0.0203837
-0.0835197
0.0548076
0.0912114
0.0340543
0.0340543
0.0510977
0.120041
0.00833328
0.0995379
0.0340543
0.130253
0.0626406
0.00514616
0.0653402
0.120898
-0.093093
-0.148175
-0.181718
-0.095087
-0.093093
-0.264062
-0.093093
0.195685
-0.199334
-0.205889
-0.0459814
-0.148983
0.216666
-0.0459814
-0.0213311
0.0590584
0.255111
0.147912
0.306412
-0.103983
-0.0720543
-0.0125377
-0.173853
0.09626
-0.107891
0.129814
-0.135291
0.0134539
-0.222452
-0.0076748
0.0701746
0.0221815
-0.132031
0.0596177
0.0132982
-0.00377649
-0.0327917
0.0749523
-0.0428813
0.0531779
0.209049
-0.127219
-0.127219
-0.151169
-0.127219
0.281627
-1.81731e-48
0.000290751
0.0345102
0.104964
0.000290751
0.000290751
0.073256
0.000290751
0.000290751
0.0544747
0.000290751
0.000290751
-0.212411
0.207505
0.17905
0.094925
-0.101922
0.0383514
0.0383514
0.0823605
-0.0478122
-0.0734478
0.0577022
0.433331
0.211181
-0.060767
-0.0358724
-0.263588
-0.152671
-0.024332
-0.24125
-0.0329643
0.0190073
-9.48606e-322
-9.48606e-322
-9.48606e-322
-9.48606e-322
0.0729174
0.102375
0.12179
0.0865452
0.0255479
-0.287765
-0.0746033
-0.260855
0.129581
-0.252463
6.8881e-49
0.00680545
-0.267988
-0.0209439
0.0330732
0.0378212
-0.17723
-0.470367
0.00589369
0.0223615
0.0791534
0.111733
0.00477763
0.0160554
0.00745065
0.0456238
-0.275872
-0.0691557
-0.100417
-0.158245
-0.0432591
0.354961
0.00707355
0.0345124
-0.0508846
0.00707355
0.00707355
0.0917983
0.0067118
-0.0228599
0.0533295
0.0531924
0.0490827
0.0158069
0.0808706
0.0808706
0.0173225
0.0834798
0.0378778
-0.0403252
0.0249819
0.00455016
0.13228
-0.253352
-0.0200906
0.0387491
-0.00614724
-0.00614724
-0.176181
-0.00546487
-0.0478511
0.112627
0.0378182
0.0209537
0.0378182
-0.0279149
-0.119678
-0.0279149
-0.531787
0.020435
-0.0170596
-0.204381
0.150756
0.0324219
-0.0718113
0.171304
0.0338199
0.0811196
-0.0361876
-0.0802871
0.123791
-0.0703218
-0.0703218
-0.0703218
-0.0258467
0.236154
0.00563277
0.0192716
-0.0208913
-0.13012
0.0660256
-0.0376233
1.40023e-47
-0.0626193
1.40023e-47
0.105412
0.0115192
0.0404751
-0.26875
-0.0032443
-0.423489
0.0426638
-0.183704
-0.00296186
-0.0937701
-0.0332972
-0.0135348
-0.177761
-0.00175937
0.0238447
0.00959679
0.00959679
0.0529725
0.00959679
-0.342521
-0.139712
-0.0317656
-4.27513e-220
0.115081
-4.27513e-220
-4.27513e-220
0.0197762
-0.0533236
-0.0576135
-0.0744651
-0.0188869
0.0401424
0.0695637
0.337566
0.0331799
0.151346
-0.0380622
0.0358088
0.0300373
0.0300373
-0.0229396
-0.116565
-0.138826
0.129522
0.335307
0.106853
-0.0281958
-0.0281958
0.127906
-0.0686978
0.264344
-0.0321446
-0.082072
-0.191284
0.041908
-0.108721
-0.00787168
-0.0714705
-0.10929
-0.10929
-0.0310823
0.00991241
-0.169799
-0.0745975
0.0594037
0.101981
0.073289
0.0198584
0.0816144
0.0455314
0.1675
-0.0409572
0.07898
0.0620939
-0.136694
-0.0945331
0.12211
-0.0881514
0.0511311
-0.132775
-0.187713
0.11689
0.02757
0.02757
0.105183
0.0387169
0.0642045
0.116227
-0.0449411
6.01062e-255
-0.151836
0.0843128
0.131677
0.0635794
-0.0301775
-0.179372
0.0115073
0.103556
-0.0289846
0.0356244
0.0215609
0.0167486
0.354655
0.28215
-0.0894822
0.00403044
-8.40373e-123
0.163826
-0.0728078
-3.85371e-322
0.121728
-3.85371e-322
-3.85371e-322
-0.117497
-3.85371e-322
0.116779
-0.0278596
-0.253513
0.00679292
0.00175192
-0.277216
-0.163984
0.00727908
0.212729
0.139467
-0.0255889
-0.0886081
-0.103903
0.0231798
0.0325888
-0.0224754
-0.146262
-0.120009
-0.100193
0.217704
-0.0269964
-0.0296872
-0.23407
0.0291346
0.0291346
0.116739
-0.158827
-0.10838
0.182367
0.00874084
0.0292496
0.0486995
-0.110204
0.229762
0.0278843
0.0298361
-0.0235999
-0.0703815
-0.154352
-0.0020403
-0.172795
0.0891396
0.458496
0.11758
-0.177259
-0.032403
-0.119959
-0.219306
0.0567882
-0.12763
-0.229598
0.153684
-0.304451
0.0735007
0.0471655
-0.38631
0.0471655
0.0471655
0.0471655
0.0457983
0.0457983
0.0457983
0.0646324
0.129981
0.0985462
0.187012
0.152616
-0.0676135
0.0064213
0.0064213
0.0443677
0.0517675
-0.16066
-0.114545
-0.110484
0.0211531
-0.151709
0.0292955
0.204441
0.154768
-0.0689434
0.0123854
-0.217299
0.117569
0.190528
-0.0376783
-0.0752576
0.0581252
0.317988
0.0292317
0.0569254
0.535508
0.0281279
-0.000627549
0.0281279
0.0774033
-0.058192
-0.0284142
0.0281279
0.0877621
0.0362334
0.0265594
-0.0200152
0.250372
0.0495601
0.191581
0.013545
0.0798954
0.048153
0.013545
0.013545
-0.0443162
0.0367395
-0.0072055
-0.106358
0.0977369
0.0415525
-0.0600744
-0.203019
0.10986
-0.012275
-0.297491
-0.0657739
-0.510986
-0.0996074
0.0937474
0.0369829
0.0336235
0.0336235
0.0771004
0.00428674
0.00428674
0.00428674
-0.172083
0.0215042
-0.0896704
0.197072
0.033155
-0.065167
0.0252473
0.188585
0.119781
-0.0852358
-0.0852358
-0.0852358
-0.143109
-0.0104841
0.156274
-0.0703599
-0.209863
0.184229
0.0589564
0.171506
0.0293267
0.0646769
0.0278113
0.00695726
0.162646
0.031279
0.00695726
0.0743414
0.168358
0.0303296
-0.051381
0.210963
0.0119384
0.0938355
-0.174617
0.0524335
-1.20298e-94
0.123104
-0.0176627
-0.022485
-0.233992
0.165883
-0.0488777
0.119517
0.0750734
-0.00799724
-0.0704637
-0.0330183
0.0717854
-0.132368
0.0278668
0.144448
0.0278668
0.0271277
0.0271277
0.0307334
0.103419
-0.0784945
0.0264723
-0.0822815
-0.0248199
-0.311104
-0.0169884
0.13111
-0.189389
0.0372132
0.209513
0.0181614
0.149444
0.0181614
0.315255
0.0284016
0.005675
0.196935
-0.00424139
-0.0201518
-0.147586
0.116918
0.0198198
0.158319
0.16044
2.36739e-123
2.36739e-123
0.414671
0.168503
0.0224355
-0.210895
-0.0537386
-0.0482198
0.00187186
0.0991766
-0.0183671
0.0811445
0.00187186
0.0252773
0.0319973
0.156687
-0.131234
-0.0399688
-0.135532
0.168224
-0.117231
0.19615
0.0662481
-0.193595
-0.0467203
-0.0467203
-0.0368029
-0.123308
0.0404593
-1.19763e-302
0.272172
0.0744212
0.0912034
-1.19763e-302
-1.19763e-302
-0.0843803
0.0139724
0.031494
-0.235906
0.116194
0.0181242
-0.145713
-0.302347
0.265999
0.14166
0.153409
-0.0374058
-0.0807731
-0.0783396
0.19235
0.198938
0.00371644
0.0666553
0.0156585
-0.0810708
-0.0140885
-0.101454
-0.09712
-0.107323
0.124612
0.136351
0.320252
0.0369742
-0.109867
0.369825
0.0154903
-0.0988775
0.196919
-0.0715149
-0.0142397
0.079367
0.0224648
-0.00137797
0.0224648
-0.132735
0.0517769
0.0243251
0.217868
0.00337658
0.148261
1.60981e-236
0.143197
0.189563
-0.194077
0.205259
-0.454269
0.188497
0.0112029
0.111167
0.194214
0.0937183
0.0131269
0.14
0.011558
0.0454835
-0.040935
0.00503379
0.155919
0.044564
0.0567455
0.169255
0.177752
-0.0261533
-0.0260964
-0.265125
0.314282
1.11826e-235
0.0713601
-0.0664111
-0.0474539
0.472949
-0.0804071
0.00662876
0.233818
-0.122363
0.0622655
0.00264873
-0.246645
0.0254446
0.00264873
-0.0283618
0.0245811
0.0747808
0.0713927
-0.0444389
0.144982
-0.160448
-0.284916
0.0784195
0.0653129
0.000629717
0.0171136
0.108465
0.0453438
0.0778407
0.351284
-0.542861
-0.0318824
0.0382297
0.22795
0.200346
0.16351
-0.0207556
0.110148
0.0334914
0.0421543
-0.31803
-0.153866
-0.141458
0.0552253
-0.116048
-0.191754
0.169311
0.0870728
0.0258176
-0.109089
0.168064
0.302098
-0.27839
-0.127044
-0.160579
-0.306667
-0.036959
0.0396972
0.00114248
0.0126825
0.0126825
-0.0210569
0.0405191
-0.0370185
-0.0370185
-0.0147854
-0.150713
-0.08665
-0.0155276
-0.0155276
0.0165757
-0.00669693
-0.0391368
-0.0155276
-0.0506253
0.0444711
-0.0113024
-0.367617
-0.173626
-0.22342
-0.427077
0.0317777
0.158774
-0.0408573
-0.219561
0.0641662
0.170137
0.0286362
-0.102858
-0.136229
-0.187583
0.0679442
-0.00372678
0.239939
-0.103459
0.101629
-1.25493e-321
0.146417
0.0876463
0.134334
0.0759554
0.00756445
0.122745
-0.0389075
0.00756445
0.127999
-0.376724
-0.305584
0.0719806
0.151528
0.0337369
-0.133927
-0.0762786
-0.0371618
-0.156729
-0.0678187
-0.0596438
-0.0596438
-0.0709537
-0.349597
0.0218425
-0.194018
-0.0697328
0.0344034
0.04012
-0.0315172
-0.212783
-0.132776
0.105942
0.284536
0.083087
0.00200883
-0.44232
0.0279616
0.0806125
0.103518
0.0327608
0.0626123
0.0511111
0.0626123
0.0234484
0.00467262
0.0230429
0.0622964
-0.13037
0.0207929
7.5098e-322
0.160063
0.115006
0.0904144
0.0254572
7.5098e-322
0.112717
0.0113996
0.297538
0.0276941
-0.345139
-0.0257778
-0.0450006
0.0599018
0.0299406
0.089061
-0.00628071
0.105296
0.0185507
-0.0692824
-0.182359
-0.00958017
-0.0369156
0.0426561
-0.0612651
0.191727
0.140369
0.0264775
-0.0516034
0.397043
0.286206
0.0626172
0.0614417
0.0139344
0.0468894
-0.0391195
-0.0563714
0.0776012
0.106789
-0.151157
0.00233809
0.0300981
0.0442827
-0.0410204
0.035686
-0.170816
-0.135307
-0.106186
-0.0296788
-1.56186e-122
0.0640729
0.00106421
-0.303818
-0.0884866
-0.0799075
0.236871
-0.103124
0.221565
-0.167612
-0.230595
0.0236446
0.305572
0.0812845
-0.00919689
-0.0760087
-0.104484
0.15197
0.0591721
0.0219277
0.0308987
0.0308987
-0.0564233
0.0489136
0.000938466
-0.027567
-0.113094
-0.171177
-0.0316231
0.277375
0.0311331
0.333147
0.285449
-0.101103
-0.101103
0.0636967
-0.109358
-0.0204176
-0.0577747
-0.160269
-0.113929
0.0201193
0.144431
0.0385722
0.0385722
-0.0276019
-0.0276019
-0.0276019
-0.0276019
0.0840699
0.0227044
0.0576106
-0.120079
-0.00724314
-0.067025
0.0667282
-0.128321
0.0450226
0.0185215
0.0992983
0.0198086
-1.03406e-94
0.0409501
-1.03406e-94
0.111871
0.0286738
-0.0752827
0.147504
0.00264297
0.00264297
0.144912
0.0222004
-0.0742559
0.346344
0.10803
0.0468871
0.0353031
0.076571
0.0117492
0.0693718
-0.0221638
-0.0221638
-0.0221638
-0.317391
-0.091519
0.0548774
0.0243363
0.0274011
0.0274011
-0.0894518
-0.362753
-0.0778067
-0.0185234
1.50954e-94
0.0619198
1.50954e-94
1.50954e-94
-0.132782
-0.00201839
0.0900039
-0.107935
0.0469503
0.025973
0.00845882
-0.129263
-0.210651
0.163678
0.0834482
0.225581
0.116495
0.187276
-0.211279
0.0072339
-0.2996
-0.338986
-0.186479
0.00131493
0.0169292
0.0163601
-0.0161107
0.0127032
0.00956658
-0.128517
0.0247767
-0.143228
-0.332511
-0.0100211
0.071909
-3.65609e-322
-0.032451
0.108734
-3.65609e-322
0.139465
0.0319849
0.0527129
0.0319849
0.0319849
0.260618
-0.0762009
0.0328544
-0.103634
0.0255381
-0.193412
0.1447
0.189466
-0.120841
0.182877
0.0737297
-0.154831
0.0070216
0.100092
0.0907212
-0.313054
0.0847699
0.0101106
0.0227473
-0.00354963
0.0141949
0.0590561
0.00353172
-6.91692e-323
-6.91692e-323
0.0294557
-0.0362744
-0.113174
0.0320244
0.0300607
0.0300607
-0.017075
0.138722
-0.186625
0.0192332
0.0541147
0.0176016
0.00256782
0.264912
-0.0799069
0.0783227
-0.107924
0.0366368
-7.77125e-48
0.515582
-0.0530191
0.0704923
0.038493
0.0797235
-0.0522824
-0.0522824
-0.0522824
-0.187666
-0.0729648
0.258187
0.164792
0.0151465
0.040469
0.199513
0.0371116
0.0153736
-0.0228092
0.0323226
-0.0225675
0.0369792
-0.0468419
0.25809
0.00691488
0.100048
0.0285101
-0.203445
-0.0563522
0.301432
0.0699733
0.0286954
0.00325968
0.0288588
0.0302161
-0.0427525
0.0514456
0.0837231
0.179858
0.113319
0.0218849
0.0218849
0.0218849
0.0367795
0.136759
0.00282938
-0.0313112
-0.0284461
-0.175496
-0.215162
-0.0140938
-0.180707
0.100695
0.0566509
-0.0556394
0.023829
0.179295
0.0199098
-0.00666653
0.167943
0.3513
-0.0612722
0.0304603
0.00523996
0.113222
-0.0407684
-0.0675303
0.301578
-0.00745366
0.0331684
0.135406
-0.0293201
0.144011
0.0176308
0.0399537
0.32622
0.0399537
-0.1114
0.107964
9.20035e-33
0.138187
0.171773
0.0314235
0.304593
0.045301
-0.154478
-0.0276196
0.0905014
-0.0192499
-0.0192499
-0.0192499
-0.0192499
-0.0192499
0.0928387
0.0054318
-0.333963
0.0336716
0.0336716
0.0728105
0.21688
-0.685076
-0.162407
-0.0620539
0.0540441
-0.303218
0.0715784
-0.0681838
-0.015214
-0.012165
0.0853895
-0.373724
0.0241286
-0.0081318
-0.18396
0.0804357
-0.180742
-8.1425e-95
-8.1425e-95
-8.1425e-95
-0.0334615
0.0313828
0.0313828
-0.392928
-0.1129
-0.1129
0.0950225
0.12797
0.0428855
-0.142922
0.223508
0.0578207
-0.00529868
-0.21797
0.193926
0.0224169
0.0470858
0.100039
0.0470858
-0.0677964
-0.168572
1.11453e-15
0.0719308
-0.0781718
0.0988377
0.128634
0.0293107
-0.0931404
-0.0599948
-0.0964495
0.0296008
0.0296008
0.0296008
0.0296008
0.0296008
-0.211089
0.0784167
-0.165992
0.0420975
0.00778975
-0.0445937
0.184908
-0.0628602
0.0225759
-0.0646994
-0.0635815
0.150014
-0.0948098
0.0250454
0.119213
0.23233
0.0654006
0.0315808
-0.0398038
-0.0306027
-0.0398038
-0.00499573
-0.402779
-0.0398038
0.249712
-0.0280876
-0.0398038
-0.16995
-0.0609628
-0.0628211
-0.0609628
-0.0589557
0.0575915
0.0411339
0.0411339
0.0411339
0.101808
0.0527986
0.22582
0.0186422
0.0217044
0.0109696
0.0276526
0.00874139
0.0511469
0.361751
0.020508
0.0159653
0.0400879
-0.0696758
-0.0853335
0.0220514
0.359746
-0.205453
0.0424109
-0.0182885
0.0897443
-0.0677119
0.134783
-0.174406
0.433592
0.209975
-0.0205719
-0.0630486
-0.0342115
-0.156237
0.0373467
-0.0030519
-0.00623287
-0.0488505
0.0424998
-0.164136
0.0269383
0.00883186
0.0269383
0.0269383
0.258482
0.0257368
-0.109881
-0.200697
0.0235487
0.0181449
0.0298693
-0.105833
0.130734
-0.131989
0.016925
0.126674
0.0639848
0.180669
0.0412501
0.0242686
0.140003
0.096804
0.0242686
0.0820298
0.162218
0.0242686
0.160051
-0.0724974
0.0310433
0.0310433
-1.43069e-94
0.380617
0.0274858
0.0209576
0.0209576
0.0209576
0.0209576
0.081542
-0.0255486
-0.00951283
-0.024908
-0.0492367
0.0166192
-1.26578e-47
0.0525886
-1.26578e-47
-0.218371
-0.0821431
-0.275452
-1.26578e-47
0.125928
0.111948
0.0240953
0.0792149
-0.0685492
0.0240953
0.00795531
0.0240953
0.026503
-0.0550769
0.0689498
4.84998e-48
0.0838188
-0.0484216
-0.289593
-0.0118344
-0.536186
0.0296756
0.369766
-0.125537
-0.400091
-0.0935593
0.074746
-0.0390663
0.0889201
-0.00461793
-0.338553
0.0148964
0.201985
0.106005
1.71441e-321
0.0172706
1.71441e-321
1.71441e-321
1.71441e-321
-0.12415
0.0434742
0.0434742
-0.00290116
0.109305
-0.00450295
0.0756879
-0.0892303
0.0355313
-0.0382673
0.141617
-0.175389
0.0107389
0.0169724
-0.208822
-0.043713
-0.0942768
-5.33591e-322
-5.33591e-322
-0.0385204
-5.33591e-322
-0.0418946
-5.33591e-322
0.0433998
0.0433998
0.0433998
0.0192731
0.0162883
-2.00053e-163
-1.75183e-164
-1.75183e-164
-1.75183e-164
0.1347
0.0327588
-0.0485207
-1.75183e-164
0.011585
0.0994956
-0.14965
-0.0249761
-0.00196915
-0.0454102
-0.00106074
0.0624079
-0.0365689
0.0431018
0.0227955
-0.0845958
0.162582
0.0775092
-0.125129
0.0345656
-0.28653
0.195118
0.08488
-0.0865409
0.0698843
-0.01772
-0.0053822
-0.290943
-0.0750126
0.0322811
0.0708857
-0.0573279
-0.088794
0.0208853
-0.0467361
0.0748157
-0.0554771
-0.158146
0.00888197
0.0668065
0.0288262
-0.0174204
1.30672e-206
1.30672e-206
0.122634
0.174189
0.0384424
-0.00916888
0.0125435
0.172055
-0.0194478
0.112385
0.00818633
0.038943
0.038943
-0.0435108
-0.040123
0.0670586
0.237195
-0.0675399
0.0032489
-0.0712798
0.0356364
-6.89508e-164
-3.44754e-164
0.0960102
-0.192795
-0.0389499
0.109426
-0.0981323
0.0504398
-0.0345207
0.0143255
0.0143255
0.0190178
-0.0816923
0.0820984
-1.05275e-07
0.0593853
0.0993718
-0.0600433
-0.0265378
-0.0194661
0.268642
0.275427
-0.237306
0.0502595
0.111222
0.1449
-0.118715
-0.0335384
0.121462
0.0322487
-0.0377259
0.329148
0.0332751
0.100479
0.0575799
0.0523142
0.0236986
-0.15205
0.0625008
0.148846
0.0413339
-0.0282078
0.220291
-0.0417618
-0.0581489
0.0840427
-0.141281
0.184552
-0.117485
0.0251599
-0.141905
-0.142445
-0.234297
-0.0389468
-0.0389468
0.109915
0.0556032
0.0258525
-0.171561
-0.0071447
0.0192565
0.0192565
-0.0236593
0.0271283
0.0261263
-0.0845491
0.0239063
0.0511092
0.0511092
0.086876
0.086876
-0.0151788
0.211465
-0.0399711
-0.0755078
-0.529141
0.117895
0.192316
-0.00669174
0.142048
-0.111272
0.00815483
0.048117
0.00815483
-0.00500352
-0.111238
-0.358575
-0.125328
-0.0796635
0.232451
-0.0205455
0.0314077
0.0190167
0.17449
0.237042
0.00231228
0.00231228
0.00231228
0.0225105
0.00231228
-0.0889912
-0.0354379
-0.0817762
-0.186922
-0.0716214
0.237835
0.00347652
-0.215552
0.0171711
0.0343423
0.0171711
0.141133
0.0695237
0.0785341
-0.276263
0.082268
0.0768768
0.0747565
-0.403063
0.0195339
-0.0405113
3.44391e-47
-0.029182
-0.0573904
0.0201109
-0.167854
0.061174
-5.71081e-164
0.0279321
-0.340889
-0.0115125
0.21757
0.0260071
0.224627
0.0985608
0.0445603
0.0251562
0.0251562
-0.241407
0.134983
-0.109238
-0.0643467
-0.0512389
0.203101
0.289418
-0.0444708
-0.0045218
0.0635856
0.0286954
2.50568e-256
2.50568e-256
2.50568e-256
-0.0666128
0.149887
0.0141442
0.00699147
0.276715
0.039136
-0.0533362
-0.268022
0.0141442
0.0141442
0.0137471
-0.15717
5.07001e-164
-0.491548
1.27963e-321
1.27963e-321
0.0654118
0.044109
-0.101447
1.27963e-321
-0.0676647
0.140796
-0.128059
-0.0775693
0.248766
-0.33761
-0.060472
-0.0745242
-0.114082
-0.0543524
0.0427897
0.0259929
-0.0894905
0.0306179
-0.301273
-0.06385
0.0506822
0.156701
-0.475678
-0.031925
0.0325007
0.0363839
0.100459
-0.00334946
0.19029
0.161719
0.120332
0.0848975
0.0901049
-0.119863
0.0104279
0.0180948
-6.12173e-95
-0.0340112
-0.211002
0.0325346
-0.0340112
-0.389562
0.0777028
-0.0196343
-0.0639114
0.126803
-0.0196343
0.316452
0.0588617
0.074516
0.200025
0.0198461
-0.102226
-0.0486496
-0.0486496
0.064229
0.0489739
0.207848
0.0985773
-0.081615
-0.0334383
-0.221357
-0.000126993
-0.120589
0.0634068
-0.63513
0.0839418
-0.0123216
-0.0257499
-0.267531
0.0640979
0.0286988
0.0947993
0.00390814
-0.0859207
0.00781627
0.00781627
0.0985771
0.00390814
0.00390814
-0.0308835
-0.223748
0.0732331
0.0658231
0.0301083
0.00214474
0.00214474
0.00428948
0.0292154
0.050906
0.0131577
0.280922
0.0123156
0.0888482
0.21671
0.00959908
-0.215526
0.0186245
0.295269
0.0551065
0.0305165
0.0305165
0.0750521
0.0305165
0.1816
-0.194059
0.0329846
-0.232111
0.0161836
-0.114689
-0.0282473
-7.94989e-123
0.154749
0.0945865
0.161743
0.0250643
0.0536473
0.0366236
-0.00156402
-0.044223
-0.118434
0.0453591
0.168695
-0.0344605
0.162795
-0.0421132
0.0413542
-0.136741
0.149539
0.0562612
0.0489287
-0.0791839
-0.0828345
-0.0536231
-0.070677
-4.91578e-83
-4.91578e-83
-4.91578e-83
-0.223755
-0.0635925
-0.0663023
-0.0123017
0.11117
0.0804577
-0.0512925
0.0379205
0.0918784
9.88117e-33
9.88117e-33
-0.0302686
0.203572
0.0167923
0.0180521
0.0912634
0.0551362
0.0551362
-0.108574
0.0565794
0.025451
-0.0617639
0.0074773
0.0204801
0.0423846
-0.141737
0.059899
0.0205044
-0.0876765
0.037512
0.0872303
-0.0249997
0.058007
-0.105134
0.108573
0.0316143
0.0114789
0.0294111
-0.162971
0.0493122
0.0241027
0.0241027
0.00725526
0.0604809
0.0404492
0.0355968
-0.0990348
0.347043
0.0224927
0.0224927
-0.00847979
-0.13074
-0.00832873
0.0373481
0.0705527
-0.0658517
0.0381938
0.0199852
-0.0118885
-0.192268
0.0981493
-0.0175662
0.0379816
0.209995
-0.0511131
-0.0376243
-0.13282
-0.0141133
-0.372228
-0.202203
-0.0141133
-0.0712189
0.0425399
0.0983516
0.0524092
0.0524092
0.0162334
0.00965579
0.0693058
0.0625621
-0.141961
0.109702
0.0400807
0.0934382
-0.00394784
0.0439068
0.0786253
0.0118204
-0.183669
0.0600297
0.327567
0.0563053
0.0423743
0.0884277
0.181129
-0.0352037
0.00578606
0.0240076
3.02363e-205
0.207851
-0.018029
-0.086186
-0.381726
-0.0641455
-0.00460713
-0.0535888
-0.0535888
-0.0503255
0.133988
-0.241481
-0.0871749
0.0840068
-0.158108
-0.0372556
-0.0372556
-0.0344546
0.151417
0.108814
0.137511
3.32156e-123
0.139417
0.0532622
0.294129
0.116763
0.073217
0.0355757
-0.0916133
-0.118559
0.0400889
0.258382
-0.0918914
0.158419
0.0054201
0.0898285
-0.0383675
-0.211128
-0.147507
-0.0217507
0.000993867
-0.333353
-0.549199
0.182524
-0.103567
0.0261457
0.0464466
-0.0989477
0.0482668
0.0758847
-0.0162225
-0.0692164
0.00890839
0.00890839
0.244887
0.04576
0.186542
-0.0214291
0.0901693
-0.0213859
-0.187527
-0.0373745
-0.0626607
-0.0373745
-0.0853626
-0.0463431
0.112429
-0.225701
-0.0336974
0.0263879
0.0857625
0.0427058
0.0395349
0.117636
0.138023
0.0427058
-0.0153908
0.160952
0.184551
0.288392
0.00624155
-0.125765
0.0167722
-0.256241
0.0851717
0.0948451
0.0331267
0.112399
0.18204
0.420026
-0.0479809
0.0522309
-0.0299782
-0.075007
-0.00890608
5.13426e-15
0.0555301
0.0391187
5.13426e-15
0.0790243
0.0616269
0.0121237
0.0483412
0.072565
7.74544e-206
0.0256108
0.0256108
0.0256108
-0.016445
-0.0449216
0.0256108
0.0256108
0.0256108
0.0256108
0.0275501
0.0346972
0.0508539
0.0508539
-0.02797
0.261305
0.0131379
-0.0748808
0.0113783
0.00726609
0.11227
-0.222877
0.296789
0.1184
0.0247986
0.0050065
0.0465097
0.0213382
0.0273935
-0.00971326
0.0350781
0.00249948
0.0606683
0.109345
0.0464727
0.0245268
0.0245268
0.00798177
0.026732
-0.0344712
-0.080011
0.108313
0.0936521
0.0456409
0.0272544
0.140368
-0.00470088
0.0190804
-0.392947
-0.366813
-0.135263
0.0124076
0.0222355
0.0845826
-0.252269
0.048347
-0.0752068
0.0503295
0.18278
-0.200594
-0.198689
0.17984
-0.0390268
-0.154854
0.0458144
-0.229821
0.00393828
0.0154049
-0.00180297
-0.0368811
-0.161755
0.0122362
0.0214436
0.0477625
0.0428873
-0.0221325
-0.0528531
-0.0528531
-0.156043
0.177671
0.130514
0.0437503
0.0437503
0.0482277
-0.154642
0.148567
-0.112531
0.0359541
0.0764414
-0.131671
-0.131671
0.0358146
0.0358146
0.0358146
0.0358146
-0.0612913
-3.552e-48
0.190895
0.16054
0.00411625
-0.00443161
-0.10977
-0.18389
0.187952
0.00299751
0.00299751
0.00299751
0.153159
0.0291114
0.120279
0.00299751
-0.0462552
0.185466
-0.313967
0.0579756
0.0362553
0.0997129
-0.0424126
0.00192398
0.0480843
0.164001
0.110127
0.0330369
-0.177653
-0.309058
0.0216452
-0.0139469
-0.0646307
-0.124381
-0.165579
0.0920792
-0.25278
-0.0134174
-0.156289
-0.203731
0.144429
0.00950262
-0.0109432
0.120029
-0.0424673
0.00600611
0.0657501
0.0139018
0.019487
0.0139018
0.0139018
0.0139018
0.140366
-0.103006
-0.00962863
-0.128913
-0.00770396
0.0488228
-0.0987037
0.0376201
-0.0161419
0.0587835
-0.0637618
0.016095
0.268113
-6.94006e-48
0.154775
0.116132
0.0987644
0.162895
-0.0419867
-0.287814
-0.00340166
-0.280823
1.47858e-14
0.0417289
1.47858e-14
0.0211678
0.193124
1.47858e-14
0.0298864
0.118114
0.0466739
-0.0214021
0.0254686
0.306077
0.213466
0.182617
0.0061945
0.00648245
-0.126589
0.042796
0.0316328
0.221175
0.0305786
0.0463425
0.0983872
-0.0442031
0.0960486
0.180618
0.00659252
-0.201979
0.0542829
0.0303529
0.181925
0.00974619
0.0825511
-0.0169863
0.0200577
0.120497
0.0775627
-0.168794
0.0329165
-0.0239702
-0.0317057
0.0430529
-9.63428e-322
0.384503
0.0515917
0.0421288
0.152071
0.0711414
0.0500206
-0.232483
-0.130411
-0.0997083
-0.130411
-0.130411
0.0724298
-1.51169e-94
0.0340271
0.108708
0.219261
0.102308
0.0660448
0.0304169
-0.159672
-0.000799844
-0.0468163
-0.0348607
-0.100516
0.0119916
-0.000799844
-0.051595
-0.167731
-0.00473187
0.0166999
-0.130742
0.0167719
0.0814835
0.0333998
0.0723037
0.144529
-0.0372631
0.0307421
-0.0500623
0.135394
0.100565
-9.66589e-48
-9.66589e-48
-9.66589e-48
-9.66589e-48
0.10081
0.117589
-9.66589e-48
0.0254981
0.024863
0.239872
-0.0835349
-0.0502281
-0.0502281
-0.0294237
-0.0294237
-0.0294237
-0.122626
-0.051823
-0.167046
-0.0745994
-0.0745994
0.124317
0.168964
0.0876173
0.050575
0.0299269
-0.0485349
0.0299269
0.100532
0.0566628
0.132972
-0.0483172
0.0342773
0.0342773
-0.0997913
-0.0327822
0.0952727
0.107297
-0.0102288
-0.221823
0.177731
0.0524686
-0.0245785
0.0200956
0.0436075
0.0427188
0.0248585
0.0248585
0.0248585
0.0248585
0.00154433
0.0598883
-0.0280506
-0.127418
0.0175439
0.137722
0.0779155
0.0968324
1.96789e-26
0.055874
-0.0776296
-0.219593
0.0758457
-0.166804
0.152244
0.105597
0.112052
0.150829
0.0217524
2.19175e-289
2.19175e-289
-0.0395687
-0.00448576
-0.0971514
-0.071979
-0.0971514
-0.0271285
-0.225521
-0.0754791
-0.012945
-0.0746549
-0.255661
0.0503376
-0.0399118
-0.00326418
0.0176507
0.0218506
0.089172
-0.265445
-0.153752
-0.0044609
0.00411265
0.015624
-0.00755265
0.00282457
-0.0971885
0.0312935
-0.0243404
0.277163
0.0501131
0.00978871
-0.263677
0.122052
-0.114427
0.0224742
-0.0999188
0.167215
0.106055
0.119173
-0.170132
0.0367016
0.126041
0.0450363
0.156392
0.0225772
0.0169324
0.0819121
0.130253
0.0437018
0.0437018
0.0313186
0.0437018
0.0664666
0.199156
-0.0293249
-0.128722
-0.185025
-0.358766
0.207414
-0.0504021
-0.0504021
0.0137978
0.0770724
0.115557
0.0760743
-0.0842606
-0.0721355
-0.0672458
-0.0132644
-0.291882
0.0192605
-0.019267
5.85696e-48
-0.0901921
-0.242039
0.203836
0.386173
0.0420244
0.035683
0.147773
0.035683
0.00101682
0.154823
0.0989189
0.0849144
-0.294373
-0.0604689
-0.0604689
-0.0163105
0.0482773
0.0482773
-0.100265
0.0290121
-0.0215021
0.0264703
-0.35989
0.0371314
0.0602343
3.47231e-123
0.0366594
-0.0103807
-0.0184903
0.0656525
-0.0184903
-0.0649741
0.0746109
0.0272029
0.0272029
-0.163069
0.0311134
0.136507
-3.35915e-95
0.0146528
-3.35915e-95
-3.35915e-95
-1.23583e-94
-3.35915e-95
-8.94697e-48
0.0659115
-0.00698544
-6.37895e-95
-6.37895e-95
1.08076e-05
-0.0564495
-0.0264808
0.0477799
0.230936
0.0650122
0.0476092
0.0256658
0.0256658
0.0447845
0.101745
0.0326396
0.0326396
0.0326396
0.0326396
0.00389107
0.0326396
-0.0972268
0.0595035
0.0304853
-0.0312283
0.0774122
0.0306648
-0.0507952
-0.100097
-0.100955
0.0352983
-0.0702935
0.0558406
0.142713
0.0244538
0.0244538
0.116801
-0.0193152
0.0800435
-0.0787894
-0.0787894
-0.0528157
-0.0540491
-0.109196
-0.0540491
-0.121377
0.0898555
-0.0375261
-0.0375261
0.011566
0.177801
0.0178508
0.000659572
-0.19649
0.00252249
-0.0459669
0.0493118
0.0493118
0.29838
0.0474221
2.71736e-322
0.179309
0.259109
0.107277
0.0621849
2.71736e-322
0.0346631
0.0153209
0.15015
0.0458379
-0.0571857
0.117526
0.0327144
0.0741762
-0.0245067
0.147593
0.100636
0.101206
7.61215e-15
-0.440284
-0.0350669
0.0358105
-0.0905987
0.0458573
0.0431879
0.0431879
0.0431879
0.0275382
-0.0125405
0.0275382
1.09629e-14
1.09629e-14
0.200605
0.197142
0.0628197
0.300487
-0.0803958
0.549819
-0.111661
0.0256799
-0.0944158
0.0285947
0.113231
0.0726032
-0.0630466
-0.0426883
0.0175796
0.165993
0.0603426
0.0945506
0.0852062
0.0359576
0.0359576
0.0165204
0.107401
0.0122851
0.0122851
0.0122851
-0.075065
0.0349435
0.0962008
0.0666697
0.0796161
0.0796161
0.120282
0.126081
0.0525031
0.123276
-0.121092
0.0237754
0.0531583
0.100399
0.254428
-0.017804
-0.0189899
-0.037325
-0.03232
-0.261927
-0.182523
0.204031
0.0992888
0.112316
-0.0117076
0.219749
0.00624964
0.427191
0.0259958
-0.102922
0.0652783
0.0424763
0.0508581
0.0561904
0.0299097
-0.0460332
0.0521006
-0.078731
0.0171246
0.0271308
0.0171246
0.0171246
0.0171246
0.0171246
0.0171246
0.0342492
0.287541
0.0699192
-0.065419
-0.153791
0.048016
-0.065419
-0.0419821
0.0307787
-0.08018
0.00198721
0.105801
0.0325388
0.0355828
0.0355828
0.104027
0.0853176
0.0135341
0.0162937
0.00195221
0.0392123
0.0135341
0.0135341
0.0135341
0.0135341
0.0269875
-0.0671497
-0.124693
-0.045182
0.0423413
-0.328966
0.00856773
-0.0743886
-0.0592245
0.111805
0.231488
0.0294245
0.0602511
-0.0305983
0.118201
-0.0828075
0.161376
0.0202336
-0.0866914
0.224643
-0.184425
-0.332495
0.142926
0.0609069
0.166063
-0.0351598
-0.130057
-0.0987952
-0.0906886
0.105799
0.00311885
-0.32649
0.248534
0.225814
0.00311885
0.253924
0.00311885
0.0700112
0.014746
0.107881
0.0125232
-0.0826172
-0.0888103
-0.125309
-0.0381689
-0.0381689
-0.196261
-0.0949701
0.0396225
0.0772496
0.0579017
0.053858
-0.0654575
0.100663
0.00632014
0.00632014
-0.101499
-0.129153
0.0723634
-0.0837127
0.0607595
0.0968312
-0.395129
-0.0797882
0.0512522
0.0275449
1.45906e-123
0.0368077
-0.174415
0.0943929
-0.0763239
0.0806398
0.0411204
-0.0361122
-0.0486041
-0.00932963
-0.0764647
-0.284227
-0.199793
-0.0764647
0.375932
0.0073693
0.0067033
0.078995
-0.0362247
-6.76091e-48
0.249423
0.0467405
-0.0108979
0.0444937
0.0345926
0.00877664
0.00780801
0.00877664
0.158217
0.00675756
-0.396398
-0.0198167
0.0522042
-0.000861657
0.100619
0.0122404
-0.0092815
-0.0391912
0.0545898
0.0545898
0.0545898
-0.0106388
0.138741
0.0154189
-0.00668603
0.0093751
0.0154558
0.0154558
-4.08003e-95
0.0257667
-0.0652849
-1.49229e-276
-3.71128e-164
0.0501397
-0.148978
0.0139304
0.0359503
0.0761596
0.00392681
-0.0517132
0.0200835
-0.280441
-0.25931
1.12328e-94
-0.107991
0.0368534
-0.09497
0.0104362
0.0320317
0.0104362
-0.0395501
0.0104362
0.0104362
0.0318003
0.0318003
-0.0207665
0.021362
0.021362
-0.272025
-0.156432
0.126352
-0.0496624
-0.150618
-0.0496624
0.104111
-0.03986
-0.00984068
-0.0550553
-0.03986
-0.018276
0.136777
0.236599
0.0298762
0.168094
0.10985
-0.169276
-0.0893501
-0.0731044
-0.0703148
-0.0703148
-0.168042
-0.0703148
-0.0313488
-0.332814
-0.0567952
-0.283109
0.157945
-0.0830578
0.0362236
-0.0139882
-0.239051
0.0426327
0.0426327
0.0229238
0.0164206
0.243576
0.0425323
0.0136842
0.0502584
0.0502584
-0.138179
0.0202774
-0.143938
-0.156597
0.0233678
0.088351
0.0789663
0.0577299
0.0172104
-0.0951492
-0.00926675
-0.0503887
-0.0122438
-0.0560294
-0.218934
-0.166225
0.00645843
0.107682
0.0782612
0.162299
-3.65609e-322
-3.65609e-322
-9.80738e-48
0.0270707
0.0201474
0.13208
-3.65609e-322
-0.53762
-0.0899951
0.0282437
0.0732697
0.102261
-0.0565884
0.154326
0.0909548
0.173648
3.53257e-70
-0.110777
0.0235885
0.0235885
0.0235885
0.0163375
-0.0282039
0.318408
-0.248684
0.0538597
0.0829736
-0.0329749
-0.0329749
-0.0329749
0.0527746
0.037225
-0.0127288
7.50376e-95
-0.097899
0.109853
0.159461
0.0328625
0.0303329
0.0328625
0.063511
0.13189
-0.019552
-0.034136
0.185817
0.00523259
0.0498527
-0.0522567
0.0352698
0.0998375
-0.027245
0.037422
-0.162182
-0.202329
-0.168216
-0.0100122
0.0658774
-0.10517
0.139404
-0.226248
-0.0240745
-0.0384574
0.0029828
0.0395197
-0.0296594
0.305701
0.0029828
0.00864477
0.0029828
-0.0827126
0.0174608
0.0143441
0.02199
-0.214435
-0.231563
-0.0284463
-0.118895
-0.0606766
0.0450918
-0.0317462
-0.123759
-0.0263613
-0.102436
-0.0143399
-0.302014
0.0593898
0.0131644
0.0131644
0.0131644
-0.0560357
0.0276361
0.0421898
-0.134223
-0.106244
-0.00987848
-0.135249
0.0649255
-0.112432
-0.0221213
-0.0456957
0.0459254
-0.0667837
-0.100678
0.0401433
-0.238259
0.104978
0.00135335
0.0881984
-0.104384
-0.104384
-0.195305
-0.0456317
0.0143622
0.0143622
0.0143622
0.0296493
0.0143622
0.0283765
0.0210011
0.0478471
0.0478471
0.228438
-0.0839161
-0.083997
0.0429877
0.0891226
0.0345837
-0.112478
1.03519e-122
0.0337059
-0.00918045
0.131304
-0.155158
0.0086502
-0.250994
-0.0826174
-0.144874
0.056597
0.0175985
0.0929312
0.0576859
0.105453
-0.326087
0.0796954
-0.0922015
0.105305
0.0845865
0.0594717
0.0483829
-8.05327e-322
-0.0579848
0.0885524
-8.05327e-322
0.110831
0.0218437
0.0810971
0.0516981
0.0216743
0.0829074
0.262
4.11119e-15
4.11119e-15
0.10209
0.0464575
0.00781244
-0.0551611
-0.0464895
-0.0464895
-0.0464895
-0.0878835
0.121076
0.0251562
0.0251562
0.00389371
0.00389371
0.00389371
0.0311723
0.281318
0.0893919
0.0811121
0.014351
-8.01683e-277
-0.0332121
0.00343047
-0.400322
0.0479401
0.0319088
0.230473
-0.0452753
0.0547913
0.0231089
0.0462177
0.0231089
-0.00279262
0.0231089
-0.135533
0.0244271
-0.0955049
-0.0345823
-0.100885
-0.110457
-0.0600539
0.00978899
0.0997201
-0.189602
0.00978899
-0.18259
-0.303445
-0.118821
-0.035033
0.0272746
0.0704367
-0.11919
0.0514922
-0.0408578
-0.129634
0.0144376
-0.0778587
-0.0194973
-0.0513697
0.005459
-0.0609556
0.0967209
-0.00207132
-0.062964
0.132328
0.132328
0.132328
0.132328
0.0405835
0.0751048
-0.205975
-0.00489358
0.0165587
0.092409
0.157132
-0.0644042
0.02879
0.0380127
0.157711
5.25199e-123
5.25199e-123
0.133663
0.0657035
-0.120607
-0.0155569
-0.180526
-0.064853
-0.110674
0.0255188
-0.00628529
-0.0147096
-0.00628529
0.121829
0.345824
-0.15241
-0.153369
0.0104148
0.047588
-0.264108
0.151884
-0.116464
0.272274
0.0324679
-0.0473216
0.0536357
-0.0169228
-0.10266
0.00205062
0.0161408
0.0213233
0.0590355
0.0557553
0.130714
0.0557553
0.0557553
0.0557553
-0.0456372
-0.00662538
0.0874777
0.143108
0.0167253
0.0500738
-0.0420899
0.101792
-0.0305079
-0.0599322
0.0438478
0.0260754
0.0670599
0.0260754
0.00679062
-0.0687416
0.0953131
0.0196244
0.0216089
0.124527
-0.0307046
0.0754112
0.0216089
-0.145601
0.0565864
-0.118154
-0.160629
-0.11335
-0.0947854
0.0237091
-0.303315
0.0163369
-0.0683929
0.0627902
0.10016
0.0474301
0.0396171
0.00838796
0.0279872
-0.090688
0.0707756
0.0380124
0.0279872
0.435641
-0.146992
-0.0193938
-0.049815
-0.0204244
-0.0204244
0.0262877
0.0262877
0.0262877
0.0528371
0.175201
0.137265
0.180273
0.0356145
0.0199342
0.152876
0.109299
-0.0516463
-0.0516463
-0.0516463
-0.207377
-0.0529215
0.0209854
0.0385533
0.0123324
0.101182
0.0978493
-0.0237582
-0.0237582
-0.0237582
0.121386
0.0234568
0.0788129
0.0685765
0.0775241
0.0671025
-0.0741957
-0.119597
0.00896974
-0.0797195
-0.0248653
-0.0248653
-0.0183631
0.0791464
0.0271278
0.019613
0.0631841
0.0631841
0.027065
0.134565
-0.0199804
0.108618
0.0542311
0.07044
0.0688962
0.261998
0.0356145
0.121534
0.0081809
0.0081809
-0.00334434
-0.233345
0.0161071
0.220276
-0.29295
-0.0694386
0.0244379
-0.0348473
0.108209
-0.185055
0.0358283
0.0358283
0.010246
0.010246
-0.157611
-0.0976101
0.116685
0.0177944
0.0382941
-0.0843589
-0.260373
-0.367823
-0.0213046
0.263371
0.0470847
-0.0975245
0.335433
0.0613059
-0.138571
-0.0584322
-0.163525
-0.106795
0.0284381
0.0212444
0.315713
-0.0526316
0.0696363
0.0615663
-0.0399167
-0.0838164
-0.106346
-0.0267093
-0.0688584
-0.0318116
-0.0949071
-0.0200497
0.00711864
0.00711864
-0.000673576
0.0206938
0.0206938
-0.036155
0.0544499
-0.00171031
0.0929163
0.082057
0.0877219
-0.0165719
-0.17365
0.0980911
0.0306425
0.0306425
0.0419761
0.0306425
0.0531549
0.0857236
-0.150507
0.144483
0.0270883
0.0257144
-0.0834859
0.0697588
0.0423312
0.0141008
0.0141008
0.0639088
0.0635377
0.0816386
0.0733932
0.108168
-0.0482908
0.0464099
-0.0468321
0.147195
0.0247013
1.05504e-94
1.05504e-94
0.0549608
0.122574
0.0392999
0.0113063
0.182226
0.0142193
4.79368e-16
-0.0280027
-0.196784
-0.00932784
0.0299447
0.0445746
0.152923
-0.229068
-0.0982701
0.250452
0.0222132
-0.00936971
-0.0791302
0.050046
0.114139
0.0286199
0.0333001
-0.0515592
0.0420288
0.029487
0.0569434
0.0345712
0.0449851
0.0299043
0.0299043
0.20285
-0.0237213
-0.0237213
-0.27173
0.0699956
0.0501397
0.021194
0.0405018
0.0854066
0.072164
0.110801
0.0411248
-0.229952
-0.224451
0.0361473
-0.0108707
-0.252484
0.0270844
-0.122537
-0.0249604
-0.0380048
-0.0380048
-0.122412
-0.0761382
-0.0761382
-0.193367
0.108039
-0.174793
0.101713
0.0412722
0.071189
0.0336418
-0.106237
-0.106237
-0.0518379
-0.0498231
-0.106237
-0.0402015
-0.033399
-0.033399
-0.195639
0.0468362
0.0154377
-0.0710878
-0.0419017
-0.11988
-0.030824
-0.030824
-0.0274346
0.22059
0.044992
-0.262156
-0.12821
-0.0451565
-0.0451565
-0.155343
-0.0451565
-0.227925
0.106401
-0.149408
0.0179914
-0.015328
0.243894
0.0121751
0.208551
0.01191
0.01191
0.01191
0.0313936
0.0598986
-0.173142
0.01191
0.20092
0.0785011
0.00322955
0.0358047
-0.0972577
0.0464785
-0.0122998
0.0948279
0.334205
-0.102775
0.165509
6.99934e-237
1.39987e-236
1.39987e-236
6.99934e-237
6.99934e-237
6.99934e-237
-0.0286967
0.0100878
0.0100878
0.0124855
0.127859
0.0249893
0.02716
0.0203279
-0.126285
0.0556259
-0.23848
-0.0423013
-0.0509831
0.116387
-0.1205
0.222505
-0.0687966
0.0301472
-0.06801
-0.0482582
-0.315618
0.00630312
0.0158141
-0.0412501
0.0982818
-0.106916
0.00630312
0.0289075
-0.0776586
-0.0791125
-0.0648971
-0.304505
-0.0750659
-0.104727
-0.03611
0.00733139
0.0331968
0.0761693
0.154849
0.172432
-0.101146
-0.00542062
0.111488
0.0749207
0.0417192
0.222821
0.125442
0.0263254
0.0357271
0.0267732
-0.103221
0.0267732
0.0267732
0.0485998
-0.0215344
-0.0426141
0.0765114
0.110347
0.112175
0.0597969
0.0597969
0.0597969
0.0597969
0.0573403
0.0376986
0.0423695
0.0370126
-0.0928141
0.0310256
0.00435128
0.00435128
0.0475467
-0.1796
0.0448082
-0.34933
0.0493561
0.0319249
0.0319249
0.0638498
0.0319249
0.0319249
-0.0545188
0.139845
0.0898664
0.0736754
-0.186896
-0.05422
0.101832
0.195256
-0.146975
0.0233615
0.0233615
0.0233615
-0.0996228
0.0352952
0.0470929
0.0588101
0.0455814
0.0836497
-0.0940693
-0.158395
-0.0256972
-0.0193057
0.153518
0.12315
0.148834
0.0753142
-0.381603
-0.116219
-0.142246
-0.0738984
-0.249796
-0.0508517
0.0689815
-0.285073
-0.128848
0.12322
-0.112515
0.0856962
-0.0925932
0.0311443
0.118309
0.0271125
-0.0509228
-0.180335
5.61232e-48
0.228397
0.0292347
0.0292347
0.0292347
0.0292347
0.0292347
-0.014436
-0.0289413
-0.00681767
0.0065569
-0.0289413
0.0116456
0.0550936
0.189363
0.0328199
-0.0574686
-1.83839e-48
0.127425
0.0740217
0.061732
-0.164924
0.0325396
0.0547904
0.0132607
0.0570735
0.0132607
0.0942134
0.0404667
0.140321
0.106806
-0.0709897
-0.0340787
-0.0883972
-0.0670942
-0.0388987
-0.0855169
-0.0272106
-0.0272106
-1.23123e-163
-6.15615e-164
0.0463929
0.0582959
0.0326087
0.0353282
-0.119735
0.381607
0.00883799
0.0429303
-0.00940605
0.00883799
0.00883799
0.00398896
0.10269
0.115454
0.105165
0.0353518
0.0631158
0.0325502
0.0931216
0.118394
0.182688
0.0582752
0.0582752
0.137396
0.0582752
0.0333894
-0.0496451
-0.0387975
0.129588
0.0760761
0.0844338
0.0448213
0.0712955
0.0968778
-0.200636
-1.22472e-07
-3.87564e-227
-3.87564e-227
0.0615259
-3.87564e-227
0.043999
-0.0231513
0.0385965
0.0241267
0.0396925
0.051381
0.0241267
-0.0650278
-0.0292444
0.165245
0.149793
0.103135
0.0682189
0.00828862
0.138746
-0.195526
0.154998
0.060804
0.0439911
0.0439911
0.229742
-0.0645066
2.31734e-236
0.0687771
-0.117012
-0.0156956
0.0487479
-0.039868
0.131198
-1.39359e-47
0.00949014
-8.61713e-165
0.128705
-0.0364127
-0.0103497
-0.094337
-0.0364127
-0.0318455
-0.0364127
-0.0364127
-0.0364127
0.107172
-0.178994
-0.15794
-0.273783
0.00608915
-0.0450342
-0.232135
0.0863882
0.00894753
0.155208
0.0163512
-0.0371004
-0.0371004
0.0210225
0.0385825
0.0385825
0.0385825
0.171315
-0.296451
-0.212211
0.0139755
0.00770399
0.19091
0.00106287
0.0457764
-0.232085
0.106042
0.106042
0.0398488
0.0335846
0.0744616
0.0248421
0.0580384
0.0163827
0.0248421
0.0730317
0.0738093
0.0220593
-0.117198
0.0253743
-0.0315945
-0.0615297
0.0315232
0.178725
0.0167296
0.0343285
0.126676
-0.172244
-0.0590059
0.0695308
-0.069642
0.00785986
-0.0775948
0.332913
0.164793
0.0375747
0.00681422
0.0125169
0.0771797
0.0731689
0.0200962
0.0200962
-0.0572206
-0.102201
-0.0321576
-0.344391
0.0360272
0.0360272
0.0822573
0.0103175
0.161458
-6.57107e-322
0.0257407
-0.00444698
0.0154085
0.0154085
0.0154085
0.0154085
0.0479188
0.0154085
0.0154085
0.0154085
-0.24447
0.0154085
-0.118215
-0.153164
-0.112992
-0.301614
0.0224105
0.0224105
0.00796536
0.00989439
-0.00957907
-0.000533541
0.00989439
-0.0435699
0.00227519
0.00227519
-0.0162825
0.00227519
-0.0683855
0.145194
-0.0338942
-0.0384801
-1.66998e-48
-1.66998e-48
-1.66998e-48
-0.0452497
-1.66998e-48
-1.66998e-48
-0.0384801
0.0958677
0.0802893
0.0344394
-1.66998e-48
0.0141478
-1.66998e-48
-1.66998e-48
-1.66998e-48
-0.345728
0.00675798
-0.11257
-0.099214
-0.0127423
0.0286238
0.0286238
-0.00364171
0.00825522
-0.0759607
0.0675371
0.00468303
0.0556894
0.112651
0.0763495
0.00273016
0.0324556
-0.0431936
0.0289013
-0.0445056
-0.164395
0.0697507
0.0118548
-0.11466
0.0822774
0.0764714
0.00298591
0.0289218
0.0264575
-0.0302722
-0.0074135
5.52577e-123
0.0654762
0.0895518
-0.107617
0.036055
-0.0023853
-0.0262664
-0.0262664
-0.0654179
0.0377414
0.0862017
-0.163856
-0.124817
0.0496919
-0.632921
0.0417316
0.0915861
0.0229672
0.0300541
0.0285902
0.014948
-0.173488
-0.0895313
-0.093686
-0.0028028
-0.116313
0.0284849
-0.0509555
-0.0318895
0.0288326
0.0138292
0.0821733
-0.100055
-0.0375211
-0.0375211
-0.0165102
0.00950916
0.0071618
-0.0375211
-0.0375211
-0.00412493
0.0619128
-0.0465866
-0.0977739
0.00864084
0.032257
-0.0062178
0.00864084
0.00864084
0.00864084
0.0207742
0.210993
-0.176562
0.0149778
0.0553285
0.430441
0.0243654
4.74957e-124
4.74957e-124
4.74957e-124
0.0416232
0.0415113
-0.0507438
0.0897902
0.0432417
-0.152913
0.0431484
0.0311593
0.0480246
0.0619598
0.050974
0.128064
-0.12312
0.050974
0.019745
-0.0165008
0.0566978
1.05211e-256
-0.0400932
0.0460308
0.063372
0.0997562
0.0708142
0.0305373
-0.00528155
0.0355536
-0.101032
0.118777
-0.0342166
-1.20547e-47
0.0758211
0.00619656
-0.0569066
0.0299782
0.0299782
9.99892e-124
0.147821
0.263028
-0.13653
-3.05237e-15
-0.443101
0.0290638
-0.0980302
-0.0330779
-0.00999477
-0.0380804
-1.00112e-94
0.262527
0.148193
0.0518635
-0.115774
-0.249178
0.00669556
0.00669556
0.112239
0.0414018
0.0563238
0.0410367
-0.186583
0.172988
0.190686
0.0363813
-0.0804615
-0.0288532
-0.0377841
-0.0908016
-0.010738
-0.0314045
0.133877
0.0439623
-0.0377
0.0159143
-0.0500731
-0.110452
0.0316328
0.123599
0.0598418
-0.103312
0.0425706
-0.0971942
0.0520881
-0.0504194
0.0534535
0.0765726
0.0233877
0.0279161
0.0279161
-0.03736
-0.102029
-0.016683
-0.0202891
0.333186
0.169287
0.0393028
0.0863641
-0.031102
0.0742532
-0.219883
-0.230722
0.0918002
0.119811
-0.350843
0.0468003
0.0468003
0.0164189
0.0147566
0.0968202
-0.153946
0.0403986
-4.07406e-164
0.0356935
0.0324332
-4.07406e-164
-4.07406e-164
0.0358565
0.0870095
-0.0356389
-0.180036
0.0398393
-0.0356389
-0.168537
0.149165
-0.0185593
-0.0185593
0.0642453
-0.0150748
0.242928
4.89125e-322
0.0552318
-0.167503
-0.451225
0.21213
0.0252384
0.0683871
-0.0475016
-0.0475016
-0.0150195
-0.0126004
0.000646094
0.0502073
-0.0318365
0.00106693
-0.445177
0.0992012
-0.235327
0.0385569
0.0385569
0.0175151
-0.0666282
-0.0387993
0.020088
0.0432643
0.0125242
0.0125242
0.0378809
0.0309193
0.0309193
0.153386
-0.119441
0.0434007
0.0434007
0.0539295
0.0436891
0.0809674
-0.09535
-0.0705126
0.109016
-0.0447315
0.00187167
0.125988
0.0840996
0.0616807
0.130496
0.0430411
0.0589075
0.0589075
0.0589075
0.0293155
0.0293155
0.0293155
0.0293155
0.0293155
0.0338964
0.0338964
0.0338964
0.00402952
-6.25732e-124
-6.25732e-124
-0.176544
-0.00733791
0.000297431
0.132486
-0.0645755
8.6175e-123
-0.116683
-0.124565
0.0343751
-0.133618
-0.036329
-0.106924
1.15611e-321
0.0979339
0.0791878
-0.0566746
0.0107212
-0.0116629
0.0975553
0.0513949
0.0256975
0.171094
-0.172928
0.0287132
0.0287132
0.0287132
0.0347355
-0.0409213
-0.0311501
-0.0447436
0.0739141
0.10169
0.0633588
0.0279189
0.136624
-0.00421799
0.0174448
0.0761842
0.0975518
-0.0582462
0.0300833
0.0457505
0.0157382
0.0157382
0.0157382
0.125477
0.0310718
-0.0522689
0.15991
-0.224456
0.0428263
0.0353217
0.0353217
0.0221211
0.0221211
0.0221211
-0.0106192
0.239347
-0.116338
0.0106911
-0.0138226
-0.142846
0.116788
0.0486468
0.0236365
0.152001
-0.348704
0.135235
-0.0226159
0.0166315
-0.0716859
0.039154
-0.235243
-0.00450052
-0.0461459
-0.0447889
0.010184
0.02398
0.0592356
0.130591
0.0273672
0.0273672
0.0273672
0.0839102
-7.32171e-95
0.0704459
0.0676311
0.044346
0.0814155
0.0639048
-0.0325534
0.041823
0.0766325
0.026774
-0.0180852
0.0437309
-0.0206946
0.0284046
0.0284046
0.0284046
0.0284046
0.0284046
0.0284046
0.142846
0.108342
0.0693086
0.111995
0.0898055
0.0819762
0.00896122
-3.58156e-114
0.0128574
0.116149
-0.220655
0.0401372
-0.0135453
-1.02443e-47
-0.240913
-0.113519
0.077729
0.155825
0.10261
0.0524491
0.0388645
0.0172167
-0.024224
0.108956
-1.108e-48
0.0126006
0.264757
-0.116375
0.0371847
0.0131741
0.016979
-0.0506414
-0.000802622
-0.0525898
0.0224405
0.106235
-0.0971891
0.078213
0.0187857
-0.0987678
-0.0603991
-0.0576883
-0.170536
-0.0639834
-0.121204
0.046683
-0.0206987
-0.10003
-0.179799
0.0772194
0.11752
0.120426
0.0218449
0.0500016
0.0773872
-0.0223045
-0.0349668
-0.087893
-0.285462
-0.0165696
0.0503622
-0.116507
0.0174195
-0.00955017
-0.00955017
-0.00955017
-0.0112942
0.0603912
-0.107404
-0.414527
0.00749463
0.0452085
0.0452085
0.0452085
0.149108
0.0452085
0.0633499
-0.263276
-0.078082
0.114754
0.0573769
-0.0914523
0.00650221
-5.38532e-322
0.181421
-0.0323921
0.101691
0.00939909
0.00939909
0.0376114
-0.0508107
0.0213652
-0.0120245
-0.0935183
-0.0120245
-0.0120245
-0.0825548
0.00862132
0.00445108
-0.238109
-0.0247455
-0.0490777
0.154191
-0.275957
-0.0238107
-0.0360966
-9.88292e-48
-0.119255
0.0866597
-9.88292e-48
-9.88292e-48
0.00532813
-0.0420607
0.150736
0.0147036
-0.041767
0.0147036
0.0147036
0.02038
0.106651
-0.164387
-0.116859
-0.116859
-0.0449016
-0.0251318
0.0976952
-0.0399781
-0.0543364
-0.0535991
-0.192602
9.96174e-48
0.0222788
0.0222788
0.0430966
0.0373792
0.0239551
0.031118
0.137544
0.00644982
0.0388433
0.0481221
-0.369095
0.0281174
-0.136895
-0.0485121
-0.0485121
-0.209486
-0.0462679
0.0636368
-0.0182254
-0.0182254
-0.0182254
-0.0182254
-0.0058193
-0.0182254
-0.0182254
0.0413184
0.0413184
0.216232
0.13851
0.0413184
0.104921
0.0413782
0.00270292
-0.122752
-0.096819
0.228535
0.0954194
-0.0733155
0.0188282
-0.0476972
-0.0122733
-0.243482
0.0218246
0.0877492
-0.0909899
0.0266181
0.0448437
0.0469158
0.036124
0.00945693
0.0254529
0.0394605
0.0495136
-0.0105215
-0.0328105
-0.0665498
0.0316594
0.0654314
0.0340237
-0.189385
-0.04365
-0.0675331
-0.04365
-0.04365
-0.00959
-0.0184164
0.00235744
0.0229389
-0.0588019
-0.0439474
-0.0134476
0.0662036
0.114266
0.0893855
0.0750119
0.0531049
0.0334946
0.123568
-0.301645
0.0468097
0.0230846
0.124037
0.099071
-0.135585
0.19367
0.0277132
0.140414
0.0475683
0.0453045
-0.0658406
-0.0929985
-0.079313
0.0648515
0.0931397
-3.01078e-164
0.0211479
0.0456101
0.0524367
0.0417162
0.0723518
0.0417162
0.0165861
0.106495
-0.045855
-0.03808
-0.0120097
0.00804134
0.0160827
0.0287863
0.00804134
0.00804134
0.00804134
0.0598427
-0.00253859
-0.129831
0.0785135
0.0442059
-0.0172688
0.00859401
0.181914
-0.0162757
0.164754
-0.125107
3.45249e-123
3.45249e-123
3.96039e-48
3.45249e-123
0.0873013
3.45249e-123
-0.139396
-0.111324
0.0234769
-0.0316863
-0.114555
-0.0316863
-0.0316863
-0.0316863
-0.0316863
-0.0316863
-0.0316863
-0.0316863
-0.0316863
0.0351966
-0.109558
0.0227778
0.0227778
-0.0412863
-0.036387
-0.036387
0.0169335
0.0467757
0.0344171
0.160763
-0.171407
0.043584
-0.0330931
0.14436
0.0559445
0.0363037
-0.042313
0.0254521
0.0475118
0.0706802
0.0849476
-0.0689114
-0.0396252
0.143383
0.0145559
0.0145559
0.0145559
-0.0989102
-0.104821
-0.262512
-0.120787
0.207171
0.152828
-0.0382939
-0.217778
0.0234511
-0.071636
0.00851837
0.134367
0.0246992
0.00466249
0.0656707
0.0225302
-0.01657
-0.233915
-0.0331399
-0.0544195
-0.0894463
0.116443
-0.0192604
0.0412722
-0.0373436
0.091414
0.0856859
-8.80578e-124
-0.0463639
-0.0576579
-0.0400002
-0.14708
0.0593655
0.0329593
0.330947
0.0891143
-0.0355665
0.0133638
0.146419
0.0490671
-0.0419086
-0.0419086
-0.114664
0.0952334
0.043718
0.0189101
-0.244484
-0.183374
-0.0903771
0.0135202
0.0232273
0.0232273
0.0414915
0.0232273
0.0232273
0.0232273
0.0489145
-0.206563
0.00363084
2.02418e-69
2.02418e-69
0.0420525
-0.00119174
0.0322674
0.0582945
-0.0845234
-0.0845234
-0.127172
0.0186878
0.0491484
0.0263254
-0.0595891
-0.1457
-0.0594265
-0.0839938
-0.0253569
-0.0253569
-0.0334241
0.0371049
-0.202647
0.0120887
0.0837264
-0.114782
-0.0888108
-0.0168255
-0.0168255
-0.0168255
0.0187676
0.0187676
0.120947
0.0187676
0.0187676
-1.81895e-48
0.128277
-0.072948
0.0743456
-0.0355749
0.0423238
0.105121
0.0596179
-0.0960079
0.000236024
-0.0764423
0.0447234
-0.0174561
-0.154959
-0.0345769
-0.199812
0.291812
0.0447278
0.101513
-0.0950904
-0.0969043
-0.0969043
-0.182803
-0.0848704
0.0327718
0.0733288
0.0158997
0.0447714
0.261439
0.0158997
0.0429584
-0.022121
-0.117353
0.072811
-0.0484766
-0.0815261
-0.0964318
-0.154339
-0.0779103
-0.0369291
-0.013629
-0.0334173
-0.131756
-0.0632212
-0.0417272
-0.0231095
-0.0687092
-0.159874
0.0151563
0.160828
-0.232689
0.000110117
-0.0303647
0.0154471
-0.0397465
0.0397716
-0.286859
0.0116789
0.0654701
0.0519746
0.0238483
0.0278448
0.253614
0.0298931
0.0298931
-0.025831
0.0298931
0.0298931
-0.106437
0.170761
-0.0716639
-0.0922134
0.0949094
-0.180382
-0.166185
-0.0457224
-0.0070563
0.0995902
0.0167942
0.0243147
0.0243147
-0.315448
-0.0445918
0.0867889
0.0872691
0.0803025
0.043981
0.0762639
-6.92866e-164
0.0518634
0.178934
-0.0810957
0.00365355
-0.0119747
0.0338635
0.0510922
0.110428
-0.0526698
-0.160288
0.0315323
0.0826368
0.0315323
-0.0666544
-0.132389
-0.303567
-0.0487352
-0.108249
-0.0107746
0.00429418
0.00538064
0.0975426
0.0549072
0.0975426
-8.05327e-322
0.0456805
0.039158
-0.143051
0.045703
-0.0584635
-0.166787
-0.182592
0.0316462
0.0278723
0.0278723
0.0375105
0.0593671
0.0278723
0.0240927
-0.099794
7.87196e-206
7.87196e-206
7.87196e-206
0.0363157
0.00909156
-0.0901279
-1.1396e-14
-0.0471314
-0.0513938
-0.0513938
-0.354115
0.0147951
0.0197628
0.037375
0.0197628
0.185198
-0.0816281
-0.00644776
-0.128249
-0.128249
0.156394
-0.0537326
-0.154643
0.0395248
-0.0606916
0.0197624
0.0608817
0.00760237
0.0717421
-0.132083
0.00760237
-0.125484
-1.47245e-94
-0.0318247
0.0466716
0.103822
-0.0374701
-0.0179944
-0.0179944
-0.173229
0.00646916
-0.0315177
-0.153478
0.0780059
0.0113675
-0.0186872
0.0143433
0.00942776
-0.0528115
-0.0662684
-0.228226
0.0413676
0.0211705
0.0617709
-0.0758284
-0.0758284
-0.0758284
-0.0530145
-0.0960948
-0.118261
0.145099
-0.22348
-0.00202227
-0.0905342
-0.0265475
-0.0485686
-0.0108612
0.00301808
0.00301808
-0.0387988
-0.0240759
0.071668
-0.122384
0.0290286
0.0677472
0.0714758
0.0175854
0.0435636
0.0175854
-0.0004665
0.0175854
0.0318233
0.0318233
0.0430325
0.0905989
0.0970822
0.041407
0.041407
0.041407
0.0263463
0.041407
0.0614337
0.0614337
-0.0514634
0.00950653
0.0441467
-0.124475
-0.274915
0.0986031
0.101547
0.091414
0.098993
0.0157693
0.0157693
0.0191314
-0.029296
0.230437
-0.0146418
0.0494296
0.0182515
-0.0129889
0.112492
0.226694
0.147784
-0.0629467
0.0329974
0.0329974
0.0577628
0.121151
-0.0874082
-0.193417
0.203161
0.273062
0.0213404
-0.0780661
0.0259867
-0.123544
-0.0939866
-1.56589e-47
-1.56589e-47
-1.56589e-47
-1.56589e-47
-0.0699083
0.01418
0.00385709
0.00385709
0.0858246
0.00385709
0.282146
0.00385709
0.0774375
0.223336
-1.59151e-48
0.128123
-1.59151e-48
-1.59151e-48
-1.59151e-48
0.0264618
0.0481107
-1.59151e-48
-1.59151e-48
-0.0392784
0.0464301
-0.057088
-0.200831
-0.057088
-0.112634
-0.057088
-0.538728
-0.117719
-0.028375
-0.0861006
0.221599
0.0888534
0.0177643
-0.100675
0.0237562
-0.0178414
0.0597972
0.0115096
0.0192355
0.0192355
0.0192355
0.0192355
0.0378935
-0.00847125
-0.0422041
-0.0924803
-0.0924803
-0.0924803
-0.159045
-0.0924803
0.132613
-1.16054e-94
-0.252668
0.0805676
0.157266
0.0579625
0.0762489
0.0431222
0.0340039
-0.0173805
-0.0276922
0.00241776
-0.0627087
-0.238062
0.0523558
0.0523558
0.0523558
0.0238967
-0.112774
0.091187
0.0499201
0.0241654
0.0846311
-0.0819476
0.0723846
0.0812538
-0.197323
-0.180753
-0.108651
-0.159474
0.0509616
0.0317975
-0.0286151
-0.160549
-0.0655857
0.193067
0.0517136
0.159157
0.0955318
-0.0793186
0.132238
0.173032
0.0121046
0.0187887
0.0185469
0.0185469
0.0185469
-0.00832757
0.285531
-1.39374e-48
-0.0845295
0.0419758
-0.0562008
0.00314127
0.116376
0.0751599
-7.05862e-48
-0.0140717
-7.05862e-48
-5.36698e-165
0.0337708
-5.36698e-165
0.0366113
-0.163264
0.107163
0.0190378
0.0339757
0.089721
0.0860635
-0.231159
-0.0548919
0.0263254
0.0998347
-0.00260272
-0.0709459
0.187053
-0.0720974
-3.69557e-124
0.103447
0.0887972
9.18796e-15
-0.120874
-0.0339624
0.0398985
0.318895
-0.0376569
0.0502782
0.017368
0.114272
-0.0104451
-0.0152767
-0.0386124
0.0763769
-0.0367735
-0.00246717
0.166322
-0.000895743
0.037318
0.00682703
0.00682703
0.0452001
0.0399917
0.033881
0.033881
-0.0747232
0.0287167
0.0539223
-0.0215368
-0.124401
-0.023051
0.0173618
0.140507
-0.0487703
0.173883
-0.0434814
0.0187064
-0.0363394
-0.0422101
-0.190369
-0.145217
-0.315733
0.0169397
0.0169397
-0.0498297
-0.0252119
-0.0314544
0.0569936
0.0809957
-0.0369057
0.0484701
-0.0196786
0.0311847
0.0698642
0.0311847
-0.00287222
-0.0476777
-0.042824
-0.0247014
-0.0247014
-0.0247014
-0.00909752
-0.0284006
-0.0284006
-0.031572
-0.0440858
0.0111535
0.0111535
0.0569015
0.0392347
0.100578
-0.0290443
-0.0539358
-0.0732726
-0.00552892
0.196209
0.0198811
0.0198811
0.0198811
0.12039
0.0335214
0.0198811
-0.0283891
0.0570925
-0.00617042
-0.162442
-0.282411
0.0429061
0.0361575
-0.00224601
0.0103931
0.0642463
0.0190508
0.0121856
0.0057052
-0.0380954
0.00666307
-0.0132264
-0.00290888
-0.112258
-0.0468333
-0.0444025
0.0913401
0.0827228
0.0386468
-0.0339932
-0.0221229
0.0123431
-0.0456913
-0.0940235
-0.0221229
0.0174658
0.0833447
0.031103
-0.110098
0.0544858
-0.0543795
-0.0578337
0.0423608
0.0435589
-0.0389166
-3.46039e-95
0.027418
0.027418
0.100131
-0.115778
-0.0501115
-0.121574
0.00846377
-0.180181
0.0669515
-0.193421
-0.010444
-0.0292363
0.147106
0.0796993
0.114281
0.160914
0.0142898
0.122061
-0.00506971
0.0244644
-0.420092
0.127271
0.144003
0.124756
-0.0399941
-0.0373017
0.0728062
-0.0436501
0.0130568
0.0130568
0.123587
-0.0345183
-0.185842
-0.0564014
0.029553
0.0368595
0.0531272
0.167028
0.0836957
-0.319536
-0.0399784
-0.133447
-0.0106884
-2.22432e-94
0.21257
-2.22432e-94
-0.0493792
-0.0680997
-9.81339e-277
0.00215019
0.0618175
0.109436
0.0192026
-0.160234
-0.105775
0.0861841
0.0387486
0.0387486
0.0387486
0.0425193
-0.0466276
-0.160701
0.0969804
-0.181261
0.0519472
0.0246406
0.011462
0.140301
0.088671
-0.0105115
-0.122489
0.0425193
0.0646748
0.0329244
-0.0259445
-0.033582
-0.033582
-0.033582
0.0270602
-0.0492473
0.193525
0.0202385
0.0670382
-0.0972151
1.34872e-123
0.0372598
0.0300193
0.0300193
-0.036108
0.0300193
0.0581043
-0.21096
0.0297281
0.0098931
0.0098931
0.0496932
0.0098931
0.0098931
0.0603321
0.0298988
0.0181806
0.12301
0.0863344
0.038231
0.0614385
0.0614385
2.61999e-236
-0.0187246
0.0102862
2.61999e-236
2.61999e-236
0.250921
0.137986
5.73116e-322
0.0632643
0.0680985
0.0422163
0.0422163
-0.0978185
-1.44069e-47
-0.184142
0.153852
0.019865
-0.288006
-0.0351367
0.0223412
0.0882715
0.0223412
-0.0589065
0.0304607
0.0304607
0.0030081
0.0030081
0.0030081
0.0757597
0.0149168
0.0649909
0.0716665
0.101995
0.00843438
0.00345685
-9.20085e-95
0.0514758
0.099111
0.0101631
0.0101631
0.00729717
-0.0435298
0.00729717
0.00729717
0.0269918
-0.0175527
-0.0948701
0.0943303
0.0438128
0.0438128
-0.212643
-0.000800676
-0.015081
0.0680653
0.0897917
0.0349608
0.0349608
0.0349608
0.00697159
-0.0950595
0.0145343
-5.54931e-164
-5.54931e-164
-5.54931e-164
0.0837219
0.0203967
0.0282734
0.0333135
0.052557
-0.0388706
0.0348461
0.094653
0.04657
-0.00835703
0.0347478
0.121963
-0.0892285
-0.0497397
-0.0497397
-0.0497397
-0.112873
0.0268417
0.155141
0.0180878
0.0270005
0.0270005
-0.011375
0.0599533
0.0745374
0.0328864
-0.225369
-0.0129781
0.0511428
-0.0288577
-0.141718
-0.0499734
0.0425797
-0.172203
-0.148307
-0.153206
0.0403165
-5.18007e-163
0.0373232
-5.18007e-163
0.00988823
-0.043184
0.0267351
0.0818245
0.0668493
0.115119
0.0522326
0.0737138
-0.0111247
0.0571169
-0.283399
-0.0787629
0.0150479
0.0150479
0.0150479
0.0259815
0.0693961
0.0501544
-0.0362154
-0.0362154
-1.12059e-94
0.068026
0.032534
-7.7636e-164
-7.7636e-164
0.0796605
-0.165429
0.0905356
0.0215574
0.0892242
-0.00714693
0.123269
0.0359543
0.037157
-0.0266983
-0.0332216
-0.16225
-0.0332216
-0.0572955
0.00491929
0.0759502
0.0107028
0.0577675
0.116071
-0.0848766
0.0713283
0.0245173
-0.0681469
-0.21144
-0.0895753
-0.0251159
0.161441
0.036909
-0.00380467
0.036909
0.036909
-0.107935
-0.0540416
-5.46756e-164
-0.0463203
0.219716
-0.136337
-0.0521893
-0.00559535
-0.0521893
0.0181867
0.0257793
0.100049
0.0370006
-0.322629
-0.0575532
-0.0446027
0.115371
-0.0446027
-0.0714215
-0.411592
0.00766051
0.037573
-0.0311219
0.016633
0.0394708
0.0240931
0.0545543
0.0441614
0.030388
0.117441
0.0120512
0.0245436
-0.0352906
0.330249
0.0973492
0.101062
0.0774566
0.00731904
0.0829944
-0.0352884
-0.129706
-0.0807323
-0.0807323
-0.0549312
-0.0807323
0.264144
0.0248241
0.0632102
0.0718021
-0.0935201
-0.156434
-0.0854001
0.00352896
0.00352896
0.083912
0.00352896
-0.0486887
-0.0463727
0.154638
0.0266644
0.0266644
0.0494321
-0.0369772
-0.0462573
-1.3488e-321
-0.0429176
0.0282437
0.0546037
0.0359902
-1.3488e-321
0.0419367
-0.0950438
-0.232809
-0.31518
0.073524
0.0847201
-0.1691
-0.0828669
0.00274565
-0.176002
-0.0641121
-0.0308535
-0.106354
0.0360588
0.0237352
0.0805928
-0.0184091
0.045869
0.0390126
0.0366714
0.0237352
0.0237352
0.0787389
0.0787389
0.0622503
0.0373834
0.165556
0.136815
0.0376184
-0.19475
-0.0877124
-0.0189182
0.126144
-0.213307
0.0115398
-0.0799975
-0.16023
0.0621237
0.0464495
-6.71929e-322
-0.0971306
-0.0477465
-0.147228
-0.147228
0.116327
0.264853
-0.0451561
0.0858058
-0.0525751
-0.0743155
-0.279721
0.0990503
0.0270361
1.13141e-321
1.13141e-321
0.23602
1.13141e-321
1.13141e-321
-0.0583492
1.13141e-321
1.13141e-321
-0.00926594
-0.188106
-0.142949
-0.0427513
0.0738968
0.0878229
0.0738968
-0.276945
0.00316082
-0.103788
-0.0309503
0.0173324
0.325788
0.0173324
1.97056e-123
0.0302095
-0.00512574
0.164965
-0.236255
-0.0514167
-0.0514167
-0.0499247
-0.0544502
-0.0535552
0.19636
-0.0535056
-0.0519155
-0.0519155
-0.205375
0.0209494
-0.100236
-0.0974189
-0.0477078
-0.298634
-0.00295401
-0.0440314
0.0386969
-0.0325554
0.0154291
0.0190447
0.0517262
9.302e-237
-0.0164155
0.0265439
0.0772896
-0.0791487
0.0403758
0.112864
0.0701499
0.1994
0.0920419
0.0920419
0.0920419
-0.0980698
0.116278
0.0244581
0.0137149
-0.00438192
-0.0567268
-0.0271479
0.0244581
-0.0649111
-0.161491
0.150013
0.0647097
-0.0883939
-0.174346
-0.146776
0.090727
0.0875621
0.0422207
-0.0531631
0.0146692
0.0771561
0.0343578
-0.161137
0.034738
0.0615202
0.0417146
0.0200931
0.0512582
0.155095
-0.0708985
0.03609
-0.00973891
1.71879e-276
1.71879e-276
-2.86558e-322
9.19314e-15
-0.148275
-0.0162198
-0.0254548
0.017093
-0.0254548
-0.0254548
0.106964
-0.0254548
-0.0254548
0.00908158
0.0870672
0.0329623
-2.04234e-48
-0.0370982
0.327357
0.0177629
0.0177629
0.0177629
0.0256151
-0.170729
0.130779
-0.142615
-0.11182
-0.0517716
-0.0664339
-0.0540621
-1.12893e-163
-1.12893e-163
-1.12893e-163
0.139931
-0.0119454
-0.0505832
0.0144611
0.0144611
0.0144611
0.046108
0.00498157
0.00927292
0.00927292
0.0240225
0.0380843
-0.0259507
-0.0822541
-0.00908265
-0.0172125
0.0186997
0.124793
0.0136338
0.00538194
-0.0353855
0.00538194
0.00538194
0.0635739
0.00538194
-0.000783588
0.0277023
-0.0477241
-0.0651813
-0.0813612
-0.0822426
0.0199631
0.0199631
0.0625294
0.0798205
0.0798205
0.0798205
0.139114
0.0144458
0.0507592
0.0507592
0.0333456
0.0114476
0.01699
0.01699
0.00449832
0.01699
0.0433486
0.0518079
0.0167725
0.0616364
-0.0692644
-0.174849
0.0454621
-0.29579
-0.185469
-0.0214586
0.0292669
-0.00556334
-0.00665449
-0.0470022
-0.13468
0.0430083
0.0890284
0.00787567
-0.105069
-0.0288746
-0.0311113
0.0565656
-0.0288746
0.129781
-0.0398333
-0.0435215
-0.0894256
-0.118074
-0.0879142
0.0385145
0.0385145
0.0138126
0.0138126
0.0138126
0.000902526
0.022043
0.232909
0.00331014
0.130793
0.00713206
0.00713206
0.00713206
0.00713206
0.305815
-0.00937278
-0.00937278
-0.225202
-2.75017e-164
-2.75017e-164
0.098048
-2.75017e-164
-0.0273246
0.0293737
0.0234111
0.017929
0.0352844
0.115273
0.00631098
-0.0452278
0.00199252
-0.0972882
-0.0688716
0.00339916
0.00339916
0.00339916
0.0751648
0.0279776
-0.0327898
-0.322658
-0.103943
-0.15164
-0.0275495
-0.065051
-0.0375947
-0.065051
0.00866139
-0.0976121
-0.0399015
-0.0399015
0.0597837
0.00376306
0.0618083
-0.0992736
-0.0749159
-0.071986
-0.071986
-0.182779
-0.0301087
-0.0301087
-0.0554244
-0.0301087
-0.0301087
-0.0177072
0.0292221
0.0686619
0.0106484
0.0109314
-0.0624606
-0.00605026
-0.119274
-0.00910044
0.0377451
0.0568085
-5.15818e-48
0.0601828
-5.15818e-48
0.0391566
-0.00662711
-0.128215
-0.00594433
0.110979
-0.0511957
-0.391427
-0.0511957
-0.00825025
0.00245429
6.59486e-48
6.59486e-48
6.59486e-48
6.59486e-48
6.59486e-48
6.59486e-48
-0.222219
6.59486e-48
-0.0149626
6.59486e-48
6.59486e-48
0.0297514
0.211405
0.0297514
0.0297514
-0.070323
0.0122788
0.0122788
-0.0988762
0.0122788
0.0122788
0.0471294
0.098653
0.12869
0.0281337
-0.122396
-0.0356602
-0.0356602
-0.0356602
-0.0356602
-0.0356602
0.0212797
-0.0356602
-0.0280646
0.0357761
-0.00747005
-0.00747005
-0.0495975
-0.0495975
-0.175539
-0.0669553
-0.00251913
-0.199083
-0.0346985
-0.0826126
-0.0622775
-0.0453235
0.0245352
0.0700132
0.0232376
0.00893499
0.00048347
0.192339
-6.8664e-164
0.109428
-6.8664e-164
-0.0955696
-0.0993357
-0.0955696
-0.0802114
-0.0955696
-0.0955696
-0.0955696
-0.0955696
0.0699431
0.0428548
0.0339418
-0.166195
0.0394323
0.0260156
0.0260156
-0.0368292
-0.106128
-0.040668
-0.000396192
-0.0917545
-0.162506
0.049036
0.049036
-0.0565629
0.0854134
-0.0472587
-0.00787645
-0.00787645
0.0139121
-0.00787645
0.140592
0.15478
0.0826397
0.0428618
-0.148655
0.0358172
-0.072427
-0.0427219
-0.257771
-0.0694484
-0.0427219
0.0170545
0.108715
3.39783e-205
0.0038109
3.39783e-205
3.39783e-205
3.39783e-205
-0.0316098
-0.023738
-0.188699
-0.0827543
0.0203662
0.118342
-0.0037302
0.00618299
-0.00405314
0.0275151
0.0423396
-0.139509
0.0508398
-0.111964
-0.243797
-0.11902
-0.111894
-0.128943
0.0255353
0.0750135
0.0593026
0.102318
0.0156292
-0.0603175
-0.0394994
0.0180288
0.0201474
-8.26771e-48
-8.26771e-48
0.13003
-8.26771e-48
0.00537913
0.0811869
0.00537913
-0.107964
0.0556791
0.0744443
0.0744443
0.161933
0.0708184
0.0431353
-0.160535
-0.0605997
0.0678314
-0.0505933
-0.278054
-0.0505933
-0.0359555
0.0321985
0.00148227
-0.0843051
0.0153271
0.0153271
0.0153271
0.0153271
0.0153271
0.0293937
0.0293937
0.0293937
0.0246931
0.0246931
-0.231559
-0.0308905
0.298598
-0.197508
0.033237
4.496e-322
0.170121
-6.80645e-48
7.30436e-49
-0.00845604
-2.74744e-94
-0.0390697
0.0730354
0.155083
-0.0390697
0.0603765
0.0823334
0.0910935
0.0229617
0.0765352
-0.12286
2.05962e-236
-1.24999e-321
0.0952261
0.132383
-0.0928022
0.03847
-0.0776931
-0.0388466
0.0498478
1.2427e-122
0.0767808
-0.11495
0.0200113
0.0349871
-0.00861572
-0.00442829
0.0339921
0.0138129
0.0700428
-0.0783018
0.0114252
0.0926986
0.00978186
0.0352357
-0.0346779
0.0115139
0.0409996
0.0375593
0.0765028
-1.51033e-48
0.0625765
-1.51033e-48
-1.51033e-48
0.0487337
0.104655
0.0945624
0.136987
-0.0299143
0.0841792
0.0583753
-0.00837539
0.0461573
-0.00394345
-0.148516
-0.110966
-0.0447861
0.145869
0.0629884
0.237511
-0.134709
-0.0964419
-0.115063
0.0553699
0.050017
0.145888
0.0286698
-0.00177495
0.086387
0.0286698
0.0366934
0.0286698
0.0286698
0.0286698
0.0495124
-0.0261751
-0.0752455
0.0246778
-0.117563
-0.060181
-0.030336
-0.0632465
0.0355968
-0.0243074
0.0888548
0.0420049
0.0546825
0.0197243
0.0527747
0.0505402
-0.00279425
0.159364
0.0234667
0.217871
-0.0431854
-0.0431854
-0.0877724
-0.0877724
-0.150121
-0.0877724
0.192822
0.316826
0.0710403
0.0584537
-1.07579e-94
0.00940557
-0.0273723
4.84184e-322
0.168336
0.0906762
-0.0478389
0.0336044
0.0751066
-0.029433
0.0170508
0.129127
-0.0345709
0.0459823
-0.120521
-0.0463817
0.0619884
0.0860643
-0.105211
0.0380023
0.0250386
0.0250386
0.0118045
0.00558727
-0.074573
0.00558727
0.0331963
0.0517065
0.191406
0.0331963
3.09157e-255
-0.0563592
-0.0563592
0.0164509
0.049159
0.157942
0.0481787
0.0736539
0.0409359
-0.036328
0.020437
0.195195
-0.048012
0.0552694
-0.00744995
-0.0783042
-0.0303733
-0.00311775
0.0260816
0.00303451
-0.0691105
-0.057367
0.0065176
0.0490373
0.0302462
2.64297e-123
0.138476
0.1873
0.0940809
-0.013849
-0.0473522
-0.104262
-0.0473522
-0.0473522
-0.084635
0.00329322
0.0731979
0.00329322
0.00445272
0.0238124
0.0344389
0.107874
0.0234114
0.0234114
0.0585378
-0.0209938
-0.387427
-0.144106
0.0239942
-0.00194596
0.0239942
0.156285
0.0239942
0.0239942
-0.120996
-0.0258211
0.0539284
0.0236092
0.00157335
0.215095
0.029824
0.0290797
0.0391501
-0.00263356
0.136335
0.0585421
-0.0346694
0.0724929
0.0869117
0.0391188
0.0391188
0.0391188
-0.057681
-0.0158128
0.0321182
0.0321182
-0.0618763
0.0874604
0.0437926
-0.0178501
-0.0735672
0.102556
0.123302
0.058484
0.0340717
0.0340717
0.0453834
0.0249064
0.131713
-0.0448624
0.198193
0.0122116
-0.037231
3.31024e-322
3.31024e-322
3.31024e-322
3.31024e-322
0.0108959
0.135421
0.0287371
0.0262813
0.0416875
0.0230964
0.151623
0.132633
-0.0272127
0.0197248
0.0197248
0.0197248
-0.0278738
0.0927811
-0.0686003
0.0260074
0.0789561
0.0777514
0.0309693
0.0747888
0.043877
-0.0650161
0.0391918
0.115104
0.0391918
0.0750261
0.0909305
0.0466516
0.0466516
0.0464742
0.0503069
-0.00608841
0.0464742
0.0464742
0.0567927
0.00280717
0.0192544
-0.0469155
-0.0637025
-0.046022
0.0917152
0.0206085
0.0206085
0.0206085
-0.141317
0.0439525
0.186014
0.0413451
0.049457
0.0392266
0.0390448
-7.85564e-322
0.0776908
0.0235289
-0.519889
-0.0465006
-0.0946445
-0.00892958
-0.00892958
-0.0433082
0.0142043
-0.126686
-0.0598782
0.0168343
0.0945062
0.0517978
0.146905
-0.119378
0.0188025
0.0188025
0.0188025
0.0724783
-0.0638449
0.0223553
0.0932971
0.193527
-0.156576
-0.217602
-0.123561
-0.129426
-0.0841636
0.0656289
0.130961
0.0351086
0.0351086
0.070491
0.0351086
-0.0200024
-0.0694733
-0.0230347
-0.0200024
-0.0209729
-0.0200024
-0.012208
-0.0200024
-0.0200024
-0.0200024
-7.17092e-96
0.00819068
0.184738
-0.0644884
0.14441
-0.0903435
0.0743112
0.0605582
0.0688574
0.0630174
0.0473865
0.188139
-0.0491464
0.0665204
0.0414087
0.0379223
0.0414087
-0.125955
-0.030654
-0.030654
-0.030654
0.0324413
0.0585767
-0.0281904
0.0196646
0.0196646
0.0196646
0.0308281
0.0533322
0.334852
0.0552894
0.0188226
-0.0644361
0.0635782
-0.0361929
-0.0361929
-2.35988e-164
-2.35988e-164
-2.35988e-164
0.100581
0.00368466
0.0246818
-0.0830003
0.179284
0.101695
0.0323231
0.0323231
0.0323231
-0.0139355
0.123292
-0.0191743
0.053652
0.0460648
0.0233445
0.0233445
-0.146472
-0.0694845
-0.0315538
-0.0804691
-0.102215
0.033462
0.033462
-0.115749
0.0185851
-0.0225125
0.0445696
0.0373384
0.00333126
-0.0252219
0.0366389
0.039194
-0.161688
-0.0315893
-0.0444771
-0.0444771
-0.0444771
-0.0604981
-0.0765911
0.0180336
0.0566292
-0.0464763
-0.0241889
0.0625607
-0.110917
0.0145702
0.124377
-0.0829652
0.113048
0.0194124
0.0995249
0.0194124
0.15829
0.216559
0.0194124
0.0194124
-0.0380148
-0.0876515
-0.101465
-0.141082
-0.0395821
-0.104005
-0.0225353
-0.0114641
0.0546826
0.0268448
0.0139338
-0.336619
-0.0444946
-0.0444946
-0.0444946
0.0265395
-0.0228984
-0.058837
0.0537329
0.144514
0.13627
0.0206261
0.103917
0.00169764
-0.00231368
0.0540177
0.0214507
0.0118473
-0.0197713
0.167925
0.0434548
0.0434548
-0.10748
0.0122382
0.0332054
0.0122382
0.00299713
-0.104425
-0.104425
-0.104425
0.0251324
-0.121406
0.0341059
0.0321649
4.99006e-322
0.0134524
-0.00857009
-0.0171402
-0.0890211
-0.0331767
-0.0331767
-0.247769
-0.158236
-0.00195737
-0.0864782
0.0214422
0.0341795
0.00416966
0.0409352
0.0933898
-0.0179293
0.0270033
0.0270033
-0.0146095
0.0210411
0.00931559
0.0210411
0.0210411
0.123687
-0.0160605
0.0141116
-0.0160605
0.162403
-0.0404588
-0.0531615
0.0503695
-0.0545793
0.00924054
-0.0640195
-0.0640195
-0.0640195
0.210303
0.0682819
0.140033
0.0576121
0.0162035
7.40747e-15
0.00565467
0.0593069
0.064666
0.0264861
0.11443
0.0380045
-0.000538444
-0.291372
0.128163
-0.00790867
-0.0896575
0.0491663
0.0491663
-0.0315154
0.0263817
-0.0337079
0.0173548
-0.151498
-0.0410582
-0.068449
-0.0410582
-0.0410582
-0.0410582
-0.0458602
-0.0182128
-0.111516
-0.0345476
-0.0176746
-0.0355596
-0.0908519
-1.40511e-14
0.0414288
-0.0107102
-1.40511e-14
-0.0544068
-0.0491433
0.0260888
0.149587
-0.117937
0.00553905
-0.0390719
0.0605907
0.0933529
-0.00247815
-0.0197506
0.0157233
-0.00860421
-0.00596345
0.0116033
-0.0811955
-0.0653304
-0.0332509
0.0205633
-0.0273966
8.93185e-123
0.00598449
-0.0408256
5.54764e-123
5.54764e-123
5.54764e-123
-0.221664
0.0197982
0.0552774
-0.0504666
-0.0532633
0.0303825
-0.17874
0.0280788
0.0280788
-6.322e-48
0.0280788
0.0285953
0.0163014
0.0622982
-0.0191033
-0.233172
0.0304597
0.00979895
-0.106022
-0.0553515
-0.0263922
0.0265708
3.30799e-123
-0.072995
-0.0811828
-0.123066
0.0459482
-0.0412721
-0.14777
-0.176793
-0.0427665
-0.0671887
0.022527
-0.00332928
-0.129432
-0.079584
-0.135175
-0.272428
4.56512e-206
-0.16536
0.384479
0.0655233
0.0178147
0.123306
0.00782144
0.15213
0.00782144
0.00782144
0.00782144
0.0422608
-0.0207706
-0.0207706
-0.246366
0.0202109
0.0190635
0.115755
1.62228e-310
-0.184988
-0.160106
-0.0452534
-0.0516409
-0.0704524
-0.0586566
0.0291035
0.0188253
-0.0495952
-0.0977626
0.0377978
0.00748981
0.157194
0.0349995
0.0720364
-0.0378173
-0.112125
0.0207903
0.0308933
0.0207903
0.0314231
0.00300304
4.55919e-123
4.55919e-123
-0.000627939
0.0956238
0.0374014
-0.0480475
0.0657005
0.0216585
-0.0506816
-0.109527
-0.105305
-0.426135
0.0321912
-0.0927423
-0.146987
-0.0207409
-0.0822121
0.140043
0.0418196
-0.1448
0.0507703
0.00394993
0.0721903
-0.0604103
0.047636
0.047636
0.109832
-0.117718
0.0477896
0.0750631
-0.0582376
-0.132873
-0.0815898
-0.0815898
0.0261853
0.0422791
0.0260008
0.104259
0.0145001
0.0424256
-0.171596
0.0798748
0.207272
-0.0375522
0.0628047
0.0267969
0.0503448
0.105414
-0.212579
-0.169466
3.00218e-47
-0.0312141
0.101921
-0.078075
-0.078075
-0.078075
0.1566
0.0449538
0.0449538
0.0261222
0.122894
0.0853616
0.124501
0.0331041
-0.0041913
-0.0280982
0.0440456
-0.0280982
-0.146293
0.0175992
0.0164758
-0.122046
-0.122046
0.0155199
-0.00809016
0.0155199
-0.0134854
-0.0134854
-0.0134854
-0.0271525
0.0125316
-0.140975
-0.132617
-0.0705505
0.0089539
0.0533874
0.0533874
-0.0441161
0.0310548
0.0366333
0.0340713
0.0624724
0.152029
0.022792
0.185807
-0.00544185
0.0612445
-0.0244203
-0.139226
-0.000329425
0.0702609
-0.0119674
-0.239814
-0.0561127
0.0383548
0.220822
-0.0356014
0.0161656
0.0378129
0.0416421
0.0416421
0.0545892
-0.0344421
-0.0394999
-0.0360249
-0.0498413
-0.0599143
-0.0299572
-0.0702261
-0.068125
-0.0147067
-0.042231
0.0517326
0.011627
0.011627
0.109621
-0.0219189
-0.0219189
-0.0181799
-0.0707129
-0.129832
0.237805
0.0920345
-0.0825109
0.0136337
-0.190285
0.0693588
0.0393551
-0.0235109
0.0200969
-0.0441066
-0.488714
-0.0441066
-0.0441066
-0.0441066
-0.0801216
0.0435956
-0.116086
0.0328329
-0.105621
-0.0244197
-0.0244197
0.0178611
-0.0244197
0.061455
0.158477
0.00803273
0.0796769
-0.0477933
0.0189667
0.0603997
-0.00164148
0.00562207
0.00562207
-0.0576885
-0.0390071
0.0107344
0.0405705
0.00670788
-0.0817907
-0.00826869
-0.0742232
0.00119393
-0.0623897
0.0231878
0.0661018
0.0661018
-0.17637
-0.0141221
0.0159151
-0.0141221
-0.0141221
-0.187407
-0.0141221
0.021118
0.021118
0.021118
0.021118
0.0117747
0.0453326
0.0842239
0.00971327
0.00971327
0.00971327
0.00971327
-0.106453
0.0174646
0.00971327
0.00971327
-0.139801
-0.115347
-0.0833746
-0.0235013
-0.0297143
-0.0407202
0.0429262
0.0272091
-0.0364113
0.0272091
-0.156474
0.422834
0.109133
0.0254976
-0.115708
-0.0887543
-0.0887543
0.10705
0.0170196
0.0223191
-0.115584
0.0370972
0.0370972
0.0618205
0.0413757
0.104399
0.143748
0.0435845
-0.0812407
0.033531
0.0231619
0.0382628
-0.0964048
0.0466935
0.0154256
0.00423271
0.166771
0.0363903
-0.0330365
-0.00600298
-0.0579814
-0.00600298
-0.0820195
0.300983
-0.00778011
1.05074e-14
0.109898
-0.00306965
0.0404654
0.0151259
0.0306386
0.0306386
0.0306386
0.152501
0.06577
-6.23526e-95
8.89318e-322
0.025589
8.89318e-322
0.0683064
0.0461717
-0.0920804
-0.0920804
-0.0920804
-0.0293887
0.0449402
0.0720852
-0.0966504
-0.0956982
-0.0229376
-0.0303612
-0.0962784
-0.0283027
0.000464831
0.0399109
0.0399109
1.03625e-45
0.0356703
0.0356703
0.0491182
0.049296
0.113253
-0.0442861
-6.81029e-114
-6.81029e-114
-0.0401965
-6.81029e-114
-6.81029e-114
0.0591767
0.0436207
-0.0224593
0.0209329
0.0209329
0.0301076
0.0479881
-0.056241
0.0564664
0.0059069
0.0803619
-0.149418
-0.141608
0.0121255
0.0121255
0.0163981
0.0163981
0.0163981
0.0342303
2.2659e-237
0.246219
0.0337181
-0.0120107
0.0449297
0.0348181
0.107508
0.0677351
0.0551962
0.0773469
0.0171794
-0.0134106
-0.0275693
0.0754139
-0.0283625
-0.0283625
-0.106724
0.0338665
0.141107
2.04171e-15
-0.0311391
-0.0652504
-0.0434532
-0.0947604
-0.0434532
-0.0434532
0.0715846
0.0495242
0.127076
0.0397294
0.0798022
0.0397294
0.125967
0.0387492
0.0226277
0.0226277
-0.00516472
0.0226277
0.123893
-0.0316691
