-0.239727
0.1591
-0.0439348
-0.0760365
-0.0694074
-0.0710288
-0.011006
-0.0984469
-0.0125297
-0.0680956
-0.119088
-0.0614402
0.0978078
0.293472
-0.071797
-0.0304178
0.0265661
-0.142808
-0.0398953
0.0454959
0.0265661
0.0527145
0.027085
0.0236283
0.0236283
0.168954
-0.0597177
0.193322
-0.0271428
0.0249791
-0.406676
0.000543133
-0.0298758
-0.0950149
0.261072
0.00509528
-0.396441
-0.149087
0.054686
0.250059
-0.250936
0.186228
0.0676794
0.021524
0.230497
0.208583
0.0676794
-0.0108742
0.0304334
0.137159
-0.22962
0.12149
0.116106
0.507901
-0.263657
0.0128514
-0.00419353
0.0185096
0.25111
0.00892909
-0.0200624
-0.403372
-0.284047
0.035554
-0.177431
-0.0913504
-0.119281
0.0287367
-0.0913504
0.067089
-0.379203
0.0616422
0.19305
0.0370279
-0.0854846
-0.0256797
0.122893
-0.0329718
0.120187
-0.157104
0.0291786
-0.0862425
0.0297401
-0.038177
0.209012
-0.258833
0.275514
0.0470701
0.038587
-0.038177
0.0110422
-0.245998
-0.551827
0.249308
-0.130574
-0.0107506
0.0326627
-0.148565
0.0512911
0.0130987
0.0844361
0.0851061
0.0652896
0.0601981
0.103389
0.0481266
-0.0439137
-0.0116364
-0.0210962
0.0655738
0.268243
-0.437131
-0.108458
0.077556
0.0512911
0.00792867
-0.021808
0.0381579
0.433737
0.123059
-0.166708
-0.0549645
0.162654
0.00970409
-0.143445
-0.386373
0.324171
0.102789
0.118194
-0.125596
-0.211438
0.0269343
0.0220227
-0.210768
0.00959921
-0.0407814
0.125199
-0.062528
-0.0229868
-0.0229868
-0.0808989
0.0708865
0.0659664
0.397043
0.114958
-0.0772512
0.0136169
0.0441826
0.151901
0.0808017
0.106193
0.170521
0.121784
0.126083
-0.249234
-0.0946213
0.0374139
0.011098
-0.257683
0.117165
-0.0987484
-0.196267
0.195304
-0.0610659
0.198777
-0.288762
0.00347693
0.00176073
-0.243385
0.0077276
0.01101
0.0166441
-0.0323374
0.0548809
0.1122
-0.0806956
-0.477665
0.161197
-0.108475
-0.169561
-0.119232
-0.0211118
-0.419351
-0.324044
0.141381
0.10171
-0.601459
-0.117216
-0.091448
0.272649
0.0146846
0.0470111
0.287217
0.0106022
0.0074366
0.0074366
0.061377
-0.0641741
0.0421101
0.119576
0.144155
-0.0966094
0.0922244
-0.0818319
0.0956508
-0.233237
-0.0918916
0.470692
0.00565895
-0.151076
-0.0458217
0.0668212
0.0611875
-0.117488
-0.0698468
0.241517
-0.0865809
-0.136809
0.0792999
-0.111219
0.0371388
0.0159412
0.0543674
0.0912636
0.223297
0.129539
0.0971312
0.170353
0.207181
0.15137
-0.114056
-0.0805786
0.209846
0.12012
0.0984319
0.25977
0.141042
0.32365
0.0272629
0.151053
0.0146752
-0.0177769
0.246844
0.00880294
-0.0762385
-0.095429
-0.117808
-0.117808
0.262221
-0.0432113
-0.0206518
0.0626514
0.0312666
0.25733
0.473626
-6.32073e-94
-6.32073e-94
0.0410655
-0.0201116
-0.0346419
-0.0562296
-0.0174847
-0.0672994
0.116853
-0.0465504
-0.0470322
-0.148081
-0.112202
0.244678
-0.0470322
-0.0470322
0.146731
0.0184917
-0.275796
-0.085926
-0.0470322
0.016561
-0.0550544
0.0218315
0.0287137
0.0378866
-0.238338
0.00598364
-0.0959108
-0.0959108
-0.0313957
-0.163682
-0.279884
0.219703
-0.120607
-0.0801602
0.392868
0.109912
-0.258882
0.0364935
0.192879
0.120697
0.0511701
-0.0946499
-0.0413335
0.0884222
0.078315
0.123088
-0.0151422
0.101208
0.000965571
0.067714
-0.0632197
-0.0677567
-0.0907776
-0.146922
-0.179508
-0.07296
-0.0662235
0.23998
-0.129049
0.0993801
-0.379712
0.112829
-0.000729444
0.033514
0.0132236
-0.416141
-0.0314236
0.0214912
0.0214912
-0.0138134
0.0146926
0.00980146
0.0912063
-1.19539e-93
-1.19539e-93
-0.170759
0.0665692
0.152951
-0.0156847
0.114479
-0.125766
0.0317087
-0.0969431
-0.0206567
-1.19539e-93
-1.19539e-93
0.282661
0.129321
0.0178742
0.00714835
0.067071
0.170578
-0.193832
0.0902966
0.00714835
-0.0947245
-0.0304296
0.0838787
0.0332177
0.00903952
0.117421
0.00863678
0.0319163
-0.208851
-0.133289
-0.103962
0.17018
-0.254588
0.114616
-0.279419
-0.145719
0.187851
-0.0639103
0.122014
0.224938
-0.000118288
-0.548522
-0.136351
0.00303072
0.203406
-0.326382
-0.0465557
-0.0899868
-0.0256075
-0.0543211
0.1716
0.0212846
0.0865171
-0.0616735
0.140145
0.33606
0.184784
0.318386
0.0722975
-0.00267559
0.0831096
-0.616588
-0.219568
-0.323524
-0.035639
-0.232691
0.0399201
-0.112718
-0.000807464
-0.241654
0.150943
0.23084
0.0273584
-0.0322336
-0.377709
0.0515929
0.321819
0.293736
0.130635
0.416751
-0.222381
0.00468657
0.123736
0.0117435
-0.352457
-0.41758
-0.0526389
-0.111336
-0.460585
-0.368174
-0.203879
-0.349941
-0.125038
0.0800361
0.29985
0.25749
-0.185562
0.162363
0.125889
0.216752
-0.185189
-3.76365e-93
0.066555
-0.0941858
-0.0326728
-0.195454
0.3339
0.153304
-0.192857
0.11317
0.240631
-0.16455
-0.251225
-0.134709
-0.0401657
-0.0890935
0.0908559
0.178229
0.0313188
0.0363375
0.0740286
-0.129415
-0.325164
0.0628836
0.272818
0.11981
0.116152
-0.0142501
0.066217
-0.0331749
-0.177949
0.0735625
0.10435
-0.404633
0.0771977
0.0728632
-0.344688
-0.0177866
-0.0589167
0.023513
0.00754072
-0.11527
0.0729956
0.0826646
-0.0327069
-0.0327069
-0.0327069
0.0105206
0.20067
0.0316154
0.321005
0.1448
0.0117099
0.155653
0.334338
-0.153819
-0.0483686
0.217626
-0.168593
0.114532
-0.096673
-0.425623
-0.0196356
-0.0351668
-0.0316589
-0.208563
0.222498
-0.141534
-0.224228
-0.0895699
0.0527918
-0.397807
0.0757115
-0.202549
0.00572711
-0.161185
-0.167156
0.109736
-0.172041
0.0420599
0.133391
-0.0911443
-0.406804
0.0724891
0.331797
0.224022
0.0616328
0.0819093
0.0912401
0.0828938
0.0416069
0.099444
0.0829784
0.133943
0.0630228
0.129804
0.370566
-0.0375881
0.0377708
0.0454795
-0.160387
-0.0824005
0.0572037
-0.115044
0.0884205
0.00687713
0.16231
0.147698
0.126174
-0.127803
0.0915251
0.0407732
0.0747115
0.0406056
-0.0139455
-0.208505
0.120396
0.0658812
0.144077
-0.456341
0.209956
-0.339831
-0.0908637
-0.0126216
-0.0707343
0.0316797
0.0819629
-0.180774
-0.172084
0.0840682
0.205806
-0.113308
0.211638
0.0639962
-0.43959
0.264765
0.0191392
0.553245
0.279344
0.114548
-0.445166
0.0932168
0.35582
0.398264
-0.141754
0.0334964
-0.0405085
0.0778728
-0.310661
-0.0376073
-0.414591
-0.312271
0.165794
-0.0824048
0.244826
0.328935
-0.0160291
0.130384
0.0323473
-0.0259774
0.383977
0.160575
0.00767757
-0.0561237
0.034223
0.117362
-0.044737
0.540015
0.203685
0.119082
0.132281
0.0776128
0.106022
0.00636974
0.137858
0.259954
0.127814
-0.179098
0.150532
0.127373
0.358883
-0.0722314
-0.0182096
0.0457056
0.0801454
0.0246065
0.0369761
-0.100829
-0.0447875
-0.297951
-0.340034
0.177679
-0.112467
-0.0855674
0.108197
0.0635624
-0.214721
-0.107563
-0.202051
0.370071
-0.0544417
-0.0137221
0.215489
-0.0137221
-0.006255
-0.51933
-0.00167337
0.0989156
-0.0878803
-0.187512
0.0116984
0.110279
0.264299
0.122004
-0.0161861
0.0961742
-0.0224531
-0.358709
0.0961742
0.102026
-0.223654
0.275495
0.0133895
-0.00945109
-0.0557471
-0.164922
-0.076575
0.17488
-0.0116021
-0.0357288
-0.0984593
-0.0883904
0.0152944
-0.081096
-0.0304839
-0.0195269
-0.561541
0.0197736
0.258663
-0.132884
0.0559709
-0.315017
-0.320017
0.1599
0.111515
0.200625
0.114758
0.0545746
0.0265871
-0.0164635
-0.391737
-0.0339358
-0.0339358
-0.0290576
0.0655038
-0.0403415
-0.15101
-0.0573237
0.154868
-0.0228205
-0.0121787
0.0227191
0.0298929
0.0298929
0.0298929
0.0344171
-0.0189721
-0.162101
-1.60897e-19
-0.00504282
0.0285787
0.0513494
-0.0193863
-1.60897e-19
-0.0770679
0.240099
-0.120251
0.0758913
0.365253
-0.560892
-0.0180596
0.0487858
0.153153
0.0863902
-0.065325
-0.0359917
0.149719
-0.145962
0.00482733
-0.00938672
0.0199973
0.0199973
-0.0179966
0.0618735
-0.194643
-0.157874
-0.242292
0.0338856
0.0338856
-0.116532
0.0204827
-0.0448798
-0.280743
-0.143868
0.0313876
-0.132836
0.177531
0.0271652
0.0125187
-0.153243
0.268349
-0.0153581
0.20122
0.204926
-0.113135
0.319697
0.00333509
-0.304491
-0.155695
0.0338307
0.0669457
-0.0223809
-0.065338
0.207622
-0.021594
0.101227
-0.323592
-0.0160871
-0.141587
-0.0618025
-0.0184279
0.0674807
-0.0101811
-0.0224992
-0.0505014
0.238793
-0.317874
0.146967
0.0142445
0.0324309
-0.287213
0.200998
0.0625017
-0.00658635
0.0145391
-0.174895
0.227202
-0.0447509
-0.339923
-0.0500173
0.216563
0.287359
0.0125726
-0.00169818
0.398392
0.131899
0.0193959
0.0144067
-0.0302195
0.14529
-0.0173096
0.273583
-0.13677
-0.0093624
-0.254898
-0.0382684
0.113435
-0.0440748
-0.00339974
0.0617313
0.0235567
0.0238265
-0.182672
-0.0723095
-0.139869
0.0567235
-0.06736
2.49006e-05
0.20765
0.0790244
-0.38153
0.228789
0.119313
-0.0497005
0.366478
0.51959
-0.0118967
-0.136665
-0.207854
-0.0205726
-0.0391785
-0.0962775
-0.0730426
-0.251629
-0.453687
0.258292
0.0198717
-0.0849751
-0.277933
-0.156548
-0.228403
-0.085091
-0.106545
-0.106545
0.0137595
-0.0947704
0.0040074
-0.474279
-0.0266842
0.0591217
0.253866
-0.291192
0.50117
-0.11014
-0.252917
0.312264
0.0773332
-5.53015e-207
-5.53015e-207
-5.53015e-207
0.257786
0.0609374
0.0265243
-0.038052
0.0584969
0.0264779
0.142322
-5.53015e-207
-0.0379982
0.463497
0.0821869
-0.136106
0.384419
-0.0185102
-0.057408
-0.0566726
-0.131419
-0.164121
0.0959064
-0.250842
0.0400224
0.196153
0.10131
-0.151968
0.094058
0.099956
0.165774
4.41109e-125
0.168635
-0.149881
-0.173659
-0.0765504
-0.020427
0.118534
0.0234175
0.0161137
0.0436936
0.0436936
-0.121007
-0.0550451
0.0421304
-0.0932362
0.0462461
-0.100851
-0.0652791
0.069222
-0.100407
0.0415657
0.187116
0.0169739
0.0562657
-0.20732
0.0282933
0.035738
-0.0642888
-0.0830945
0.0966775
0.158765
0.158287
-0.0172089
0.0227137
0.0751025
2.63048e-47
0.0412934
0.163085
-0.122978
0.0779501
0.0779501
0.0546118
-0.0186974
0.0391183
0.0389751
0.0389751
-0.277731
0.0389751
0.173343
0.0531675
0.0170977
-0.0373448
0.0307945
0.321301
-0.0554722
0.191043
0.182503
-0.18079
-0.181329
0.0424553
0.142084
-0.0362154
-0.132459
0.0399186
-0.0323715
0.0360474
-0.0353293
0.0771858
-0.0494681
0.0636834
0.090425
0.1297
-0.259396
0.16672
0.0445412
-0.506842
0.0392651
-0.0513936
0.0367391
0.0197569
0.148074
0.00492018
0.0629284
0.37305
-0.0188343
0.036557
0.293049
-0.0240316
0.0122123
0.265888
-0.193608
-1.60126e-127
-0.0646412
0.166354
0.0353369
-1.60126e-127
-1.60126e-127
0.0763745
0.135848
0.198266
0.0381633
-0.00459309
0.0381633
0.0884247
-0.120594
-0.4072
-0.0870115
-0.431114
-0.0961448
0.261738
-0.328493
0.0748276
0.0157282
0.0939382
0.101608
0.307072
-0.23846
0.00352474
-0.0744321
-0.0254113
0.0365347
0.0274795
0.456718
0.0179224
0.27187
0.303906
-0.177411
0.568114
0.349338
-0.431475
0.0945846
0.161151
-0.140743
0.133753
-0.0368259
0.0147949
0.0734533
0.118754
0.0418475
0.0407703
-0.183956
0.144908
-0.0571767
0.0407703
0.055459
0.0407703
0.152244
-0.239261
-0.00787127
-0.560779
0.242328
-0.0807082
-0.0444521
0.0922903
-0.105886
0.134485
0.107875
0.035857
0.035857
0.147084
-0.0752312
0.0802614
0.0429537
0.00637232
-0.0251056
0.208278
-0.0787553
0.0178834
0.0785113
0.0485266
0.0869454
0.0869269
0.0161722
-0.0315676
-0.144123
-0.0155484
-0.0155484
-0.0456608
0.267339
0.027858
-0.250343
0.0964848
-0.318667
0.0631265
-0.133328
0.00715232
-0.0857284
0.0348591
0.0708889
0.297609
-0.0669198
0.0372903
-0.270348
0.11757
0.115333
-0.0170836
-0.122291
0.0407081
-0.67915
-0.0347956
0.0660072
-0.128554
0.0206081
-0.0406127
0.18738
-0.101799
-0.555757
0.0174167
-0.0408327
-0.269983
0.0445606
-0.170227
-0.146361
6.95131e-05
0.028737
0.0656912
0.179895
0.136769
0.162679
-0.057227
0.0121561
0.0121561
0.0121561
0.350435
-0.139584
-0.256349
-0.310809
0.115522
0.14538
-0.268161
-0.159484
-0.0699118
0.245081
-0.242306
-0.0623539
0.114996
-0.0699118
-0.0107962
-0.159895
0.349977
0.0252063
0.234006
-0.0939471
-0.304116
-0.0921546
-0.0921546
-0.0846932
0.269301
2.32234e-48
0.123347
-0.347224
0.168592
0.0513559
-0.0284471
-0.401252
0.2248
0.0333661
0.202708
0.172592
0.0177593
-0.116252
-0.0150391
-0.158004
-0.293487
-0.355697
-0.0346481
-0.0286759
0.273099
0.159978
0.00934134
0.11454
-0.108141
-0.059131
-0.210745
-0.180627
-0.270372
-0.471134
-0.100222
-0.178303
-0.196814
-0.0644603
-0.0805102
-0.0453784
-0.265894
-0.0453784
-0.0971153
-0.0961349
-0.0604499
0.0730814
0.0158508
0.171669
-0.035566
0.663246
0.066263
-0.318832
0.0257925
-0.0797901
0.0934088
0.0573853
-0.0572461
0.13656
-0.140498
0.0527067
0.348826
0.19736
0.231409
-0.105079
0.245759
0.0607665
0.240182
0.131316
0.351167
0.109214
0.413841
-0.114466
0.0053923
0.141004
0.0746348
-0.0953091
-0.14549
-0.118228
0.0312633
0.0347891
0.027678
0.027678
0.0561637
0.0424057
0.03849
-0.13081
-0.161677
-0.0609963
0.027678
0.027678
0.0603135
0.0378487
0.0378487
0.0167636
-0.145205
0.0713346
-0.259386
0.0378487
0.153726
-0.0550539
0.0190382
-0.0429474
0.154063
-0.00630267
0.0596732
0.00170165
3.15029e-236
0.0243128
0.0211831
-0.0699865
-0.22102
0.04866
-0.1928
-0.085058
-0.270392
0.326665
-0.107602
-0.405225
0.0199114
0.12569
0.0744907
-0.0127263
0.0350704
0.00161675
-0.117702
0.0625062
-0.164209
0.15461
0.329016
0.228699
0.0428091
0.0667309
0.230618
-0.334699
-0.366799
0.0326905
0.118757
0.0326905
0.0318292
-0.204907
0.0691632
-0.00582003
-0.248255
0.0272181
0.0538864
-0.13806
-0.140998
0.214063
0.142914
-7.31149e-95
0.0160317
0.0249993
0.0423433
0.084677
0.0899999
0.198132
-0.00236942
0.0326161
-0.0913655
-0.194918
-0.143841
-0.0143947
0.129014
-0.0637518
0.103433
0.111534
0.138507
0.0230764
0.091323
0.0230764
0.0374889
0.105437
0.124252
-0.0625737
-0.0702365
0.101782
0.0268479
0.388016
0.360435
0.039152
0.0768419
0.0953971
-0.0310739
-0.0165501
-0.0720626
-0.0165501
0.112412
0.25825
-0.127634
0.094438
-0.102531
0.25112
0.00523881
-0.0108003
0.00523881
-0.148706
0.020956
-0.0257099
-0.0387493
-0.0648012
-0.366846
0.0601098
0.128542
0.0547721
0.106691
-0.0760808
0.10234
-0.0114845
0.0614548
0.0209621
-0.0903633
-0.107208
0.00718664
-0.143531
-0.179507
0.0758107
-0.0156609
0.183658
-0.135046
-0.275446
-0.228901
-0.0391714
0.0582867
0.198441
0.141685
0.0221894
0.257919
-0.267702
0.138441
-0.227256
0.190993
0.301965
-0.203668
-0.206965
0.154671
-0.107562
0.259269
0.0270437
0.021003
0.266753
0.219749
-0.184106
-0.725787
-0.0168285
-0.10613
0.035052
0.0212251
0.10022
0.0805114
-0.0892969
0.077482
0.132597
-0.025975
0.0196083
0.216763
-0.0626873
-0.300571
-0.0152468
0.232366
0.069095
-0.0484364
0.202168
0.0192998
-0.0804405
-0.0395024
-0.0548547
-0.188079
-0.11595
0.00090544
-0.0152519
-0.0703707
0.0407776
-0.277972
0.0407776
-0.185096
0.193441
0.0356944
0.0263512
0.0946421
0.00817544
0.257774
-1.76279e-93
0.0920948
-0.0725066
0.0316973
-0.0158659
-0.123082
0.14935
-0.262605
0.0784762
-0.0243274
-0.361983
0.0390589
0.443842
0.00924507
0.0747119
0.00924507
0.0401177
-0.139489
0.0834997
0.201108
0.033736
0.369786
0.0470407
-0.294152
0.0615814
0.0253836
0.0440711
0.250029
0.0785796
0.0390813
-0.0284624
-0.226216
-0.0624251
-0.115729
-0.0957959
-0.14601
0.194387
0.0519205
-0.117905
0.0276958
0.0276958
0.218629
0.0276958
0.00121907
-0.309501
-0.0305522
-0.0712277
-0.0497649
8.43502e-49
8.43502e-49
0.117057
0.246593
0.0777906
8.43502e-49
-0.00590773
0.137538
0.0294007
-0.220584
0.1278
-0.0339133
-0.196001
-0.142526
-0.0289259
0.0774099
-0.00645521
-0.563458
0.118606
-0.128483
-0.0361382
-0.0477533
0.101906
-0.212294
0.112624
0.0736262
-0.0771617
0.0402413
0.328487
-0.00724979
-0.026031
0.0350802
0.00124918
0.284397
-0.0723655
0.483528
-0.0345332
0.0526844
-0.235022
0.110895
0.249817
0.190148
-0.117456
0.00110055
-0.11767
-7.46921e-05
0.00102697
-0.645769
-0.165454
0.204443
-0.129979
-0.180729
-0.0357838
0.0484115
0.023196
0.130435
-0.154202
0.530991
-0.250585
-0.200299
0.0594771
0.0429745
-0.125003
-0.124794
-0.0782343
-0.0534312
-0.149745
-0.271289
0.231195
0.0480197
-0.114057
-0.00390446
0.0112685
-0.0434558
-0.00378833
0.129361
-0.0470048
0.0608144
-0.286349
0.0164028
0.0362168
-0.0698915
-0.496448
-0.0684908
0.0020734
-0.137274
0.173481
0.183982
-0.00497962
0.0730219
0.195759
0.141738
0.0544484
0.243023
-0.0761128
-0.194458
-0.0462649
-0.0462649
-0.142659
0.17069
0.111227
-0.185979
-0.125701
0.309273
0.0680684
0.140025
0.268141
0.0628436
0.0110953
0.0534165
0.259148
-0.168188
-0.0349226
-0.178002
-0.536515
0.0459426
0.155435
0.0256347
-0.0553702
-0.4112
-0.138027
0.0953119
0.0671819
-0.162207
0.0409088
0.0204284
0.0226687
0.102103
-0.120863
-0.145812
-0.099994
0.120509
0.192395
-0.0374651
-0.0336059
-0.221989
0.0624705
-0.137725
-0.142014
0.0920361
0.0156082
-0.0967128
0.022327
-0.00723007
-0.141475
0.16246
-0.194477
-0.0856621
0.236017
0.100799
0.00186653
0.0211731
-0.11397
-0.0338276
-0.11397
-0.11397
-0.0848729
0.0100289
0.448329
-0.0174528
-0.0620086
0.0101638
0.133641
-0.144075
-0.0714468
-0.251701
0.220034
0.0214228
0.0468273
-0.0287587
0.0511834
0.0511834
0.1091
0.340187
-0.0407283
-0.118509
0.0652458
-0.0682211
-0.0358839
-0.0480526
0.175698
0.0975097
-0.0721018
0.130452
-0.349235
0.236273
0.0537232
0.0802748
0.0372217
-0.159802
-0.216357
-0.100682
-0.0365878
0.131473
0.34233
0.191087
0.0451144
-0.00150187
-0.0413128
-0.339172
-0.0291767
-0.17283
-0.0670076
-0.281193
-0.0182977
0.115771
0.068401
-0.0801143
-0.0949012
-0.560424
0.090984
0.472506
0.0877959
-0.132461
-0.106598
0.179294
0.0180752
0.204441
0.0448451
-0.114252
0.0765057
-0.271836
-0.158227
-0.00674119
-0.164662
0.036577
-0.190444
0.0311747
-0.19886
-0.0798543
0.170599
-0.126992
-0.042686
0.0233627
0.0461117
-0.79352
-0.0423944
-0.165522
0.025535
0.152817
-0.122614
-0.00218486
0.0541828
0.0379574
-0.291786
-0.150468
-0.0795462
0.0627996
0.0627996
0.171359
0.0781265
0.0925495
0.261461
0.122055
0.0234383
-0.136857
0.122111
0.0348857
0.126405
0.105429
-0.0124373
0.0800782
-0.0433861
-0.0433861
-0.21034
-0.0940986
-0.323306
0.0197836
0.1225
-0.157241
-0.649461
0.338736
0.0146176
0.138108
0.437224
0.14899
-0.192362
0.128495
-0.146005
-0.0476531
-0.219944
-0.00746478
-0.0743448
0.257062
-4.40303e-19
0.298492
0.189555
0.323333
-0.218283
-0.0883256
0.120856
-0.0523282
0.0845771
-0.215162
-0.00555539
0.102892
0.288728
0.0257799
-0.0626666
-0.188621
-0.0360705
-0.0360705
-0.0314008
-0.0411888
0.171048
-0.0360705
-0.0216623
-0.00695663
0.0405573
-0.263327
0.121297
-0.0663007
0.00520865
0.0449433
0.0235453
0.25426
0.156284
-0.00656475
-0.118583
0.0151769
-0.0256498
-0.16374
-0.0256498
-0.0256498
0.0236062
-0.189382
-0.0469949
-0.0256498
-0.0504581
-0.108894
0.0399139
-0.0501515
0.126956
-0.218482
-0.0381721
-0.0160939
-0.00953229
-0.394631
-0.148795
-0.0284503
-0.0284503
0.105062
-4.15015e-322
0.132874
0.057592
-4.15015e-322
-0.0715115
0.0668767
-0.0610415
0.0229504
-0.0185835
0.0272352
-0.113832
-0.0870146
0.010766
-0.190597
0.234194
-0.162144
0.0184054
-0.0883876
0.0362897
-0.186225
0.00513429
0.00530513
0.00562701
0.0291999
0.071826
-0.280514
-0.0911595
-0.283233
-0.34658
-0.291265
-0.189136
0.246825
0.406269
-0.155504
0.220456
0.0763515
0.00739678
0.24396
0.00739678
0.274697
0.10483
-0.217654
0.0342962
-0.081843
-0.0384897
0.0700797
-0.532754
-0.0455358
0.0814075
-0.0523529
-0.169036
-0.218061
-0.279335
-0.290472
-0.135667
-0.0754697
-0.0336278
-0.0330773
-0.0295294
-0.463192
0.041852
-0.406249
0.174121
-0.0648205
-0.0535914
-0.0218196
-0.0154661
-0.109484
0.0977246
-0.1386
0.1976
-0.0767442
0.104882
-0.159385
0.253669
0.00584749
-0.00168985
0.0759677
-0.176232
0.0293531
-0.0645836
0.00183016
-0.14729
0.0566017
0.0348385
-0.534031
0.0872695
0.0192336
0.150927
0.0141017
0.0418564
-0.0828874
0.0192336
0.0192336
0.102703
0.204442
-0.332894
0.0860119
0.114646
-0.0217903
-1.92286e-171
-1.92286e-171
-0.0372087
0.0654358
-0.158241
-1.92286e-171
0.0582358
-0.0205555
0.0582358
-0.116165
0.131569
-0.110609
-0.0067695
-0.199748
-0.321677
-0.0200816
-0.0067695
-0.132109
0.0356782
-0.349922
0.0275763
0.257972
0.151312
0.000636656
0.0875625
0.000636656
0.000636656
-0.0320454
0.0954957
-0.039438
-0.0906048
0.148812
-0.352963
0.115379
-0.151473
-0.237271
0.0250883
0.0319125
0.0861711
0.0364321
-0.0938913
-0.190631
-0.217524
0.0167953
0.150383
0.068423
-0.0876514
0.0134119
-3.13605e-19
0.0818658
0.0472766
0.0520391
-0.0134085
-0.132061
0.181817
0.24336
0.0715138
0.253178
-0.0407251
-0.0344591
-0.108492
0.171009
0.0520147
-0.0610332
0.267483
-0.134368
0.043439
0.0217195
0.0370534
0.164021
0.0988542
0.138485
0.027277
0.0851992
0.00421996
0.0609997
-0.201749
-0.147691
-0.0479838
0.0790651
-0.090786
0.060767
-0.699571
0.153327
-0.275064
0.017476
-0.185949
-0.10391
-0.377448
0.147982
-0.390533
0.0666353
-0.0607817
0.0168695
0.0337103
0.389684
-0.132611
-0.430236
-0.0216516
-0.193464
0.0356016
-0.472974
-0.0675607
0.0707282
0.045002
-0.00202441
0.024326
0.0831966
0.118912
0.0667255
-0.0172816
0.117336
0.0855832
0.0337453
0.0206557
0.0206557
0.0337453
0.0938171
0.0337453
0.156489
-1.42574e-47
-0.34001
0.0773364
0.0691522
0.0433503
0.0750742
0.0433503
-0.0741671
0.044504
0.16521
0.044504
-0.0811167
0.222121
-0.011876
0.11491
-0.0595769
-0.128994
-0.237109
-0.409817
-0.023752
-0.0520505
-0.00394667
-0.011876
-0.014543
-0.292519
-0.0622828
-0.110461
0.206749
0.139897
-0.320957
-0.133417
0.268088
0.133688
0.201452
0.304454
0.118578
0.03746
-0.193348
-0.0966228
0.0814292
0.340774
0.453841
0.0661326
0.0291581
-0.0674318
-0.0702671
-0.212744
-0.105456
-0.312397
-0.397471
-0.294903
-0.0276247
0.0341427
0.0585327
-0.196962
0.0604665
0.0326456
0.114555
0.118169
-0.106948
-0.15871
0.0421655
0.256994
0.0286959
0.0618295
0.0332783
-0.0241531
0.0459409
0.120023
0.0806774
0.105224
-0.0454513
0.310469
0.0490834
-0.0454083
0.013262
0.0301596
0.00255116
-0.0726847
0.0904958
-1.18576e-321
0.0236174
0.0844076
-0.00212426
0.0468697
0.14473
0.0294218
0.168805
0.182082
-1.18576e-321
0.0814409
0.1594
0.270505
0.0282752
0.297839
0.299855
0.0609072
0.0186211
0.0186211
0.251155
0.0441823
-0.208393
0.057353
0.217746
0.0214745
0.0711076
0.0214745
0.0439896
0.0438769
0.017231
0.0233072
-0.0878978
0.171772
-0.225036
0.0303359
-0.172462
0.0303359
-0.0708912
-0.0177411
0.200944
0.00638605
0.00638605
0.0634476
-0.0398724
-0.143413
-0.0518435
-0.0288994
0.273795
-0.0776558
0.02081
-0.0288036
0.02081
-0.193736
-0.00273826
-0.0868618
-0.0947852
-0.272299
-0.0246957
-0.0246957
0.147987
-0.0972007
0.0114191
0.0860236
-0.0714706
0.21845
0.175398
0.0757995
0.0217315
0.0958521
0.0336099
0.193758
-0.0272315
0.0336099
0.138707
0.0336099
0.0336099
0.0186425
0.0336099
-0.528242
0.0959134
0.0828098
0.356875
-0.183989
0.164393
-0.0792602
0.111181
-0.0547332
-0.0019046
-0.0891354
-0.262232
0.0799595
0.411217
0.0857657
-0.205777
0.0369941
0.0799595
-0.0874155
0.0313578
0.0246682
0.127262
0.0542789
0.10752
-0.0280989
-0.101949
0.0064738
0.0430925
-0.0569529
0.117264
-0.00327617
0.0100192
-0.10799
0.0100192
0.00133351
0.175711
0.034947
0.0446576
0.482824
0.0744757
-0.3277
0.266764
-0.274512
0.0119632
-0.0938489
0.0443525
-0.121442
-0.487963
-0.0379237
-0.0459333
-0.0459333
0.0935007
0.0379513
-0.142251
-0.341608
-0.0356418
-0.252797
0.0365383
0.101685
-0.081429
0.0606676
0.00662045
-0.0113646
-0.290862
-0.000223202
0.131872
-0.193678
-0.023762
-0.023762
-0.22974
0.274941
0.0625167
0.0250295
0.13976
-0.118025
-0.064134
-0.273279
0.139569
-0.0549756
-0.00248305
-0.130117
0.0294106
0.0294106
0.0717443
-0.0372049
0.121571
0.0938546
0.0282233
-0.183062
-0.367224
-0.135784
-0.0398288
-0.143401
-0.0562469
-0.13155
0.180777
0.0779909
0.0309211
0.0552787
0.0320255
-0.0052309
-0.0310575
-0.117446
0.0364991
-0.127442
-0.0274701
-0.337562
0.0722138
0.01212
0.113623
-0.0345988
-0.123608
-0.0345988
-0.0595462
-0.0284409
0.0387478
0.0717396
0.241954
0.0387478
-0.415616
0.0387478
-0.465577
-0.147779
0.0320123
0.0615963
-0.160558
0.438799
0.10129
-0.202371
0.124333
0.0867727
0.0027179
-0.00429383
-0.211879
0.0476798
-0.0349388
0.0302288
-0.362784
-0.0108956
-0.242325
0.0750364
0.142427
0.168247
0.0304808
0.160196
0.0493715
-0.0335148
0.0296524
-0.391409
-0.0602948
0.0231454
0.023875
0.106338
0.143107
-2.16796e-306
-0.0266116
0.00346723
-0.00280376
-0.0124408
-0.0266116
-0.0570232
-0.0660516
0.0321679
0.327642
0.156918
-0.160557
-0.139723
-0.127922
0.0451209
-0.0918606
0.0120504
0.0120504
0.0120504
0.0120504
-0.0462754
-0.269944
0.0267637
0.180891
0.0335538
0.274256
-0.0239581
-0.147906
-0.0400104
-0.0590407
-0.375548
-0.216836
-0.197721
-0.186007
-0.0763072
-0.0746145
0.195958
-0.0150665
-0.0399502
-0.061313
-0.248788
0.079759
-0.0941077
0.0303299
0.0303299
-0.0429718
0.160771
-0.0429718
0.0793264
0.0154356
0.192751
0.0876337
0.0728126
-0.268386
-0.204374
-0.247713
-0.324698
-0.133273
-0.0589122
0.125941
0.122199
0.296116
0.124245
-0.00972918
0.0273051
0.258606
0.46128
0.078063
0.078063
-0.306939
0.135877
-0.024428
-0.024428
0.260304
0.019907
0.025371
0.0803979
-0.129883
-0.0299913
-0.0753595
0.0409722
0.21778
0.0409722
0.0409722
0.22703
-0.0427327
0.0939878
-0.325753
0.0331795
0.210026
0.00795291
0.193672
0.0187189
-3.04108e-235
-3.04108e-235
0.0141468
0.340167
0.0872266
-0.127689
0.11872
0.139125
-0.0652395
0.0423678
-0.0140512
0.0250152
0.0197733
-0.00188813
-0.109282
-0.0205056
-0.00188813
-0.0814332
-0.0356217
0.0979939
-0.0476424
-0.177921
0.0230401
-0.124432
-0.0416833
0.0100836
-0.0193837
0.00695652
0.0140525
0.00695652
0.0348495
0.297746
0.305766
0.197788
-0.00348884
-0.20304
-0.415216
-0.351671
0.315892
0.00627702
0.021173
0.00627702
-0.0863231
0.0754702
-0.595938
-0.0215691
-0.0540657
0.0374715
0.00566138
0.128371
0.226377
0.0117096
-0.464325
-0.303622
-0.0230414
-0.274114
0.106721
0.379363
0.120044
-0.331063
-0.104696
0.0176046
-0.225206
0.0635412
0.0107997
0.038335
0.0227377
0.0227377
0.0227377
-0.216734
0.0231212
-0.0386666
0.20669
0.135453
0.0322937
-0.0104121
0.0119588
-0.00442022
0.0666474
0.136416
0.122251
0.00856339
-0.135716
0.00647825
-0.00318883
0.00244377
0.177733
0.041673
0.0440204
0.0152546
-0.102495
-0.12372
-0.21447
-0.028327
-0.166488
0.224858
0.0716726
0.0458529
0.574637
-0.0436429
-1.21064e-236
-1.21064e-236
0.0698641
-1.21064e-236
-0.116099
-0.132138
0.050327
-0.0440879
-0.0352183
-0.0704366
0.0378826
-0.0534151
-0.115974
-0.311139
0.0530298
0.0348995
0.0348995
0.0910656
0.0273676
0.1587
-0.0631137
-0.03187
0.0273676
-0.112801
-0.110874
-0.138951
-0.333347
-0.144088
-0.0403852
0.1529
0.0547983
-0.00706233
-0.110111
-0.289564
-0.22907
0.0761434
0.0280593
0.0280593
0.0112818
0.0662983
0.0652637
-0.0440066
-0.0421222
-0.0627379
-0.218956
0.0380269
-0.155928
0.0504872
-0.00534648
-0.0703573
-0.0420619
0.156113
-0.0287672
0.216147
-0.229999
-0.0178615
0.0268653
0.00490213
0.00520455
0.0513424
0.174265
0.0401612
-0.00650071
0.0473426
-0.0131155
-9.69647e-20
-0.0346276
-0.0114315
0.145717
-0.0314254
-0.0333204
-0.0696893
0.0372759
-0.0133713
0.210122
-0.424736
-0.0565524
0.0295598
-0.0565524
-0.304151
-0.122045
0.124346
-0.0935729
-0.0935729
-0.0935729
0.06023
-0.0418931
-0.0595299
-0.282508
-0.0403752
-0.137248
-0.0738439
-0.0401738
-0.641243
0.05884
-0.0559699
0.084043
-0.1152
-0.176826
0.0234974
-0.0884141
-0.0809518
0.0466034
-0.0468076
-0.260929
0.0427487
-0.110937
0.0535343
0.0383718
0.269396
0.0568583
-0.37208
0.182656
-0.0257863
0.264694
0.0635734
0.116112
0.10408
-0.0468883
-0.0331392
0.00660942
0.117794
0.0426279
0.0517642
0.304363
0.0602058
-0.307854
-0.171407
-0.0494799
0.105926
0.0829991
0.173096
0.221374
-0.00434445
0.0368596
-0.0401196
-0.0115352
-0.477436
-0.0840659
0.0450065
-0.0791048
-0.0350443
-0.0945855
-0.0398568
-0.305463
-0.180906
0.0297082
0.0297082
-0.357737
0.0937651
0.160473
0.0227268
-0.0496954
-0.222143
0.00376086
-0.0995242
-0.288372
-0.0168016
-0.0132496
0.0340379
-0.0893537
-0.0503223
-0.00275658
0.0283109
0.0145182
0.0145182
0.107424
-0.158505
-0.0543892
0.0120191
0.0372174
0.123144
0.102948
0.390051
7.88033e-86
-0.0149313
-0.0974813
-0.0727709
-0.107751
-0.0258407
-0.12859
-0.00523487
-0.0330897
0.0055441
-0.316653
0.229586
-0.195667
0.0812393
0.0127353
0.116114
-0.108705
0.0127353
0.0127353
0.0681197
0.0127353
0.244451
0.0360038
0.0731391
0.163743
-0.201489
0.276388
0.0183449
0.0183449
0.0898323
0.0183449
0.0183449
0.0183449
0.239139
-0.103066
-0.362413
-0.233117
0.420551
0.0370753
0.366391
0.0809964
0.112719
-0.0796049
0.0346938
0.00601568
-0.292593
-0.0789904
0.026212
0.060161
0.260688
0.130009
-0.0209076
0.0161293
-0.171667
0.162066
0.0161293
2.50998e-05
-0.113815
-0.0403748
2.50998e-05
-0.118235
0.319184
-0.00158916
2.50998e-05
-0.108618
0.00831867
0.261267
-0.0655047
-0.000271332
0.0551465
0.0137584
-0.481771
-0.00653572
-0.0458415
0.272381
0.142201
-0.0263548
-0.00968741
0.0220523
0.0989737
0.128504
0.242406
-0.23214
-0.348019
0.15062
0.110216
-0.0522277
-0.230199
0.0253274
0.186252
0.0246094
-0.0725269
0.046761
-0.0573536
-0.0463864
0.164877
-0.138929
-0.435479
-0.0070575
-0.0324282
0.0700645
-0.309354
-0.33121
0.167757
0.225648
-0.0503004
-0.102024
-0.0705413
-0.0705413
-0.0429963
-0.116986
-0.0705413
-0.111053
-0.0292798
0.131961
-0.0165927
0.0911516
-0.212671
0.0692117
0.0806241
-0.116744
-0.0379458
0.0244555
0.115766
-0.301021
-0.0739624
-0.340995
0.033333
-0.0861871
-0.00222162
0.0918255
0.300472
-0.110441
-0.144854
-0.130438
-0.0305215
-0.0262383
-0.0729626
-0.00864692
-0.27838
0.00727383
0.112062
0.168175
0.0645933
-0.061826
-0.0918017
-0.0315651
-0.0315651
-0.0644599
-0.257314
-0.0315651
-0.0398141
-0.13341
-0.0499383
-0.0384397
0.0170348
0.0337246
0.0316175
0.0313696
-0.0973707
-0.0723431
0.0476252
0.0562364
0.119297
0.021385
0.0988984
0.160516
0.0150645
0.0450481
0.0450481
0.224221
-0.0928206
-0.0158132
0.0421512
0.00563002
0.0805352
0.00563002
0.00513787
-0.168888
-0.0217546
0.197033
0.0942452
0.0195838
-0.225267
0.220628
-0.144064
0.117782
0.0245363
0.0490726
0.000393551
0.0260194
0.0490726
0.0245363
0.0714817
0.232372
-0.047592
-0.125852
-0.0786906
0.287386
-0.061521
0.0301945
-0.142853
-0.337732
-0.241999
0.253609
0.16441
0.0379791
-0.0300176
0.154904
0.00577755
-0.108422
0.0698348
-0.148508
0.0147272
0.184274
0.0233115
0.0219541
0.0343333
0.0378143
0.0301697
-0.105039
0.0301697
0.116129
0.00987067
-0.170161
-0.0477146
-0.107279
-0.111144
-0.138307
-0.0477146
0.0133286
-0.176743
0.0537669
0.16856
0.161803
0.0564741
0.0706519
0.0409918
-0.239452
0.0442558
0.328107
0.0807561
0.0550331
0.306395
-0.325038
0.0659754
-0.0729615
0.00221919
-0.0550333
0.0260024
0.144446
0.0004879
-0.130949
-0.0802254
0.0575097
-0.0476111
-0.103453
0.0684124
0.139981
-0.0235508
-0.0304058
0.0156385
0.080988
-0.0916174
0.0505169
0.0150837
0.0747916
0.0433978
0.216174
0.0221358
0.0221358
0.0930804
-0.202803
0.0126313
-0.0246867
0.0226703
-0.096879
0.128078
0.0226703
-0.0830932
0.054708
0.0916808
0.0337346
0.0337346
0.0521189
0.119784
0.00843095
0.099078
0.0337346
0.123967
0.0615039
-0.0203766
0.0657403
0.124114
-0.0902174
-0.14845
-0.181186
-0.0908703
-0.0902174
-0.260731
-0.0902174
0.171636
-0.197887
-0.206202
-0.0484864
-0.151986
0.214224
-0.0484864
0.0311874
0.0601959
0.265284
0.14306
0.308524
-0.10638
-0.0693066
-0.0123212
-0.17787
0.101115
-0.114411
0.128694
-0.140066
0.0126399
-0.226235
-0.00539602
0.085575
0.0199233
-0.135793
0.057175
0.0118334
-0.00534688
-0.0302076
0.0742089
-0.0475141
0.0530158
0.209607
-0.126095
-0.126095
-0.146501
-0.126095
0.322717
1.3144e-47
-3.40491e-19
0.0708787
0.102294
-3.40491e-19
-3.40491e-19
0.0743349
-3.40491e-19
-3.40491e-19
0.0538973
-3.40491e-19
-3.40491e-19
-0.213988
0.205244
0.188154
0.093494
-0.108296
0.0376944
0.0376944
0.079458
-0.0440667
-0.0746951
0.0554289
0.429926
0.185235
-0.0575604
-0.037192
-0.255193
-0.148195
-0.0322173
-0.243629
-0.0342238
0.0190793
1.29939e-321
1.29939e-321
1.29939e-321
1.29939e-321
0.0710261
0.10468
0.125406
0.0869806
0.0255277
-0.314779
-0.0736279
-0.250297
0.127966
-0.254449
-5.58752e-48
0.00662327
-0.269943
-0.0216595
0.0332427
0.0346783
-0.175005
-0.479487
0.00792689
0.0230074
0.0756368
0.114156
-0.00153049
0.0161102
0.00811212
0.0452264
-0.272425
-0.0695951
-0.103077
-0.152755
-0.0469736
0.34927
0.00347736
0.0305637
-0.0520578
0.00347736
0.00347736
0.093901
0.00347736
0.0593524
0.119936
0.05381
0.051289
0.0111955
0.0841412
0.0841412
0.0174682
0.0832161
0.0375463
-0.0405126
0.025283
0.000417291
0.127581
-0.258828
-0.020916
0.0414811
-0.00866942
-0.00866942
-0.172884
-0.004068
-0.0497548
0.113281
0.0356488
0.0615754
0.0356488
-0.029021
-0.121216
-0.029021
-0.532589
0.0226505
-0.0145039
-0.205175
0.142765
0.0372139
-0.0693964
0.166343
0.0306561
0.0780098
-0.0370196
-0.0792407
0.121934
-0.0707689
-0.0707689
-0.0707689
-0.0248569
0.240357
0.00427436
0.0234838
-0.01628
-0.123238
-0.0152617
-0.038561
-2.08589e-47
-0.0527635
-2.08589e-47
0.111516
0.0171315
0.0392888
-0.269843
-0.00422034
-0.423843
0.0416377
-0.187959
-0.00363016
-0.0934131
-0.0349273
-0.0176143
-0.180095
0.00262162
0.0227889
0.00981904
0.00981904
0.0488667
0.00981904
-0.343802
-0.138353
-0.030442
2.76534e-228
0.115261
2.76534e-228
2.76534e-228
0.0205111
-0.0575949
-0.0628507
-0.0803052
0.0742088
0.0369178
0.107751
0.336445
0.0297006
0.1484
-0.0394756
0.034835
0.0297243
0.0297243
-0.0184632
-0.116708
-0.143803
0.123693
0.331039
0.0996586
-0.0309542
-0.0309542
0.124336
-0.0133979
0.260476
-0.027553
-0.0778646
-0.184722
0.0440546
-0.107531
-0.0106173
-0.0701723
-0.106994
-0.106994
-0.0812668
0.0144052
-0.164464
-0.0716848
0.0564851
0.101645
0.0728818
0.0190729
0.0801557
0.0449915
0.16047
-0.0438983
0.0754912
0.0610155
-0.140825
-0.0989693
0.12717
-0.0805864
0.0319066
-0.133452
-0.184054
0.117104
0.0274372
0.0274372
0.103068
0.036371
0.0659933
0.117406
-0.0445253
3.23936e-259
-0.153716
0.0846769
0.131821
0.065366
-0.0291163
-0.180571
0.012461
0.103411
-0.0308326
0.0316277
0.0214536
0.0175363
0.353891
0.278139
-0.0884533
0.00407799
3.11352e-127
0.160492
-0.0743302
-9.48606e-322
0.121221
-9.48606e-322
-9.48606e-322
-0.116379
-9.48606e-322
0.115607
-0.0296856
-0.249091
0.00611542
0.00321466
-0.272979
-0.158311
0.00882006
0.211885
0.135273
-0.0266389
-0.0854538
-0.0962072
0.0173183
0.0321182
-0.0226832
-0.149049
-0.119647
-0.101916
0.216591
-0.0211427
-0.0297738
-0.237071
0.0298087
0.0298087
0.103511
-0.138095
-0.115391
0.18204
0.00866557
0.0312938
0.0502548
-0.106425
0.265447
0.0300834
0.0311857
-0.0215364
-0.0682457
-0.159242
0.00629572
-0.1663
0.0881382
0.461688
0.117799
-0.181825
-0.0313917
-0.12258
-0.219604
0.0505503
-0.128443
-0.231496
0.152337
-0.305638
0.0720786
0.0472309
-0.38564
0.0472309
0.0472309
0.0472309
0.045811
0.045811
0.045811
0.0654813
0.128991
0.100856
0.184516
0.149239
-0.0683546
0.00719888
0.00719888
0.0418709
0.050211
-0.160595
-0.117052
-0.111716
0.0186464
-0.147867
0.0291351
0.20359
0.156156
-0.0673897
0.0151001
-0.217126
0.114231
0.18768
-0.0332784
-0.0811446
0.0548025
0.313187
0.0306577
0.0630934
0.503897
0.027923
-0.00124075
0.027923
0.0787182
-0.0568813
-0.0270618
0.027923
0.0860993
0.0366827
0.0271663
-0.0205926
0.247116
0.0505074
0.190875
0.0154424
0.0798141
0.0496807
0.0154424
0.0154424
-0.0474381
0.0376524
-0.00328878
-0.10522
0.101055
0.0409845
-0.060422
-0.199646
0.101163
-0.0140608
-0.299839
-0.0645948
-0.514269
-0.100475
0.094983
-0.0947369
0.0322385
0.0322385
0.0798127
0.00452415
0.00452415
0.00452415
-0.165154
-0.019796
-0.0892944
0.195093
0.0330512
-0.0661411
0.0228549
0.184899
0.118607
-0.0850209
-0.0850209
-0.0850209
-0.144224
-0.0142972
0.111202
-0.0671532
-0.214785
0.181902
0.0564541
0.173459
0.0288451
0.0676329
0.0263651
0.00701711
0.161888
0.0320639
0.00701711
0.0740445
0.167063
0.0367541
-0.0475226
0.205448
0.0159391
0.0950662
-0.17513
0.0501375
-3.14014e-93
0.120946
-0.0202533
0.00700334
-0.238359
0.178785
-0.108055
0.119381
0.0788534
-0.0145933
-0.071023
-0.0319416
0.0777184
-0.136621
0.0275357
0.147206
0.0275357
0.0271479
0.0271479
0.0291518
0.106585
-0.0777546
0.0261473
-0.0807547
-0.0202773
-0.311046
-0.0172683
0.1304
-0.200834
0.0363034
0.214571
0.0195435
0.145572
0.0195435
0.306802
0.0261973
0.0125071
0.198232
-0.0043336
-0.0261854
-0.145291
0.119228
0.0173071
0.159039
0.156043
-8.0486e-128
-8.0486e-128
0.460719
0.16488
0.0286559
-0.27827
-0.046481
-0.0880424
0.00301473
0.0988183
-0.0196991
0.0825601
0.00301473
0.022103
0.0320531
0.156426
-0.127833
-0.0404922
-0.138326
0.170909
-0.11819
0.192014
0.0659929
-0.191245
-0.046775
-0.046775
-0.0370596
-0.12394
0.0407893
2.76651e-291
0.272189
0.0751488
0.0894472
2.76651e-291
2.76651e-291
-0.0842548
0.0141947
0.0256313
-0.23506
0.119862
0.0177309
-0.141777
-0.305916
0.270375
0.146897
0.123396
-0.0355779
-0.0807889
-0.0784504
0.190265
0.201751
0.0038437
0.0657171
0.0196967
-0.0800748
-0.0147744
-0.103707
-0.0991356
-0.107359
0.11979
0.200374
0.321405
0.0369418
-0.115072
0.375335
0.0158281
-0.0962493
0.201574
-0.0723399
-0.0194334
0.0840232
0.0229611
-0.00121008
0.0229611
-0.133403
0.0523218
0.0241041
0.217167
0.00877411
0.147116
-2.9586e-236
0.145341
0.191715
-0.192774
0.206295
-0.457516
0.187282
0.0106884
0.110768
0.195233
0.10719
0.0116839
0.138247
0.0160448
0.0440278
-0.0405017
0.00409044
0.161765
0.0463754
0.0602944
0.164842
0.178724
-0.0335167
-0.0265408
-0.251425
0.310451
-1.93203e-235
0.0702323
-0.0718036
-0.0483029
0.474909
-0.0788948
0.00497148
0.229725
-0.11661
0.0612342
0.00236997
-0.244687
0.0277163
0.00236997
-0.0271497
0.0232336
0.073591
0.0683394
-0.0443474
0.145033
-0.157809
-0.287621
0.0774297
0.0660294
-0.00247782
0.0177073
0.110772
0.0442475
0.0818119
0.351799
-0.569072
-0.0274502
0.042547
0.226824
0.202364
0.163562
-0.0196321
0.108799
0.0329293
0.0415944
-0.322199
-0.150992
-0.139585
0.0542824
-0.117229
-0.191162
0.164996
0.0857371
0.0251948
-0.106989
0.190552
0.306186
-0.277492
-0.130132
-0.16135
-0.30155
-0.0372953
0.04859
0.00357274
0.0152058
0.0152058
-0.0226387
0.0401975
-0.0374698
-0.0374698
-0.0150955
-0.15042
-0.0875171
-0.0144484
-0.0144484
0.0181164
-0.00948096
-0.0366139
-0.0144484
-0.0517884
0.040372
-0.0131637
-0.374575
-0.1647
-0.212369
-0.411518
0.0369809
0.156614
-0.035386
-0.212658
0.0639668
0.168502
0.0291531
-0.103193
-0.137781
-0.186282
0.0707658
-0.00253054
0.234614
-0.101156
0.0948904
1.67982e-322
0.146163
0.0909172
0.133045
0.0866545
0.00464143
0.120165
0.0301221
0.00464143
0.130808
-0.374095
-0.302213
0.0718744
0.149662
0.0341741
-0.129683
-0.0749144
0.0392716
-0.021257
-0.0152042
-0.0613947
-0.0613947
-0.071971
-0.357736
0.0203305
-0.198144
-0.0687423
0.0336429
0.0406991
-0.0302056
-0.182228
-0.138272
0.103753
0.289969
0.120624
-0.000487815
-0.450889
0.0258131
0.0816714
0.101709
0.0342678
0.0652655
0.0529061
0.0652655
0.0182692
0.00879126
0.0231278
0.0606572
-0.130151
0.0220292
8.89318e-323
0.160165
0.115287
0.089929
0.0252234
8.89318e-323
0.111386
0.00871717
0.300392
0.0273044
-0.339405
-0.0205894
-0.041271
0.0579218
0.0694874
0.0917713
-0.00962617
0.10216
0.0190133
-0.0668282
-0.178357
-0.00692211
-0.0331258
0.040715
-0.0600566
0.194891
0.147626
0.0275562
-0.0448986
0.395665
0.283373
0.0628833
0.0618443
0.0127376
0.0454561
-0.0397217
-0.0479142
0.0772697
0.113895
-0.151751
0.00108255
0.0266733
0.0435785
-0.0349528
0.034231
-0.171091
-0.13693
-0.107146
-0.0304082
3.56408e-127
0.0605873
0.00373922
-0.299389
-0.08857
-0.0819059
0.229412
-0.103999
0.219488
-0.167815
-0.232432
0.0228191
0.306743
0.077944
-0.0137955
-0.0778947
-0.104067
0.153162
0.058196
0.0213182
0.0297323
0.0297323
-0.0496979
0.0461628
-0.00289432
-0.0275276
-0.112776
-0.172439
-0.0353726
0.276288
0.0314816
0.338484
0.204413
-0.094516
-0.094516
0.0648091
-0.109246
-0.0203542
-0.0600031
-0.160712
-0.113787
0.0191609
0.145235
0.0384741
0.0384741
-0.0273217
-0.0273217
-0.0273217
-0.0273217
0.0860009
0.0279513
0.0592235
-0.119916
-0.00768399
-0.0717095
0.0706012
-0.125093
0.0454082
0.0180572
0.0988169
0.0216809
-2.57738e-93
0.0399075
-2.57738e-93
0.109153
0.0279622
-0.0765003
0.154237
0.00159867
0.00159867
0.165501
0.0283723
-0.0722685
0.342531
0.105814
0.050226
0.0381626
0.0792076
0.0140778
0.0666603
-0.022771
-0.022771
-0.022771
-0.320511
-0.0901892
0.0538286
0.0241405
0.0286472
0.0286472
-0.0906923
-0.358149
-0.0798825
-0.0216529
4.11779e-93
0.076578
4.11779e-93
4.11779e-93
-0.134417
-0.00301298
0.0893926
-0.10691
0.048698
0.0239788
0.00649016
-0.0708573
-0.216246
0.167219
0.0839748
0.224937
0.113995
0.188503
-0.21341
0.00477236
-0.297743
-0.336517
-0.184991
-0.000460034
0.0161835
0.0157729
-0.016861
0.00714467
0.00813332
-0.128761
0.0179494
-0.14107
-0.339489
-0.0137014
0.0702144
-1.72923e-322
-0.032378
0.10794
-1.72923e-322
0.136492
0.0308474
0.0512613
0.0308474
0.0308474
0.26735
-0.0767646
0.0330479
-0.103263
0.0261572
-0.194917
0.143656
0.196774
-0.119448
0.183317
0.0731282
-0.157
0.00920144
0.0966563
0.093645
-0.314552
0.0873229
0.0108739
0.0201343
-0.00469333
0.0126478
0.0633287
0.00239022
6.22523e-322
6.22523e-322
0.0279611
-0.0348526
-0.119218
0.0318237
0.0301046
0.0301046
-0.0174646
0.141831
-0.18594
0.0196499
0.0541298
0.0224106
0.00178985
0.26101
-0.0794616
0.0759104
-0.107535
0.0386802
3.73041e-48
0.511092
-0.0526473
0.0714221
0.0383686
0.0742166
-0.0508895
-0.0508895
-0.0508895
-0.188482
-0.0714434
0.26092
0.168318
0.0148812
0.0388471
0.200645
0.0371151
0.0147278
-0.0222089
0.0330815
-0.0231771
0.0362319
-0.0450691
0.25975
0.0114785
0.104516
0.0280848
-0.198382
-0.056689
0.299461
0.0694533
0.0286572
0.00360422
0.0243375
0.0275848
-0.0475482
0.104078
0.0781111
0.175925
0.116139
0.0223993
0.0223993
0.0223993
0.042802
0.138076
0.00890255
-0.0297552
-0.0295322
-0.176184
-0.216887
-0.0120986
-0.180826
0.0998153
0.056387
-0.0552378
0.0247785
0.175827
0.0198052
-0.0129385
0.166649
0.344221
-0.0605425
0.0291674
0.00532974
0.114349
-0.042188
-0.0607989
0.303131
-0.0109345
0.0320783
0.135848
-0.0276174
0.141682
0.0210775
0.0390338
0.318365
0.0390338
-0.108663
0.108414
8.58789e-48
0.139211
0.178445
0.0300842
0.304329
0.041511
-0.152739
-0.0281736
0.0957118
-0.0177143
-0.0177143
-0.0177143
-0.0177143
-0.0177143
0.0925024
0.010797
-0.333215
0.0335379
0.0335379
0.072429
0.215022
-0.659722
-0.163325
-0.0608838
0.0526364
-0.299343
0.0723237
-0.0809342
-0.019301
-0.00649578
0.0850354
-0.372757
0.0245438
-0.00984999
-0.189017
0.0804309
-0.170717
-1.92418e-93
-1.92418e-93
-1.92418e-93
-0.0340282
0.0312707
0.0312707
-0.397262
-0.112827
-0.112827
0.0945904
0.127425
0.0427702
-0.139686
0.228577
0.0590332
-0.00108654
-0.233896
0.185899
0.0228117
0.0472654
0.101515
0.0472654
-0.0701777
-0.166721
0.00016054
0.070001
-0.0816831
0.0946391
0.126626
0.0271919
-0.0867653
-0.0652886
-0.0965487
0.0296048
0.0296048
0.0296048
0.0296048
0.0296048
-0.209296
0.0834784
-0.164819
0.0437797
0.00628764
-0.0443549
0.184007
-0.0602987
0.0184456
-0.0571432
-0.0639775
0.156965
-0.0910384
0.0254142
0.121356
0.226744
0.065071
0.0318686
-0.03938
-0.030176
-0.03938
-0.00396148
-0.404093
-0.03938
0.248559
-0.0293922
-0.03938
-0.172437
-0.0645127
-0.067099
-0.0645127
-0.0606904
0.053876
0.0412216
0.0412216
0.0412216
0.101889
0.0508668
0.218449
0.0195369
0.0230394
0.0123634
0.026259
0.00904684
0.0537707
0.425997
0.0197335
-0.0182949
0.0381503
-0.0692675
-0.0778186
0.0154818
0.356394
-0.167195
0.0371907
-0.0219241
0.0880851
-0.0705973
0.141859
-0.167648
0.42879
0.218666
-0.0229815
-0.0645151
-0.0357925
-0.160881
0.0355849
-0.00136138
-0.00369923
0.00517638
0.0411724
-0.165719
0.0251922
0.00604298
0.0251922
0.0251922
0.25497
0.0240218
-0.104817
-0.203362
0.0229702
0.0186014
0.0326824
-0.113364
0.129838
-0.132181
0.0169742
0.127914
0.0636504
0.178512
0.0404269
0.0243504
0.141257
0.0962432
0.0243504
0.0818241
0.161842
0.0243504
0.160751
-0.0724917
0.0309199
0.0309199
-2.15587e-93
0.385912
0.0276134
0.0212231
0.0212231
0.0212231
0.0212231
0.0797436
-0.0221981
-0.00768877
-0.021662
-0.05663
0.0155792
1.95836e-47
0.0541418
1.95836e-47
-0.216334
-0.0782894
-0.259037
1.95836e-47
0.127815
0.107192
0.0234071
0.084147
-0.0700411
0.0234071
0.00631968
0.0234071
0.0260676
-0.0561355
0.0708042
-8.03066e-48
0.0866528
-0.04846
-0.293418
-0.012903
-0.530229
0.0271256
0.365579
-0.130728
-0.400351
-0.100813
0.0685594
-0.0387852
0.0898228
-0.00394916
-0.338586
0.0159501
0.207876
0.0966005
-4.29837e-322
0.0173143
-4.29837e-322
-4.29837e-322
-4.29837e-322
-0.123487
0.0428248
0.0428248
-0.00414181
0.106237
-0.0107
0.0756883
-0.0891507
0.035319
-0.0391378
0.139746
-0.173373
0.00864403
0.0198187
-0.207915
-0.0442575
-0.0900493
4.44659e-322
4.44659e-322
-0.0389314
4.44659e-322
-0.0384536
4.44659e-322
0.0437183
0.0437183
0.0437183
0.0196172
0.0161149
-9.28512e-171
-9.85887e-172
-9.85887e-172
-9.85887e-172
0.132762
0.0331244
-0.0487742
-9.85887e-172
0.00856918
0.0985154
-0.150276
-0.022161
-0.00514441
-0.0427287
-0.000877671
0.0617419
-0.0351637
0.0427602
0.0235154
-0.0830947
0.162996
0.0715548
-0.131755
0.0339895
-0.28708
0.193943
0.084851
-0.0866375
0.0676901
-0.0210403
-0.00217902
-0.295467
-0.0740097
0.0331476
0.0596972
-0.0609253
-0.0899089
0.0165939
-0.0474901
0.0714202
-0.0552709
-0.14917
0.0047016
0.0653905
0.0286074
-0.0167572
-5.78529e-208
-5.78529e-208
0.119582
0.175293
0.0419413
-0.00428017
0.0133839
0.169382
-0.0125428
0.110825
0.00822815
0.0388361
0.0388361
-0.0992279
-0.0373901
0.0629228
0.239451
-0.067354
-5.26559e-20
-0.068283
0.0350657
-2.36956e-171
-1.18478e-171
0.0980201
-0.191332
-0.0394253
0.10404
-0.100017
0.0519192
-0.0288804
0.0148849
0.0148849
0.0218771
-0.0836789
0.0797447
0.000403552
0.0605912
0.100592
-0.0616066
-0.027639
-0.0229516
0.276
0.274173
-0.23707
0.0529146
0.109041
0.141649
-0.112966
-0.0304664
0.118324
0.0321821
-0.0389031
0.330789
0.0321795
0.0890635
0.0635523
0.053212
0.0238912
-0.151361
0.0624929
0.142814
0.0409343
-0.0268147
0.221441
-0.0412186
-0.0598319
0.0825275
-0.141406
0.172503
-0.114223
0.0231234
-0.139098
-0.143111
-0.233447
-0.0388232
-0.0388232
0.108035
0.0560027
0.0224631
-0.169026
-0.00595953
0.0199954
0.0199954
-0.0242193
0.0264057
0.0240419
-0.084183
0.0240216
0.0510219
0.0510219
0.0863454
0.0863454
-0.015567
0.211309
-0.0461026
-0.071019
-0.532792
0.121213
0.197569
0.0446679
0.14383
-0.110363
0.00805001
0.048006
0.00805001
-0.00256618
-0.109867
-0.358777
-0.129591
-0.0849053
0.235553
-0.0278429
0.0313093
0.0187937
0.178146
0.238957
0.00194127
0.00194127
0.00194127
0.022226
0.00194127
-0.0912023
-0.0331299
-0.086475
-0.213025
-0.0699044
0.241409
0.00345934
-0.217521
0.0177583
0.0355166
0.0177583
0.138483
0.0705965
0.0801339
-0.280797
0.0800774
0.0762547
0.0756014
-0.406737
0.0203575
-0.041818
-5.72986e-47
-0.0302593
-0.0549151
0.0197237
-0.164718
0.062109
-1.6308e-171
0.021598
-0.340037
-0.0121311
0.217534
0.0233327
0.23282
0.100165
0.0439108
0.0233195
0.0233195
-0.245108
0.132811
-0.106265
-0.0751587
-0.0494816
0.199036
0.286922
-0.043473
-0.00897626
0.065213
0.0269492
7.38586e-260
7.38586e-260
7.38586e-260
-0.0650564
0.0931294
0.0157959
0.00867521
0.277414
0.0407993
-0.054841
-0.270388
0.0157959
0.0157959
0.0141541
-0.159294
1.24893e-171
-0.492856
1.23516e-322
1.23516e-322
0.0580586
0.0425166
-0.101804
1.23516e-322
-0.00225709
0.137498
-0.12976
-0.0794421
0.253607
-0.333622
-0.0610788
-0.0748685
-0.112611
-0.0576428
0.0418535
0.0309876
-0.0865566
0.0280109
-0.301399
-0.0653811
0.0429926
0.161133
-0.473275
-0.0326905
0.0319985
0.0381459
0.0987059
-0.00178149
0.173049
0.165648
0.119369
0.0844481
0.0891289
-0.120415
0.0101781
0.0171139
-1.63481e-93
-0.0383349
-0.22066
0.0323812
-0.0383349
-0.39237
0.0766569
-0.0172822
-0.0617688
0.128061
-0.0172822
0.317575
0.0605238
0.0762184
0.198269
0.0204912
-0.101744
-0.0484681
-0.0484681
0.0648271
0.0489575
0.206919
0.0985378
-0.0821311
-0.0345323
-0.21711
-0.00279582
-0.121923
0.0863697
-0.652199
0.0838536
-0.0120408
-0.024501
-0.269068
0.0645949
0.0331919
0.0996946
0.00418469
-0.0913751
0.00836937
0.00836937
0.0971231
0.00418469
0.00418469
-0.031039
-0.219659
0.0730358
0.0649539
0.0300982
0.0023549
0.0023549
0.00470979
0.0384093
0.0498301
0.0130207
0.274406
0.0124593
0.0914542
0.22053
0.00902032
-0.212971
0.0174674
0.295407
0.0553363
0.0262121
0.0262121
0.0775963
0.0262121
0.182157
-0.104403
0.0317867
-0.226758
0.0229719
-0.114821
-0.0232056
3.50631e-127
0.155367
0.095037
0.161541
0.0177722
0.178031
0.0297509
0.00317038
-0.0333648
-0.11801
0.0484422
0.170709
-0.0318684
0.162284
-0.0410014
0.0411485
-0.135017
0.149907
0.0568452
0.0501381
-0.0784217
-0.0893067
-0.0524631
-0.0685029
3.85254e-94
3.85254e-94
3.85254e-94
-0.221476
-0.0605795
-0.0675652
-0.012748
0.106664
0.0798486
-0.0515303
0.0381216
0.0909289
1.61989e-47
1.61989e-47
-0.0302044
0.206528
0.0170518
0.0199771
0.0916848
0.055391
0.055391
-0.108672
0.0595428
0.0263004
-0.0692497
0.00717432
0.020064
0.0438631
-0.141328
0.0591738
0.020269
-0.0872402
0.0373698
0.0858206
-0.0238948
0.0571036
-0.106134
0.106626
0.0317516
0.0112854
0.0293639
-0.159783
0.0462342
0.0240074
0.0240074
-0.000517134
0.0512897
0.0422438
0.0356016
-0.0956763
0.347233
0.0228563
0.0228563
-0.00859804
-0.133913
-0.00838677
0.0371861
0.0680122
-0.0652703
0.0390223
0.0205204
-0.0108216
-0.19303
0.0896552
-0.0157175
0.0387421
0.210678
-0.0524135
-0.0373268
-0.108308
-0.0136611
-0.379794
-0.205104
-0.0136611
-0.0737503
0.0364424
0.0984192
0.0520381
0.0520381
0.0155298
0.00974013
0.0603548
0.0629443
-0.139856
0.109985
0.0414831
0.0165926
-0.0583861
-0.0380066
0.0801725
0.0058467
-0.191442
0.0590636
0.328956
0.0581376
0.0420662
0.093637
0.178212
-0.0355973
0.00514284
0.0225455
-1.85126e-206
0.214105
-0.0166581
-0.0859479
-0.381801
-0.0554019
-0.00804551
-0.055104
-0.055104
-0.0498201
0.135764
-0.23657
-0.0850585
0.0821496
-0.154926
-0.0376478
-0.0376478
-0.0367186
0.149666
0.109222
0.137538
-1.16065e-127
0.147088
0.0534074
0.294381
0.112376
0.0691198
0.03378
-0.156121
-0.11893
0.0362665
0.263797
-0.0935326
0.16118
0.00585186
0.0906132
-0.0385947
-0.210108
-0.142708
-0.0227738
-0.000210491
-0.330657
-0.546861
0.181113
-0.0982197
0.0288465
0.0472618
-0.0957801
0.0507676
0.0745553
-0.00973384
-0.0699289
0.00900827
0.00900827
0.245246
0.0423841
0.187241
-0.0204119
0.087003
-0.0267467
-0.190555
-0.037695
-0.0616185
-0.037695
-0.0849211
-0.0434231
0.115715
-0.222376
-0.0348857
0.0233701
0.08899
0.0442906
0.0354725
0.117802
0.131903
0.0442906
-0.0163394
0.157284
0.184453
0.292837
0.00237146
-0.122159
0.01625
-0.258144
0.0861885
0.0947473
0.0334251
0.112106
0.179743
0.422737
-0.0473744
0.0522572
-0.0295736
-0.0759515
-0.0109061
-2.67633e-19
0.0532172
0.0397832
-2.67633e-19
0.078389
0.059806
0.0136911
0.0468344
0.0666308
-4.19042e-207
0.0279143
0.0279143
0.0279143
-0.0111036
-0.0450726
0.0279143
0.0279143
0.0279143
0.0279143
0.0239412
0.0365909
0.0514963
0.0514963
-0.0282817
0.253611
0.0132564
-0.0728165
0.0142274
0.010098
0.112795
-0.224275
0.293245
0.12764
0.022044
0.00834363
0.0436631
0.0205456
0.0270916
-0.0129432
0.0364419
0.000473222
0.0604237
0.107831
0.0442959
0.0253017
0.0253017
0.00696823
0.0268304
-0.0289881
-0.080504
0.1051
0.095137
0.0491105
0.0271964
0.144386
-0.00739503
0.00770622
-0.39238
-0.374866
-0.135626
0.0134002
0.0211733
0.0851576
-0.253976
0.0484476
-0.075746
0.050684
0.184427
-0.206444
-0.205572
0.175678
-0.0417444
-0.232014
0.0464392
-0.229394
0.000633434
0.0128629
-0.00271084
-0.0417488
-0.162434
0.0125131
0.0244627
0.0499321
0.0489254
-0.0194164
-0.053476
-0.053476
-0.194037
0.177416
0.135998
0.0436253
0.0436253
0.0477455
-0.155792
0.147325
-0.114967
0.0358798
0.0740791
-0.131821
-0.131821
0.0363581
0.0363581
0.0363581
0.0363581
-0.0597018
1.68966e-48
0.192304
0.157812
0.00476355
-0.00721935
-0.112058
-0.230018
0.187301
0.00253774
0.00253774
0.00253774
0.153524
0.0295395
0.119552
0.00253774
-0.0499185
0.188489
-0.318026
0.0524734
0.033947
0.0973241
-0.0431668
0.000392295
0.041156
0.169225
0.112912
0.0298119
-0.160324
-0.30852
0.0200892
-0.0154252
-0.0662407
-0.123945
-0.164141
0.0916028
-0.250734
-0.018432
-0.152245
-0.200425
0.144021
0.00868549
-0.00962799
0.122005
-0.0441482
0.000933801
0.0657229
0.0146962
0.0199231
0.0146962
0.0146962
0.0146962
0.0897761
-0.160843
-0.000387788
-0.128649
-0.00563283
0.0484669
-0.0989293
0.0369886
-0.0107597
0.0587746
-0.0655667
0.0154458
0.259804
3.43778e-47
0.157888
0.118651
0.09789
0.170391
-0.0421648
-0.288835
-0.00206731
-0.281247
1.77141e-47
0.0462752
1.77141e-47
0.0162435
0.193521
1.77141e-47
0.0295897
0.123696
0.0462841
-0.0210661
0.0258444
0.301538
0.210794
0.285528
0.00507016
0.000347305
-0.126607
0.0425991
0.0315848
0.220853
0.0301435
0.0453432
0.0978328
-0.046555
0.0964919
0.180264
0.00315934
-0.242566
0.0584859
0.0290737
0.183194
0.00744384
0.0815503
-0.0207449
0.0209123
0.124594
0.07766
-0.173593
0.0326653
-0.0289557
-0.0305399
0.0422764
6.12641e-322
0.387316
0.0497175
0.0440269
0.152522
0.0698642
0.0518967
-0.233228
-0.129248
-0.0991994
-0.129248
-0.129248
0.062861
-5.3568e-93
0.0328085
0.106141
0.224043
0.0994138
0.0677365
0.0312013
-0.115316
-0.00214575
-0.0508186
-0.0367681
-0.108263
0.0115599
-0.00214575
-0.0521272
-0.164286
-0.00589059
0.0164427
-0.130154
0.0164427
0.0794595
0.0328854
0.0748262
0.146623
-0.0371357
0.025668
-0.0532865
0.134469
0.10424
1.67402e-47
1.67402e-47
1.67402e-47
1.67402e-47
0.100404
0.118274
1.67402e-47
0.0275855
0.0247543
0.241364
-0.0843257
-0.0504283
-0.0504283
-0.0268837
-0.0268837
-0.0268837
-0.12533
-0.054465
-0.166987
-0.0756665
-0.0756665
0.123532
0.164139
0.0886556
0.0522619
0.0292833
-0.0494337
0.0292833
0.100983
0.0571317
0.131788
-0.050389
0.0342792
0.0342792
-0.0972396
-0.0335305
0.0949725
0.109906
-0.00733325
-0.158816
0.163848
0.0498199
-0.0255372
0.0163882
0.0458411
0.0409983
0.0244747
0.0244747
0.0244747
0.0244747
-3.80146e-19
0.0607485
-0.0278658
-0.126048
0.0177388
0.135415
0.0770705
0.0997617
1.31883e-19
0.0492161
-0.0769541
-0.220349
0.0761921
-0.169872
0.150027
0.105841
0.113252
0.153761
0.0225293
1.47599e-290
1.47599e-290
-0.040551
-0.00452372
-0.0976135
-0.0711777
-0.0976135
-0.0275358
-0.226626
-0.0716961
-0.0156785
-0.0756625
-0.254595
0.0527995
-0.0389026
-0.00400178
0.0151831
0.0217202
0.0937044
-0.265505
-0.152563
-0.0036653
0.00452425
0.0130235
-0.00728148
-0.000699742
-0.0958099
0.026486
-0.0210102
0.27554
0.0503737
0.00917402
-0.261541
0.121489
-0.108866
0.022243
-0.0973015
0.165574
0.105963
0.120525
-0.168186
0.035378
0.126957
0.0286989
0.155898
0.0252666
0.0164664
0.0814275
0.135005
0.0455882
0.0455882
0.0358873
0.0455882
0.059707
0.199968
-0.0306058
-0.128214
-0.187421
-0.365216
0.150266
-0.0491277
-0.0491277
0.0150002
0.0770254
0.118087
0.0773097
-0.0806575
-0.0702694
-0.0680248
-0.0120348
-0.290333
0.0184916
-0.0199564
-3.63572e-47
-0.0909225
-0.236959
0.204224
0.389349
0.0408531
0.0347078
0.147904
0.0347078
0.000795668
0.155259
0.0971702
0.0873067
-0.296027
-0.0600034
-0.0600034
-0.0190322
0.0488115
0.0488115
-0.102359
0.0296981
-0.0218006
0.0264252
-0.327049
0.0384021
0.0633875
-4.07482e-128
0.0376487
-0.00380949
-0.0186484
0.0662298
-0.0186484
-0.0651008
0.0747129
0.0270003
0.0270003
-0.165503
0.0378642
0.138605
-4.74557e-94
0.0147517
-4.74557e-94
-4.74557e-94
-1.19764e-93
-4.74557e-94
1.82923e-47
0.0600903
-0.00749725
-1.44484e-93
-1.44484e-93
-0.00452475
-0.0595965
-0.0280613
0.0482666
0.228482
0.0635025
0.0449963
0.0262836
0.0262836
0.0471728
0.0956159
0.0328495
0.0328495
0.0328495
0.0328495
0.00300576
0.0328495
-0.0902375
0.0571587
0.0324494
-0.0324772
0.0771546
0.0292032
-0.0499814
-0.0966595
-0.0934697
0.0353227
-0.0770726
0.0598143
0.138628
0.0235833
0.0235833
0.121119
-0.0203008
0.0785643
-0.0787652
-0.0787652
-0.0587649
-0.0604636
-0.0302508
-0.0604636
-0.125387
0.0909248
-0.0375434
-0.0375434
0.0116745
0.177767
0.0194875
-0.00118053
-0.198096
0.00614993
-0.0448326
0.049739
0.049739
0.295301
0.0484917
1.03754e-322
0.18066
0.265795
0.108004
0.0622544
1.03754e-322
0.0403743
0.0157463
0.146218
0.0441521
-0.0576941
0.118186
0.0328528
0.0761829
-0.0266659
0.144252
0.10036
0.0991237
0.000224639
-0.442636
-0.0346569
0.038736
-0.0933789
0.0456297
0.0438225
0.0438225
0.0438225
0.0307413
-0.0056849
0.0307413
-6.99289e-19
-6.99289e-19
0.202602
0.190525
0.0643246
0.304155
-0.0781818
0.546949
-0.108909
0.0174324
-0.0950582
0.0296396
0.112121
0.07089
-0.0666046
-0.043029
0.0172123
0.170395
0.0604126
0.0991112
0.0898606
0.0357787
0.0357787
0.0175369
0.103919
0.0132892
0.0132892
0.0132892
-0.0739837
0.0363743
0.0945283
0.0689452
0.0790509
0.0790836
0.120383
0.122275
0.0516927
0.120375
-0.119543
0.0241446
0.0555572
0.101826
0.252787
-0.028885
-0.0167321
-0.0386543
-0.0320293
-0.263581
-0.189534
0.200661
0.105187
0.108044
-0.0121671
0.214416
0.00657875
0.428319
0.0257258
-0.104642
0.0646065
0.042339
0.0538196
0.00659779
0.0302108
-0.0463152
0.0502313
-0.0787625
0.0170284
0.0267127
0.0170284
0.0170284
0.0170284
0.0170284
0.0170284
0.0340568
0.332042
0.064976
-0.0608353
-0.146769
0.0516175
-0.0608353
-0.0453738
0.0296487
-0.0752258
0.00181518
0.10678
0.033748
0.0353023
0.0353023
0.10147
0.0845362
0.0135477
0.0150172
0.000702306
0.0392345
0.0135477
0.0135477
0.0135477
0.0135477
0.026845
-0.0679147
-0.124016
-0.0463036
0.0423041
-0.324277
0.00902652
-0.0757679
-0.0569189
0.110321
0.225718
0.0290304
0.0594777
-0.0304482
0.117813
-0.0848728
0.157889
0.0194337
-0.0834289
0.22753
-0.259774
-0.337199
0.144304
0.0603545
0.164318
-0.0331351
-0.128543
-0.101545
-0.0922448
0.103693
0.00372424
-0.330133
0.236929
0.223139
0.00372424
0.252347
0.00372424
0.0696303
0.0149198
0.103648
0.0117097
-0.0849847
-0.0853204
-0.125018
-0.0379291
-0.0379291
-0.192606
-0.0942012
0.0400367
0.077168
0.0598225
0.0540666
-0.0650215
0.100604
0.00680899
0.00680899
-0.103133
-0.127988
0.0717635
-0.0853283
0.062091
0.0967694
-0.391198
-0.0764622
0.0513658
0.0280658
-4.0454e-94
0.0376905
-0.182014
0.0926099
-0.0815448
0.0787956
0.040406
-0.0375483
-0.0526632
0.0262575
-0.0793778
-0.25342
-0.210986
-0.0793778
0.377923
-0.00618871
0.00724204
0.0796223
-0.0372648
1.99892e-47
0.244722
0.0456619
-0.0125741
0.0434746
0.0345698
0.00853598
0.00871484
0.00853598
0.162873
0.0145333
-0.402413
-0.0249438
0.0847321
-0.0624792
0.105697
0.015356
-0.00737577
-0.03924
0.0549192
0.0549192
0.0549192
-0.0105706
0.140911
0.0146823
-0.00109316
0.0104022
0.0156762
0.0156762
-1.1418e-93
0.0260432
-0.0620546
-3.35636e-276
-1.21389e-171
0.049681
-0.148829
0.0191677
0.0357582
0.0761587
0.00478069
-0.0521441
0.019686
-0.281323
-0.25727
2.77648e-93
-0.107095
0.0362294
-0.0956611
0.00987491
0.031592
0.00987491
-0.039388
0.00987491
0.00987491
0.0317835
0.0317835
-0.0181271
0.0212008
0.0212008
-0.276073
-0.156237
0.129155
-0.0495244
-0.15009
-0.0495244
0.102815
-0.0401088
-0.0140706
-0.0517183
-0.0401088
-0.0262262
0.137236
0.228333
0.033283
0.167528
0.109259
-0.166805
-0.0920182
-0.0737458
-0.0710723
-0.0710723
-0.170281
-0.0710723
-0.0293467
-0.341475
-0.0567945
-0.281649
0.158769
-0.0856464
0.0381159
-0.0132728
-0.240925
0.0412013
0.0412013
0.0206421
0.0175324
0.246403
0.0433405
0.0132955
0.0506552
0.0506552
-0.138345
0.0180169
-0.148316
-0.15515
0.0262946
0.08984
0.079123
0.0586614
0.0176252
-0.0852836
-0.019471
-0.044824
-0.0116452
-0.0551749
-0.216379
-0.167997
0.00939109
0.171626
0.0760513
0.164507
1.43279e-322
1.43279e-322
1.87846e-47
0.0360544
0.0206564
0.134946
1.43279e-322
-0.564671
-0.0886421
0.0284648
0.070928
0.102024
-0.0578376
0.15327
0.0938342
0.175933
-1.55199e-93
-0.108156
0.0237475
0.0237475
0.0237475
0.00876177
-0.0260944
0.321138
-0.182757
0.0539487
0.0846634
-0.0326615
-0.0326615
-0.0326615
0.0527589
0.0344331
-0.0150858
1.69079e-93
-0.099549
0.111288
0.160371
0.0295315
0.0236974
0.0295315
0.0678585
0.127331
-0.0157642
-0.0390118
0.18965
0.00559858
0.0496869
-0.0509009
0.0353932
0.0998995
-0.0261142
0.0374364
-0.164208
-0.200104
-0.135351
-0.00441864
0.0651615
-0.105386
0.136334
-0.273554
-0.0242168
-0.0364125
0.0011015
0.0363693
-0.0312201
0.305473
0.0011015
0.00684584
0.0011015
-0.0815882
0.0139386
0.0132718
0.0212135
-0.218492
-0.233444
-0.0298403
-0.168082
-0.0583553
0.0487606
-0.029574
-0.122366
-0.029917
-0.101415
-0.00996232
-0.295103
0.0595367
0.0131444
0.0131444
0.0131444
-0.0474952
0.0283093
0.0461594
-0.160741
-0.10635
-0.00924319
-0.131116
0.0620331
-0.111827
-0.0208102
-0.0446811
0.0464389
-0.0661355
-0.0966744
0.0398374
-0.237477
0.103944
0.00013376
0.0892674
-0.104384
-0.104384
-0.196153
-0.0501931
0.0142232
0.0142232
0.0142232
0.0287234
0.0142232
0.0278596
0.0138807
0.0478349
0.0478349
0.227025
-0.0842527
-0.0842527
0.0444149
0.089075
0.0334087
-0.10482
-4.05612e-127
0.0350877
-0.0155318
0.133233
-0.156124
0.0120514
-0.250329
-0.0826815
-0.146274
0.0558604
0.0183812
0.0942536
0.0573686
0.100294
-0.316524
0.0348848
-0.0891523
0.105191
0.0838944
0.0584325
0.0488046
1.14623e-321
-0.0545984
0.0908016
1.14623e-321
0.115883
0.0208997
0.0855413
0.0509436
0.0222375
0.0790557
0.261221
-6.00303e-19
-6.00303e-19
0.103217
0.0456733
0.00781246
-0.0540909
-0.0483957
-0.0483957
-0.0483957
-0.0904281
0.121027
0.0233195
0.0233195
0.00368303
0.00368303
0.00368303
0.0306603
0.279961
0.0885857
0.0816878
0.0145166
-1.46697e-276
-0.0326994
0.00402094
-0.345314
0.0451607
0.0279056
0.230851
-0.0458818
0.0559278
0.024056
0.048112
0.024056
-0.00204064
0.024056
-0.137104
0.0321388
-0.0950956
-0.0346356
-0.0997704
-0.114142
-0.0621583
0.00559397
0.0948207
-0.194966
0.00559397
-0.179524
-0.301444
-0.121592
-0.0352228
0.0277724
0.065555
-0.126314
0.0507076
-0.0413444
-0.128653
0.0143942
-0.0788478
-0.0197546
-0.0525488
0.00496644
-0.061983
0.0622891
-0.00136518
-0.0641593
0.133738
0.133738
0.133738
0.133738
0.0396467
0.0728954
-0.210432
-0.00433026
0.023497
0.0935843
0.157828
-0.0692605
0.0262353
0.0389436
0.152821
-1.77041e-127
-1.77041e-127
0.137768
0.058935
-0.123705
-0.0189915
-0.185621
-0.0654942
-0.112908
0.0244476
-0.00700344
-0.0147089
-0.00700344
0.119921
0.349267
-0.152394
-0.155257
0.00781064
0.0515296
-0.266087
0.154789
-0.120263
0.268577
0.0381001
-0.0435413
0.0533217
-0.0175159
-0.10201
0.000661323
0.0164305
0.0207577
0.0594081
0.0569664
0.132106
0.0569664
0.0569664
0.0569664
-0.0470422
-0.011305
0.0886219
0.145496
0.0235944
0.0458455
-0.0439903
0.101639
-0.030958
-0.0584656
0.0429848
0.0259808
0.067905
0.0259808
0.00728982
-0.0702839
0.0936658
0.02044
0.022131
0.123277
-0.0301878
0.0761381
0.022131
-0.143331
0.0557869
-0.11728
-0.159681
-0.116327
-0.0938381
0.023772
-0.300021
0.0148238
-0.072954
0.058827
0.10228
0.0482074
0.0384636
0.00674234
0.0274598
-0.0931844
0.0705557
0.036242
0.0274598
0.439395
-0.150082
-0.0195167
-0.0499144
-0.0207869
-0.0207869
0.0266253
0.0266253
0.0266253
0.0535286
0.181151
0.143721
0.18655
0.0343121
0.0203441
0.149605
0.109896
-0.0518267
-0.0518267
-0.0518267
-0.205245
-0.0511917
0.0209887
0.0389416
0.0107375
0.100351
0.0979398
-0.0244304
-0.0244304
-0.0244304
0.117115
0.023868
0.0793919
0.0689029
0.0772885
0.0693201
-0.0722849
-0.118214
0.0140879
-0.0810558
-0.0266068
-0.0266068
-0.0135777
0.0820371
0.0309982
0.019916
0.0647128
0.0647128
0.0289317
0.132705
-0.0210851
0.103485
0.0535195
0.0698485
0.0682046
0.261907
0.0353097
0.120683
0.00655403
0.00655403
-0.00911835
-0.236311
0.0188032
0.227659
-0.315234
-0.0702739
0.0235978
-0.0345716
0.107716
-0.183906
0.0354144
0.0354144
0.0108186
0.0108186
-0.152408
-0.103218
0.119906
0.0173262
0.0372882
-0.0837051
-0.253783
-0.374793
-0.0224633
0.266026
0.0458997
-0.0996649
0.33596
0.054303
-0.138316
-0.0572028
-0.16349
-0.107083
0.0298191
0.0212182
0.319547
-0.0532637
0.0700443
0.064508
-0.0317722
-0.0899088
-0.110006
-0.0264695
-0.0671834
-0.0332266
-0.0955426
-0.0203897
0.00635133
0.00635133
-0.00278339
0.0207388
0.0207388
-0.036386
0.056018
-0.00829737
0.0887372
0.082742
0.0876703
-0.0167742
-0.172936
0.0990185
0.0307813
0.0307813
0.0415362
0.0307813
0.0537468
0.0861362
-0.147956
0.133961
0.0265625
0.0359647
-0.0855301
0.0712563
0.0445094
0.0175811
0.0175811
-0.0100105
0.0651289
0.0834937
0.0743739
0.107594
-0.044885
0.0477183
-0.0475714
0.143736
0.0190614
3.22316e-93
3.22316e-93
0.0528844
0.127055
0.0388761
0.00893918
0.18189
0.015193
1.02213e-48
-0.0242874
-0.196259
-0.0108122
0.0301998
0.0422734
0.150433
-0.226408
-0.097482
0.250396
0.0219882
-0.00815094
-0.0787496
0.0497067
0.113393
0.027844
0.0345726
-0.0542047
0.039805
0.0295127
0.0542714
0.0341262
0.0469137
0.0291318
0.0291318
0.201604
-0.0202567
-0.0202567
-0.267246
0.072904
0.049681
0.0211995
0.0394912
0.0795195
0.0694291
0.108652
0.0385865
-0.23024
-0.227033
0.0361613
-0.0110528
-0.249535
0.0263505
-0.122372
-0.024523
-0.0381161
-0.0381161
-0.122989
-0.0733536
-0.0733536
-0.197209
0.109034
-0.177141
0.107893
0.043369
0.0729955
0.0366395
-0.106056
-0.106056
-0.0510551
-0.0504002
-0.106056
-0.0380199
-0.0340364
-0.0340364
-0.197762
0.0476183
0.0133845
-0.0765933
-0.0438782
-0.124445
-0.0312231
-0.0312231
-0.0272801
0.218019
0.0412932
-0.261597
-0.13667
-0.0457789
-0.0457789
-0.160627
-0.0457789
-0.227772
0.109235
-0.146767
0.016463
-0.0148644
0.243611
0.0121694
0.213782
0.0109488
0.0109488
0.0109488
0.0316749
0.0597361
-0.172684
0.0109488
0.198743
0.0789387
0.00766693
0.035902
-0.0978414
0.0466666
-0.0124344
0.0964507
0.288662
-0.102443
0.156222
-1.36564e-236
-2.73128e-236
-2.73128e-236
-1.36564e-236
-1.36564e-236
-1.36564e-236
-0.0287342
0.0100335
0.0101826
0.0126491
0.13162
0.0251531
0.0271506
0.0144525
-0.128618
0.0554351
-0.240176
-0.0436822
-0.0504168
0.115458
-0.116408
0.218244
-0.0740418
0.0348681
-0.0681303
-0.0476994
-0.312051
0.00467577
0.0149781
-0.0436424
0.0970659
-0.113068
0.00467577
0.0289654
-0.0752739
-0.07953
-0.0649335
-0.309704
-0.0736371
-0.107644
-0.0357943
0.00698238
0.0324827
0.0764736
0.153671
0.16755
-0.100709
-0.00259191
0.110219
0.074969
0.0417347
0.22196
0.122419
0.0264623
0.0359362
0.0263158
-0.100866
0.0263158
0.0263158
0.0495061
-0.0214871
-0.0521241
0.0774319
0.11056
0.112978
0.0632339
0.0632339
0.0632339
0.0632339
0.0613129
0.0391418
0.0524175
0.0596729
-0.0931953
0.0311818
0.00564617
0.00564617
0.0468109
-0.184528
0.0511543
-0.350075
0.0475815
0.0333532
0.0333532
0.0667063
0.0333532
0.0333532
-0.0563432
0.13941
0.0865521
0.0780029
-0.184916
-0.0546498
0.111184
0.198165
-0.144832
0.0234441
0.0234441
0.0234441
-0.104575
0.0377888
0.0491047
0.0559006
0.0459201
0.0769802
-0.0935863
-0.163864
-0.0251848
-0.0231568
0.160551
0.12822
0.155231
0.0815336
-0.383571
-0.115892
-0.141605
-0.0770321
-0.307091
-0.0540055
0.0691109
-0.286009
-0.130127
0.121156
-0.112873
0.0857205
-0.0984793
0.0343968
0.116452
0.024407
-0.054991
-0.179212
-5.20716e-48
0.221464
0.0291411
0.0291411
0.0291411
0.0291411
0.0291411
-0.0151816
-0.0292159
-0.0120826
0.0168765
-0.0292159
0.0117408
0.0569071
0.19056
0.0331081
-0.0572117
2.66571e-48
0.127506
0.0708624
0.0620968
-0.174819
0.033138
0.05402
0.012779
0.0571989
0.012779
0.0943871
0.0402394
0.141149
0.106397
-0.0712893
-0.0345512
-0.0896521
-0.0614592
-0.0369022
-0.0818007
-0.0274877
-0.0274877
-5.08378e-171
-2.54189e-171
0.0460428
0.0597207
0.0322488
0.0372369
-0.120657
0.385424
0.010025
0.0432783
-0.00756633
0.010025
0.010025
0.00355365
0.103483
0.117536
0.105729
0.0356098
0.0595548
0.0327724
0.0950071
0.120935
0.183847
0.0578361
0.0578361
0.139377
0.0578361
0.0315444
-0.0495245
-0.0395394
0.132143
0.0847037
0.0844234
0.0429742
0.0744255
0.0997323
-0.200089
-2.68211e-20
-1.21981e-227
-1.21981e-227
0.0625519
-1.21981e-227
0.0430032
-0.0232404
0.0346835
0.0241726
0.0380582
0.0512395
0.0241726
-0.0639424
-0.0283595
0.164855
0.151678
0.102818
0.0729007
0.00927976
0.148905
-0.193436
0.15501
0.0621108
0.0450899
0.0450899
0.227398
-0.0637281
-3.41337e-236
0.0678602
-0.122582
-0.0115497
0.0482519
-0.0390958
0.133609
2.07023e-47
0.00734116
-4.34797e-172
0.127091
-0.0367371
-0.0106294
-0.0962605
-0.0367371
-0.0319216
-0.0367371
-0.0367371
-0.0367371
0.107847
-0.178103
-0.157952
-0.292519
0.00381451
-0.0443273
-0.237547
0.0897183
0.0083856
0.146978
0.0179821
-0.0373841
-0.0373841
0.0218352
0.0393111
0.0393111
0.0393111
0.171786
-0.296067
-0.211566
0.0733371
0.00285563
0.191244
0.00386996
0.0485464
-0.229513
0.107267
0.107267
0.0395145
0.0328479
0.0755513
0.0247748
0.0541464
0.015801
0.0247748
0.0724055
0.0725032
0.0204899
-0.120943
0.027554
-0.0323065
-0.0602155
0.0316387
0.177105
0.0150422
0.0346623
0.127111
-0.170157
-0.0568214
0.0706721
-0.0583971
-0.0589185
-0.0731585
0.300507
0.170834
0.0373193
0.00607051
0.0125473
0.0780174
0.0738986
0.0199751
0.0199751
-0.0572574
-0.10152
-0.0319383
-0.347549
0.0359153
0.0359153
0.0823931
0.00581293
0.15912
8.74496e-322
0.0254909
-0.00478027
0.0149728
0.0149728
0.0149728
0.0149728
0.0470533
0.0149728
0.0149728
0.0149728
-0.246357
0.0149728
-0.115488
-0.153936
-0.11311
-0.300955
0.0203614
0.0203614
0.0085371
0.0113063
-0.0140802
-0.000530795
0.0113063
-0.0402182
0.00138223
0.00138223
-0.0170597
0.00138223
-0.0677297
0.145879
-0.0337137
-0.0374817
1.53467e-48
1.53467e-48
1.53467e-48
-0.0443254
1.53467e-48
1.53467e-48
-0.0374817
0.0951132
0.0828382
0.0363592
1.53467e-48
0.0161833
1.53467e-48
1.53467e-48
1.53467e-48
-0.351049
0.00672076
-0.107628
-0.0990836
-0.0123749
0.0296585
0.0296585
-0.00488246
0.00876424
-0.0775261
0.0629719
0.00234129
0.0544488
0.109265
0.074518
0.00480067
0.0347822
-0.0409731
0.0304967
-0.0423302
-0.166885
0.0696637
0.0113595
-0.114944
0.0831915
0.0744989
0.00368201
0.0286142
0.0268085
-0.0291675
-0.00683961
-2.20174e-127
0.0723752
0.0909627
-0.108456
0.0367732
-0.00360696
-0.0278379
-0.0278379
-0.0652209
0.0377898
0.0860942
-0.161628
-0.126835
0.0491611
-0.62649
0.0428476
0.0904831
0.0240025
0.0317579
0.0252361
0.0171399
-0.169754
-0.0868861
-0.0940404
-0.00258119
-0.117377
0.0273254
-0.0514122
-0.0349377
0.0293394
0.0142537
0.0827116
-0.0984814
-0.0379625
-0.0379625
-0.0185948
0.0112901
0.00695416
-0.0379625
-0.0379625
-0.00693115
0.0615973
-0.0467131
-0.0981938
0.00860708
0.032338
-0.00312143
0.00860708
0.00860708
0.00860708
0.0217192
0.205106
-0.175583
0.0151963
0.056756
0.432663
0.0242938
-2.54042e-128
-2.54042e-128
-2.54042e-128
0.0421226
0.0468998
-0.0469472
0.0903195
0.0426735
-0.150836
0.042304
0.0308149
0.0482654
0.0614532
0.0504895
0.129829
-0.129026
0.0504895
0.0202396
-0.0159039
0.0559478
5.40922e-261
-0.0434355
0.0455695
0.0656768
0.101805
0.070995
0.0299383
-0.00574306
0.029245
-0.110202
0.111544
-0.0343135
7.03616e-87
0.0740533
0.00593971
-0.0577969
0.0300669
0.0300669
-7.64964e-128
0.149759
0.261073
-0.133249
1.7622e-19
-0.440719
0.0289374
-0.0925822
-0.0331747
-0.00380012
-0.0285468
-2.96434e-93
0.263688
0.149343
0.0581125
-0.11438
-0.254147
0.00625612
0.00625612
0.111158
0.0399633
0.0557042
0.041204
-0.186103
0.170311
0.189584
0.0365524
-0.0782462
-0.0287905
-0.0348631
-0.0905053
-0.00944186
-0.0357755
0.13288
0.0438833
-0.0369751
0.0159384
-0.0500619
-0.107372
0.0317449
0.120595
0.060028
-0.104259
0.0421347
-0.0965899
0.0525422
-0.0511252
0.0525558
0.0793669
0.0229719
0.0273539
0.0273539
-0.039751
-0.100399
-0.0181112
-0.0188462
0.335526
0.170181
0.040072
0.0833637
-0.026713
0.0741559
-0.217646
-0.220682
0.0892906
0.116482
-0.347658
0.0471035
0.0471035
0.0113526
0.0192878
0.113764
-0.112128
0.0365685
-1.4823e-171
0.0352006
0.032381
-1.4823e-171
-1.4823e-171
0.0346194
0.0884239
-0.0355401
-0.180732
0.0443752
-0.0355401
-0.168497
0.149577
-0.0189643
-0.0189643
0.0623185
-0.0127802
0.246866
-6.32404e-322
0.0557104
-0.170526
-0.450877
0.20758
0.0260187
0.0643324
0.044899
0.044899
-0.0164602
-0.0130181
-0.00341976
-0.0242819
-0.0263205
0.00408061
-0.443786
0.0988831
-0.234511
0.0384297
0.0384297
0.0191004
-0.0685529
-0.0409923
0.0242878
0.0433219
0.0128129
0.0128129
0.0368432
0.0314862
0.0314862
0.152034
-0.118426
0.0435624
0.0435624
0.0548485
0.0419935
0.0815817
-0.0941873
-0.0715987
0.10918
-0.0456562
0.00766497
0.123479
0.082816
0.0631831
0.129161
0.045027
0.0614088
0.0614088
0.0614088
0.0293006
0.0293006
0.0293006
0.0293006
0.0293006
0.0355718
0.0355718
0.0355718
0.00500822
7.27309e-128
7.27309e-128
-0.177363
-0.00883052
0.000763902
0.132223
-0.0632815
-4.40771e-127
-0.12055
-0.121672
0.0337731
-0.127371
-0.0359749
-0.109769
-5.82997e-322
0.101693
0.078213
-0.0587223
0.0102443
-0.0113387
0.0979668
0.0495943
0.0247972
0.169603
-0.170182
0.0284195
0.0284195
0.0284195
0.0351054
-0.0414908
-0.0299018
-0.0399476
0.0770402
0.104985
0.0669866
0.0283586
0.13623
-0.00453059
0.0179542
0.0786667
0.100731
-0.0608456
0.0295983
0.04586
0.0144629
0.0144629
0.0144629
0.120018
0.029738
-0.0520762
0.164523
-0.218365
0.0451338
0.0376435
0.0376435
0.0218883
0.0218883
0.0218883
-0.0101016
0.240748
-0.115775
0.0105477
-0.013859
-0.143783
0.11105
0.0487569
0.0239157
0.157174
-0.3555
0.136972
-0.0213883
0.0180014
-0.0699857
0.0374074
-0.234242
-0.0045349
-0.0460782
-0.039507
0.0104597
0.0234574
0.0628616
0.129568
0.0259961
0.0259961
0.0259961
0.0808578
-3.07179e-94
0.0722659
0.0689123
0.0445945
0.0855957
0.0675094
-0.0272084
0.0407521
0.0765187
0.0266139
-0.0177209
0.0431207
-0.0174394
0.0284085
0.0284085
0.0284085
0.0284085
0.0284085
0.0284085
0.141189
0.108555
0.0700475
0.11201
0.0806636
0.0821594
0.00879105
-2.9424e-93
0.0121733
0.11639
-0.22717
0.0392553
-0.0138114
1.33104e-47
-0.192254
-0.113521
0.0778189
0.152362
0.100082
0.0453919
0.0389095
0.0170393
-0.0241377
0.106454
-4.72996e-94
0.0125615
0.262872
-0.116833
0.0351932
0.01312
0.0188335
-0.0473914
-0.00123757
-0.0563902
0.0223833
0.107383
-0.0970279
0.0803095
0.0188435
-0.0989446
-0.0616378
-0.0513244
-0.169737
-0.0671554
-0.126276
0.0425242
-0.0261295
-0.0996504
-0.176724
0.0787486
0.115021
0.124187
0.0232717
0.0534371
0.0746787
-0.0251105
-0.0366234
-0.0885127
-0.284296
-0.012961
0.0526413
-0.119241
0.0177021
-0.00913654
-0.00913654
-0.00913654
-0.00705232
0.0594161
-0.110643
-0.420971
0.00615696
0.0410331
0.0410331
0.0410331
0.146406
0.0410331
0.0594789
-0.265849
-0.0847222
0.115021
0.0575104
-0.0885986
0.00613977
8.34971e-322
0.174287
-0.0315795
0.104556
0.00969125
0.00969125
0.0389074
-0.0465503
0.0188544
-0.013859
-0.0919379
-0.013859
-0.013859
-0.0814427
0.00856937
0.00408836
-0.237791
-0.0164015
-0.0487759
0.146332
-0.28096
-0.0236313
-0.0346135
2.25528e-47
-0.119434
0.0868692
2.25528e-47
2.25528e-47
0.00706136
0.0465774
0.145763
0.0126045
-0.0422459
0.0126045
0.0126045
0.020199
0.105142
-0.16226
-0.119023
-0.119023
-0.0504041
-0.0221596
0.10272
-0.0401334
-0.0553061
-0.0537117
-0.191048
8.47509e-94
0.0222423
0.0222423
0.0418434
0.0377906
0.0229584
0.0244807
0.133995
0.00681947
0.0387302
0.0467327
-0.364563
0.0279033
-0.0816637
-0.0488715
-0.0488715
-0.220666
-0.0473977
0.0603306
-0.0185358
-0.0185358
-0.0185358
-0.0185358
-0.0063347
-0.0185358
-0.0185358
0.0410297
0.0410297
0.215885
0.140361
0.0410297
0.145
0.0384934
0.00633294
-0.122328
-0.095959
0.226996
0.0962168
-0.074262
0.019536
-0.0477851
-0.0151002
-0.243387
0.0222182
0.0863042
-0.09434
0.0282072
0.0470091
0.0487017
0.029639
0.00802357
0.0251888
0.0425701
0.0543451
-0.00855611
-0.0286885
-0.0721793
0.0308497
0.0646276
0.031421
-0.188062
-0.0427673
-0.0666871
-0.0427673
-0.0427673
-0.00945762
-0.0197193
0.000931762
0.0205193
-0.0517973
-0.0423311
-0.0131823
0.0676444
0.114986
0.088315
0.0777109
0.0527261
0.0332044
0.127277
-0.300376
0.0461915
0.0174811
0.124342
0.0985668
-0.134586
0.191451
0.0282509
0.141686
0.0485874
0.0459491
-0.067967
-0.0937617
-0.0802113
0.0646479
0.0928642
-7.68115e-172
0.0215308
0.0442813
0.0534028
0.0416253
0.0674549
0.0416253
0.0166617
0.106698
-0.0470865
-0.042636
-0.0129353
0.00823946
0.0164789
0.0328736
0.00823946
0.00823946
0.00823946
0.0605851
-0.00578065
-0.129694
0.0791542
0.0428697
-0.0171725
0.00841007
0.180769
-0.0214592
0.163109
-0.122985
-1.2517e-127
-1.2517e-127
7.47787e-46
-1.2517e-127
0.0830344
-1.2517e-127
-0.136522
-0.111744
0.0235197
-0.031869
-0.112686
-0.031869
-0.031869
-0.031869
-0.031869
-0.031869
-0.031869
-0.031869
-0.031869
0.0354101
-0.109495
0.0226582
0.0226582
-0.0417821
-0.0365601
-0.0365601
0.017126
0.0468099
0.0347601
0.166807
-0.174842
0.0435065
-0.0313939
0.135402
0.0524605
0.0348236
-0.0423912
0.0269444
0.050329
0.0681999
0.0824846
-0.0681162
-0.038251
0.142511
0.0142164
0.0142164
0.0142164
-0.0994001
-0.104829
-0.263665
-0.12116
0.209403
0.149348
-0.0368595
-0.214243
0.023491
-0.0705749
0.00767257
0.134401
0.0227049
0.00502684
0.0655165
0.0231123
-0.0164879
-0.238092
-0.0329758
-0.0548413
-0.0892449
0.121197
-0.0180035
0.0411912
-0.0365371
0.0918893
0.0848713
3.56211e-128
-0.0466681
-0.0574365
-0.0402988
-0.14519
0.0629022
0.0358369
0.329621
0.0900387
-0.0347578
0.0144503
0.140817
0.0496871
-0.0435566
-0.0435566
-0.116537
0.0984298
0.0417478
0.0189997
-0.242725
-0.184114
-0.0911296
0.0179244
0.0241262
0.0241262
0.0370481
0.0241262
0.0241262
0.0241262
0.0515162
-0.216239
0.00384834
-1.25279e-54
-1.25279e-54
0.0440736
-0.00187139
0.0345035
0.0582108
-0.0846509
-0.0846509
-0.127499
0.0188395
0.0497317
0.0264623
-0.0608832
-0.152759
-0.0625415
-0.0813476
-0.0278537
-0.0278537
-0.0346823
0.0391677
-0.202546
0.0119287
0.0785123
-0.115295
-0.0890112
-0.0166412
-0.0166412
-0.0166412
0.0181426
0.0181426
0.128267
0.0181426
0.0181426
3.39533e-48
0.12685
-0.0726668
0.075779
-0.0346551
0.0459312
0.104478
0.0602107
-0.0965724
0.000627545
-0.0757256
0.0443033
-0.0109278
-0.155956
-0.0329897
-0.19967
0.286354
0.0410107
0.100647
-0.0979359
-0.0968412
-0.0968412
-0.180499
-0.0843099
0.0324232
0.074116
0.0145027
0.0438537
0.257054
0.0145027
0.0406997
-0.0214918
-0.120707
0.0729395
-0.0486562
-0.0809553
-0.0965438
-0.157585
-0.0822856
-0.0402448
-0.0161067
-0.0341078
-0.134475
-0.0627106
-0.0420926
-0.0223949
-0.0614464
-0.156594
0.0205826
0.161326
-0.234259
-0.00163911
-0.032429
0.0156594
-0.0414694
0.0400759
-0.286544
0.0122105
0.0663484
0.0516482
0.0237611
0.0155317
0.251293
0.0295633
0.0295633
-0.027877
0.0295633
0.0295633
-0.107986
0.178388
-0.0718479
-0.0911993
0.0973506
-0.178421
-0.164909
-0.0456765
-0.00804485
0.0995812
0.0131676
0.0243925
0.0243925
-0.312864
-0.0445879
0.0834921
0.0893229
0.0814391
0.0437181
0.0736032
-2.70593e-171
0.0538746
0.177874
-0.0847986
0.00338251
-0.0121261
0.0362472
0.0617468
0.111787
-0.0545795
-0.16386
0.0317027
0.0835931
0.0317027
-0.0623979
-0.13244
-0.303806
-0.0490873
-0.109751
-0.00602325
0.00117699
0.00569392
0.0949364
0.0538409
0.0949364
1.72923e-321
0.0460175
0.0435259
-0.143737
0.0479754
-0.0566137
-0.161399
-0.183201
0.0315097
0.0282507
0.0282507
0.0378729
0.0569514
0.0282507
0.0238284
-0.101502
-2.28522e-237
-2.28522e-237
-2.28522e-237
0.0354647
0.00860077
-0.0910849
2.30686e-19
-0.0481886
-0.0521761
-0.0521761
-0.347672
0.0128707
0.0202828
0.036857
0.0202828
0.188443
-0.0819682
-0.00720939
-0.129752
-0.129752
0.154223
-0.0511993
-0.160371
0.0346261
0.0158182
0.0173131
0.0595625
0.00758101
0.0707723
-0.129009
0.00758101
-0.127634
-4.81922e-93
-0.0354931
0.0458574
0.101588
-0.0397608
-0.0199813
-0.0199813
-0.174226
0.00674085
-0.0329242
-0.153916
0.0777214
0.0144042
-0.0210077
0.0156367
0.00711644
-0.0548543
-0.0563821
-0.228671
0.0414813
0.0215513
0.0688063
-0.0766579
-0.0766579
-0.0766579
-0.0534833
-0.0948313
-0.114842
0.141278
-0.222569
-0.000194275
-0.0895651
-0.0299871
-0.0487794
-0.0117386
0.00389766
0.00389766
-0.0372521
-0.0233375
0.0715132
-0.119621
0.0275805
0.0686254
0.0745501
0.0183024
0.0377429
0.0183024
0.000257106
0.0183024
0.0312444
0.0312444
0.0411662
0.0877209
0.0986297
0.0423254
0.0423254
0.0423254
0.0259928
0.0423254
0.0613726
0.0613726
-0.0516617
0.0125343
0.0442163
-0.126881
-0.276034
0.0989235
0.101044
0.0918893
0.105796
0.0156734
0.0156734
0.0174199
-0.0293233
0.236553
-0.0130686
0.0498778
0.0182277
-0.0121527
0.111626
0.228039
0.145347
-0.0608498
0.0355953
0.0355953
0.0573809
0.123098
-0.0936066
-0.193875
0.200128
0.276589
0.0254378
-0.0747974
0.0233887
-0.119542
-0.0959192
3.35737e-47
3.35737e-47
3.35737e-47
3.35737e-47
-0.0679102
0.0146387
0.00522161
0.00522161
0.0870353
0.00522161
0.281844
0.00522161
0.0799989
0.222194
-3.70595e-19
0.120717
-3.70595e-19
-3.70595e-19
-3.70595e-19
0.0246807
0.0477981
-3.70595e-19
-3.70595e-19
-0.0410558
0.0439404
-0.0575246
-0.20098
-0.0575246
-0.114678
-0.0575246
-0.516332
-0.120344
-0.0303564
-0.0901657
0.222067
0.0874901
0.0199012
-0.0993821
0.0237646
-0.0159222
0.0603991
0.0111632
0.0192819
0.0192819
0.0192819
0.0192819
0.0383704
-0.0106083
-0.0460121
-0.0946732
-0.0946732
-0.0946732
-0.161008
-0.0946732
0.129947
-5.09187e-93
-0.248952
0.0793115
0.15877
0.0581624
0.0753609
0.0414193
0.0315942
-0.015101
-0.0236759
0.00448808
-0.0660099
-0.243961
0.0523668
0.0523668
0.0523668
0.0246106
-0.1123
0.0902653
0.0498778
0.0239334
0.0837279
-0.0848463
0.0760565
0.0944649
-0.197038
-0.17909
-0.106474
-0.155767
0.0508159
0.0315393
-0.0285119
-0.159239
-0.0638251
0.198288
0.0510992
0.15875
0.0968303
-0.127838
0.132321
0.175354
0.0120673
0.0190862
0.0184588
0.0184588
0.0184588
-0.0074889
0.284576
6.99144e-48
-0.0849643
0.0540773
-0.0503769
0.00147564
0.114809
0.0750114
1.48781e-47
-0.0168879
1.48781e-47
-1.48346e-172
0.0356808
-1.48346e-172
0.03406
-0.164381
0.105786
0.0193023
0.0322184
0.0887053
0.0813193
-0.240934
-0.0551291
0.0264623
0.0986829
-0.00547255
-0.068166
0.186781
-0.0735708
7.49048e-128
0.105345
0.0911332
-5.54889e-19
-0.119247
-0.032908
0.0415755
0.260565
-0.0354127
0.0504872
0.0162549
0.111679
-0.00525591
-0.0165117
-0.0398179
0.0779812
-0.038601
-0.0031821
0.17342
-0.00189451
0.0319147
0.00579527
0.00579527
0.0454411
0.040826
0.0338856
0.0338856
-0.0745583
0.0292103
0.0543086
-0.0184671
-0.120085
-0.019846
0.0170663
0.133311
-0.0470022
0.173755
-0.0397424
0.0188585
-0.0362438
-0.0437189
-0.156945
-0.115827
-0.459382
0.0193583
0.0193583
-0.0505172
-0.0317868
-0.0309614
0.0543031
0.0833395
-0.0384396
0.0494174
-0.0186165
0.0312048
0.0701506
0.0312048
-0.00329868
-0.0482901
-0.0428705
-0.0249784
-0.0249784
-0.0249784
-0.00858194
-0.0290092
-0.0290092
-0.0326631
0.043517
0.0102117
0.0102117
0.0549683
0.0387865
0.0981003
-0.0322793
-0.0557174
-0.0745224
-0.00639387
0.195565
0.0208652
0.0208652
0.0208652
0.1219
0.0341667
0.0208652
-0.0319161
0.057821
-0.00338504
-0.165854
-0.285256
0.0425991
0.0363142
-0.00371284
0.010808
0.0639662
0.0154079
0.00901519
0.00501485
-0.0389681
0.00624659
-0.0156833
-0.00478514
-0.110936
-0.0488262
-0.0445349
0.0924519
0.0852633
0.0344194
-0.0314089
-0.0202143
0.0136334
-0.109025
-0.0960039
-0.0202143
0.0114023
0.0854497
0.0302507
-0.107556
0.0525412
-0.055417
-0.0585605
0.0432214
0.0439495
-0.0390365
-1.71561e-93
0.0275489
0.0275489
0.102153
-0.115779
-0.0503622
-0.124141
0.00823005
-0.182311
0.0697047
-0.195248
-0.0104664
-0.0236809
0.150062
0.0828755
0.114332
0.15968
0.013302
0.12628
-0.00273557
0.0248336
-0.425816
0.128042
0.142497
0.124726
-0.0398219
-0.0372388
0.0802688
-0.043062
0.0133597
0.0133597
0.126181
-0.0353346
-0.184033
-0.0537074
0.027507
0.0371264
0.053667
0.166217
0.0836849
-0.317684
-0.0408389
-0.125701
-0.0111658
-3.19282e-93
0.208743
-3.19282e-93
-0.0505461
-0.0674073
-2.39152e-276
0.000489369
0.0630048
0.108328
0.0228837
-0.16084
-0.106229
0.0838046
0.0395362
0.0395362
0.0395362
0.0421551
-0.0457483
-0.158964
0.09687
-0.187752
0.053786
0.0258726
0.0122359
0.145444
0.0880922
-0.010263
-0.12429
0.0421551
0.0657304
0.0327766
-0.0253417
-0.0346575
-0.0346575
-0.0346575
0.0255993
-0.0487349
0.196353
0.0205507
0.0657591
-0.0960529
3.42433e-99
0.0390307
0.0260382
0.0260382
-0.0391407
0.0260382
0.0527696
-0.211482
0.0273299
0.00991255
0.00991255
0.0497154
0.00991255
0.00991255
0.0614541
0.028227
0.0174698
0.121665
0.0772366
0.0313737
0.0606725
0.0606725
-4.51288e-236
-0.016614
0.00717665
-4.51288e-236
-4.51288e-236
0.247364
0.138302
-5.82997e-322
0.0646852
0.0692678
0.0428701
0.0428701
-0.0968437
2.65653e-47
-0.181997
0.154093
0.0185389
-0.288632
-0.0355676
0.0224168
0.0896743
0.0224168
-0.0584791
0.0304288
0.0304288
0.00318422
0.00318422
0.00318422
0.0722353
0.0138942
0.0586572
0.0715896
0.100157
0.00842808
0.00502477
-2.23763e-93
0.0517178
0.103112
0.0103637
0.0103637
0.00739162
-0.0434091
0.00739162
0.00739162
0.0273628
-0.0190964
-0.0928201
0.0947536
0.0444199
0.0444199
-0.218411
-0.00143348
-0.0110305
0.067895
0.0896219
0.0342077
0.0342077
0.0342077
0.00532025
-0.0876547
0.0143553
-2.18846e-171
-2.18846e-171
-2.18846e-171
0.0854845
0.0207634
0.0286542
0.0348196
0.0462044
-0.0444439
0.0322522
0.0952717
0.0441001
-0.0116756
0.038043
0.0912386
-0.0870031
-0.0504029
-0.0504029
-0.0504029
-0.115279
0.026182
0.153147
0.0212105
0.0270302
0.0270302
-0.0119252
0.0592178
0.078711
0.0317857
-0.225999
-0.0100601
0.0592818
-0.0272347
-0.141785
-0.0498205
0.039127
-0.163904
-0.150002
-0.156534
0.0406707
3.14891e-177
0.0371047
3.14891e-177
0.0100628
-0.044813
0.0265606
0.0828836
0.0669119
0.115322
0.0524351
0.0730449
-0.0104566
0.0576346
-0.28399
-0.0802042
0.0141794
0.0141794
0.0141794
0.0215015
0.070081
0.0501604
-0.038272
-0.038272
-1.2954e-93
0.0711724
0.0315499
-2.07995e-207
-2.07995e-207
0.0805352
-0.163918
0.0972159
0.0185607
0.0878839
-0.009514
0.121494
0.0356337
0.0330829
-0.0300663
-0.0369058
-0.166299
-0.0369058
-0.0608559
0.00500505
0.0767541
0.00499256
0.0567874
0.117353
-0.0861433
0.0708741
0.0240008
-0.0680043
-0.213915
-0.0892312
-0.0244751
0.159553
0.0355839
-0.00730662
0.0355839
0.0355839
-0.107298
-0.0503703
-1.8212e-171
-0.0457625
0.219491
-0.135949
-0.0524719
-0.00490609
-0.0524719
0.0170758
0.0253236
0.0991768
0.0349068
-0.317894
-0.0523316
-0.0419075
0.118603
-0.0419075
-0.0714806
-0.411862
0.00788711
0.0912737
-0.0347974
0.017791
0.040521
0.0248658
0.0520358
0.043117
0.0275687
0.129481
0.0120896
0.0244893
-0.031367
0.329415
0.093247
0.100387
0.0771652
0.00657387
0.0825081
-0.0453839
-0.13394
-0.0808278
-0.0808278
-0.0521154
-0.0808278
0.269448
0.0241145
0.0639714
0.0727698
-0.0939657
-0.159494
-0.0864328
0.00332473
0.00332473
0.083413
0.00332473
-0.0456389
-0.0500104
0.152855
0.0272617
0.0272617
0.0495951
-0.0399395
-0.0443978
9.63428e-322
-0.0410041
0.0281866
0.0540991
0.0356276
9.63428e-322
-0.00649437
-0.0951701
-0.229329
-0.319291
0.0734448
0.091058
-0.169768
-0.0819138
0.000278245
-0.177015
-0.0642906
-0.0293194
-0.104126
0.0362929
0.0244931
0.0793382
-0.0191691
0.0463556
0.0398665
0.0341579
0.0244931
0.0244931
0.0762459
0.0762459
0.0608439
0.0353344
0.168759
0.131915
0.0336466
-0.146269
-0.0893671
-0.021593
0.126247
-0.214377
0.0100956
-0.0887804
-0.164237
0.0554005
0.05038
-6.91692e-323
-0.09692
-0.0492047
-0.146357
-0.146357
0.11836
0.262615
-0.0455689
0.0849747
-0.0524705
-0.075702
-0.279362
0.0966783
0.0271072
-7.46039e-322
-7.46039e-322
0.235308
-7.46039e-322
-7.46039e-322
-0.0565846
-7.46039e-322
-7.46039e-322
-0.00920584
-0.190701
-0.14323
-0.0415049
0.0730979
0.085045
0.0730979
-0.272795
0.00521003
-0.101819
-0.0300436
0.0168942
0.322872
0.0168942
-1.16695e-127
0.0307301
-0.00533895
0.166826
-0.237003
-0.0515897
-0.0515897
-0.0462543
-0.0544181
-0.0553146
0.198346
-0.0519913
-0.0520673
-0.0520673
-0.202532
0.0243157
-0.102617
-0.0968294
-0.047722
-0.297233
-0.00514495
-0.03935
0.0395838
-0.0383454
0.0155748
0.0204576
0.0530585
-1.73567e-236
-0.0174182
0.0267352
0.0765416
-0.0785711
0.0410804
0.113475
0.0701571
0.198545
0.0915591
0.0915591
0.0915591
-0.0973698
0.115076
0.0248098
0.0121413
-0.0050051
-0.054235
-0.0280853
0.0248098
-0.0661631
-0.160893
0.149642
0.0641242
-0.0889976
-0.171788
-0.146243
0.0940143
0.0849324
0.041715
-0.0548259
0.0123747
0.0798069
0.0361141
-0.158672
0.0376231
0.0615338
0.0443497
-0.019551
0.0561515
0.153578
-0.0726186
0.0362754
-0.00612472
3.97495e-276
3.97495e-276
4.89125e-322
0.000781156
-0.148254
-0.0172772
-0.0262439
0.0174886
-0.0262439
-0.0262439
0.108857
-0.0262439
-0.0262439
0.00719562
0.0843923
0.0302737
-4.57424e-94
-0.0360436
0.3252
0.016758
0.016758
0.016758
0.0250225
-0.167581
0.127755
-0.140638
-0.114033
-0.0524477
-0.0682632
-0.0524159
-4.46385e-171
-4.46385e-171
-4.46385e-171
0.141226
-0.010117
-0.0502774
0.0156767
0.0156767
0.0156767
0.0484328
0.0100228
0.00925167
0.00925167
0.0240596
0.0376587
-0.0257852
-0.0837508
-0.011488
-0.016003
0.0189799
0.12508
0.0136793
0.00544793
-0.0360019
0.00544793
0.00544793
0.0642071
0.00544793
-0.000396385
0.0281701
-0.0458041
-0.0643836
-0.0799731
-0.138888
0.0189364
0.0189364
0.0548004
0.0796019
0.0796019
0.0796019
0.138308
0.0163824
0.0507855
0.0507855
0.0328241
0.00735141
0.0169328
0.0169328
0.00522947
0.0169328
0.043456
0.0505482
0.0167069
0.0518953
-0.0691009
-0.178703
0.046294
-0.292403
-0.183885
-0.0219313
0.0285581
0.00568542
-0.00948849
-0.046547
-0.138313
0.0440811
0.0875252
0.00437904
-0.108276
-0.0312778
-0.0346462
0.0531445
-0.0312778
0.130704
-0.0411316
-0.044193
-0.0901524
-0.117966
-0.0911954
0.0404632
0.0404632
0.0161269
0.0161269
0.0161269
-0.000672236
0.0214519
0.2341
0.00221235
0.128138
0.00785859
0.00785859
0.00785859
0.00785859
0.310235
-0.0111081
-0.0111081
-0.219067
4.18495e-138
4.18495e-138
0.0944171
4.18495e-138
-0.0237476
0.0295208
0.0245038
0.0184011
0.0361319
0.111286
0.00742192
-0.0492575
0.000675596
-0.0984297
-0.0739839
0.00331975
0.00331975
0.00331975
0.0749114
0.0266774
-0.0341669
-0.326115
-0.101979
-0.150679
-0.0290486
-0.0647682
-0.0400095
-0.0647682
0.009136
-0.100082
-0.0398716
-0.0398716
0.0565376
0.00562344
0.0642577
-0.0848794
-0.0755514
-0.0741637
-0.0741637
-0.182552
-0.0290052
-0.0290052
-0.0543742
-0.0290052
-0.0290052
-0.0184048
0.0287576
0.0661028
0.0140652
0.0133647
-0.0610644
-0.00303358
-0.117778
-0.0186089
0.0310916
0.0635891
8.92494e-48
0.060392
8.92494e-48
0.0386955
-0.00338767
-0.125659
-0.00247751
0.113133
-0.0509622
-0.386495
-0.0509622
-0.00843174
0.00286995
-1.34672e-47
-1.34672e-47
-1.34672e-47
-1.34672e-47
-1.34672e-47
-1.34672e-47
-0.224651
-1.34672e-47
-0.0150843
-1.34672e-47
-1.34672e-47
0.030017
0.212097
0.030017
0.030017
-0.0750974
0.0124839
0.0124839
-0.0985118
0.0124839
0.0124839
0.0472449
0.0984212
0.127853
0.0275581
-0.121759
-0.0353656
-0.0353656
-0.0353656
-0.0353656
-0.0353656
0.021005
-0.0353656
-0.0276905
0.0372149
-0.00620403
-0.00620403
-0.050246
-0.050246
-0.175366
-0.0666172
-0.00358358
-0.19605
-0.0284557
-0.0836904
-0.060317
-0.0452905
0.0247739
0.0690215
0.0236706
0.00903574
-0.0032971
0.187619
-7.10939e-172
0.107653
-7.10939e-172
-0.0950708
-0.0996513
-0.0950708
-0.0793296
-0.0950708
-0.0950708
-0.0950708
-0.0950708
0.0713149
0.0422457
0.0325107
-0.163948
0.0400095
0.0260885
0.0260885
-0.0377947
-0.105857
-0.0411858
0.00155954
-0.0975246
-0.165723
0.0503059
0.0503059
-0.0559217
0.0837548
-0.0386514
-0.0064419
-0.0064419
0.015428
-0.0064419
0.142271
0.151299
0.0826045
0.0414332
-0.147397
0.0354379
-0.0725054
-0.0401101
-0.255528
-0.0685463
-0.0401101
0.0181118
0.108579
-2.17813e-206
0.00394772
-2.17813e-206
-2.17813e-206
-2.17813e-206
-0.0306432
-0.0213849
-0.18353
-0.0840529
0.0196755
0.127403
-0.00561619
0.0124056
-0.00445664
0.0274086
0.0460794
-0.13949
0.0504799
-0.112488
-0.245959
-0.120599
-0.112249
-0.12714
0.0256092
0.0725938
0.0607426
0.102527
0.0153535
-0.057976
-0.0395776
0.0185791
0.0202158
-9.85385e-94
-9.85385e-94
0.134339
-9.85385e-94
0.00351698
0.0817823
0.00351698
-0.106693
0.0532918
0.0774459
0.0774459
0.16342
0.0728655
0.0429109
-0.154373
-0.0588754
0.068707
-0.0502045
-0.280362
-0.0502045
0.0455354
0.0988329
0.0796462
-0.0370426
0.0184187
0.0184187
0.0184187
0.0184187
0.0184187
0.0292303
0.0292303
0.0306159
0.0252439
0.0252439
-0.231888
-0.0293338
0.294075
-0.199889
0.0366604
-6.27463e-322
0.171653
1.48618e-47
3.2317e-48
-0.0102008
-6.898e-93
-0.0344569
0.0760201
0.154978
-0.0344569
0.0652913
0.0877202
0.0906266
0.0229268
0.0782288
-0.123292
-3.9231e-236
-1.5316e-322
0.0947191
0.132251
-0.0930102
0.0382493
-0.0755578
-0.0377789
0.0474559
-5.2491e-127
0.0778445
-0.115123
0.019186
0.0349661
-0.00887964
-0.00394263
0.0355289
0.0107562
0.0704505
-0.0782068
0.0119489
0.0940291
0.00719549
0.0340753
-0.0378479
0.00917086
0.0386818
0.0366496
0.0694258
4.15195e-49
0.0613129
4.15195e-49
4.15195e-49
0.0481347
0.105506
0.0970782
0.138141
-0.0155976
0.0874694
0.0608906
-0.00747832
0.0445025
-0.00442954
-0.147966
-0.111536
-0.0410607
0.145547
0.065535
0.238724
-0.138812
-0.023155
-0.115206
0.0579472
0.0562807
0.154076
0.0286955
0.00143669
0.0859453
0.0286955
0.0356229
0.0286955
0.0286955
0.0286955
0.050594
-0.0262284
-0.0747123
0.0248545
-0.123472
-0.0592203
-0.0298736
-0.0611294
0.0356016
-0.027536
0.0875175
0.0417112
0.0551534
0.0197132
0.053165
0.0492639
-0.00501228
0.156011
0.0226489
0.219256
-0.0436344
-0.0436344
-0.0877233
-0.0877233
-0.148011
-0.0877233
0.189937
0.311622
0.0693519
0.0585246
-7.36215e-128
0.0136966
-0.0275547
-6.62048e-322
0.166348
0.0882595
-0.0459562
0.0338576
0.0756246
-0.0302578
0.0169895
0.133768
-0.0352059
0.0451927
-0.114576
-0.0473683
0.0574588
0.083792
-0.0443109
0.0366953
0.0256477
0.0256477
0.0109187
0.00524823
-0.0759542
0.00524823
0.0293716
0.047818
0.188553
0.0293716
1.54145e-259
-0.056376
-0.056376
0.0163927
0.0486413
0.163988
0.046644
0.0739445
0.0411436
-0.0304008
0.0218631
0.193438
-0.0473826
0.0568992
-0.00662871
-0.0737001
-0.0310613
-0.00310651
0.0260254
0.00523661
0.0101585
0.0219101
0.0103125
0.0482242
0.0314856
-1.93908e-127
0.133887
0.183528
0.0905719
-0.0152709
-0.0472051
-0.108006
-0.0472051
-0.0472051
-0.0851137
0.00281283
0.074207
0.00281283
0.00716894
0.0247107
0.0344892
0.107329
0.0236834
0.0236834
0.0494546
-0.0219764
-0.39298
-0.145376
0.0239393
-0.00206649
0.0239393
0.155826
0.0239393
0.0239393
-0.118198
-0.0285547
0.0506039
0.025986
0.00154524
0.218729
0.0285334
0.0280223
0.0402195
-0.00533271
0.13727
0.0586399
-0.0308006
0.0737308
0.0846476
0.0392419
0.0392419
0.0392419
-0.056789
-0.00968564
0.0329532
0.0329532
-0.0606187
0.0876474
0.0407248
-0.016587
-0.0748021
0.101845
0.122602
0.0590457
0.0347799
0.0347799
0.0431343
0.0252556
0.13262
-0.0448105
0.196855
0.0121572
-0.0377621
-6.42285e-322
-6.42285e-322
-6.42285e-322
-6.42285e-322
0.0109826
0.134709
0.0278251
0.0269326
0.0397055
0.0236399
0.157791
0.133029
-0.0283296
0.0196628
0.0196628
0.0196628
-0.0286247
0.0893946
-0.0682546
0.0285517
0.0825299
0.0768396
0.0305326
0.0735801
0.0431318
-0.0667666
0.0398182
0.107177
0.0398182
0.0715213
0.0917184
0.0465764
0.0465764
0.0462099
0.0483959
-0.000808828
0.0462099
0.0462099
0.057178
0.0030924
0.0205628
-0.0469672
-0.0639523
-0.0427507
0.0885466
0.0205585
0.0205585
0.0205585
-0.0217382
0.0436291
0.177862
0.0412687
0.0468213
0.0374093
-0.0382908
8.00386e-322
0.0755296
0.0272523
-0.517952
-0.0467847
-0.0935699
-0.0102264
-0.0102264
-0.0407847
0.0128607
-0.129395
-0.0588525
0.0170207
0.099957
0.0520782
0.137748
-0.118944
0.0179878
0.0179878
0.0179878
0.0756526
-0.0645499
0.0210923
0.0958466
0.199435
-0.156774
-0.218488
-0.123862
-0.129305
-0.0842519
0.0650482
0.130959
0.0349486
0.0349486
0.0708232
0.0349486
-0.020052
-0.069767
-0.0230701
-0.020052
-0.020589
-0.020052
-0.0128909
-0.020052
-0.020052
-0.020052
1.22241e-47
0.0103726
0.174426
-0.0664047
0.143243
-0.081462
0.072151
0.0598048
0.0698035
0.0630337
0.0472696
0.189939
-0.0489553
0.0690187
0.0416603
0.0374186
0.0416603
-0.12348
-0.0305354
-0.0305354
-0.0305354
0.0345517
0.0618061
-0.0314914
0.0194783
0.0194783
0.0194783
0.0316646
0.0552215
0.335043
0.0562883
0.0177364
-0.066224
0.0596902
-0.036913
-0.036913
-8.29801e-172
-8.29801e-172
-8.29801e-172
0.100992
0.00520351
0.0246384
-0.0845349
0.180786
0.10321
0.0323274
0.0323274
0.0323274
-0.0104457
0.119105
-0.019986
0.0532128
0.0455713
0.022871
0.022871
-0.14482
-0.0692616
-0.0318864
-0.0812658
-0.100434
0.0333549
0.0333549
-0.120878
0.0174902
-0.0219949
0.0436903
0.0368205
0.00887671
-0.0239689
0.0822282
0.0401321
-0.156146
-0.0300852
-0.0445252
-0.0445252
-0.0445252
-0.0620382
-0.0721624
0.018124
0.0547428
-0.046684
-0.0248953
0.0673236
-0.107996
0.0143954
0.123933
-0.081447
0.11145
0.0196785
0.099157
0.0196785
0.16202
0.217956
0.0196785
0.0196785
-0.038599
-0.0869765
-0.105464
-0.140477
-0.039965
-0.104884
-0.0235679
-0.0123788
0.0528384
0.024179
0.0135354
-0.337148
-0.0452752
-0.0452752
-0.0452752
0.0263199
-0.0258191
-0.0571185
0.0519465
0.143528
0.130803
0.0192984
0.102104
0.00286973
-0.00281603
0.0535678
0.0215802
0.0115377
-0.0193861
0.167364
0.0437298
0.0437298
-0.107179
0.011649
0.0323182
0.011649
0.0017983
-0.104536
-0.104536
-0.104536
0.0256999
-0.121877
0.0327512
0.0324759
3.40905e-322
0.0127061
-0.00999188
-0.0199838
-0.0894267
-0.0342401
-0.0342401
-0.248328
-0.160404
-0.00107895
-0.0886875
-0.0282857
0.0361564
0.00432226
0.0377943
0.0966793
-0.0154756
0.0270916
0.0270916
-0.0166911
0.0233747
0.0126571
0.0233747
0.0233747
0.124073
-0.0155759
0.0158415
-0.0155759
0.162039
-0.0391672
-0.0546671
0.0505397
-0.058865
0.0111179
-0.0667254
-0.0667254
-0.0667254
0.194823
0.0620888
0.138442
0.0496288
0.0147839
-3.5261e-19
0.0105857
0.0611411
0.0647142
0.0265455
0.114228
0.0391898
0.000265732
-0.293142
0.124389
-0.00900422
-0.0799488
0.0505708
0.0505708
-0.032567
0.0243786
-0.0349375
0.0160108
-0.147192
-0.0415853
-0.0660407
-0.0415853
-0.0415853
-0.0415853
-0.0448686
-0.0189816
-0.112208
-0.042792
-0.0267097
-0.033382
-0.0912744
9.12039e-19
0.042109
-0.0103659
9.12039e-19
-0.0555211
-0.048772
0.0236734
0.14527
-0.122025
0.00541529
-0.0382919
0.0600591
0.0886769
0.000907088
-0.0242847
0.0159213
-0.0100377
-0.00448725
0.0119834
-0.0884732
-0.0735411
-0.0317267
0.0206635
-0.0293931
-4.57136e-127
0.00429306
-0.0412824
-2.90392e-127
-2.90392e-127
-2.90392e-127
-0.218326
0.0195891
0.0569583
-0.0496402
-0.0518962
0.0306883
-0.180213
0.0280418
0.0280418
1.30293e-47
0.0280418
0.0272319
0.0166768
0.0653397
-0.0203702
-0.229493
0.027088
0.0065441
-0.108837
-0.0547616
-0.0255178
0.0275971
-1.63217e-127
-0.0733746
-0.0850837
-0.124747
0.044803
-0.0380252
-0.15179
-0.172133
-0.040252
-0.0699551
0.0205049
-0.00465334
-0.129883
-0.0799214
-0.137683
-0.263853
-2.63469e-207
-0.16546
0.377162
0.0652002
0.0196314
0.124282
0.00768194
0.159643
0.00768194
0.00768194
0.00768194
0.0409742
-0.0220605
-0.0220605
-0.247806
0.0205831
0.0191078
0.121059
-5.7361e-321
-0.183034
-0.159096
-0.0450906
-0.0516125
-0.072383
-0.0531691
0.0268858
0.0228636
-0.0496242
-0.106581
0.0365674
0.0133791
0.15032
0.0351198
0.0731757
-0.0367911
-0.123783
0.0205254
0.0301076
0.0205254
0.0250935
0.000607317
-2.06148e-127
-2.06148e-127
9.41669e-06
0.0986755
0.0381822
-0.0495997
0.0637039
0.024137
-0.054218
-0.113689
-0.105908
-0.366052
0.030543
-0.0937806
-0.144882
-0.0186524
-0.0856324
0.139828
0.0429587
-0.134824
0.0496673
0.00328766
0.0760819
-0.0563324
0.0517676
0.0517676
0.114331
-0.114239
0.0461234
0.0703444
-0.0595649
-0.132201
-0.0815746
-0.0815746
0.0257119
0.0432535
0.0254654
0.102651
0.0136767
0.0424224
-0.171718
0.0780513
0.20774
-0.0333891
0.0618169
0.0263951
0.0530984
0.0311338
-0.211529
-0.173453
-6.40817e-47
-0.0304104
0.0923799
-0.0767174
-0.0767174
-0.0767174
0.151868
0.0421941
0.0421941
0.0256847
0.115198
0.0850455
0.123484
0.0327621
-0.00500109
-0.0279392
0.0426654
-0.0279392
-0.140597
0.0215845
0.0190481
-0.121172
-0.121172
0.0157499
-0.0100134
0.0157499
-0.0155066
-0.0155066
-0.0155066
-0.0288501
0.0104837
-0.150957
-0.137035
-0.0711789
0.00962042
0.0525527
0.0525527
-0.0460188
0.0312682
0.0363424
0.0340901
0.0626433
0.147612
0.0234142
0.192376
-0.00690795
0.0626984
-0.0254671
-0.139174
2.85234e-20
0.0704851
-0.0133883
-0.238398
-0.0563862
0.0379574
0.218797
0.0105448
0.00824013
0.0306102
0.0414787
0.0414787
0.0542906
-0.0349185
-0.0394128
-0.0378709
-0.0507807
-0.0568172
-0.0284086
-0.0699184
-0.0663009
-0.0150011
-0.0416651
0.0498897
0.0115211
0.0115211
0.109834
-0.022308
-0.022308
-0.0181832
-0.0742876
-0.131223
0.231364
0.0921555
-0.0829064
0.0146458
-0.192347
0.0698956
0.0429145
-0.023786
0.0203315
-0.0449813
-0.490455
-0.0449813
-0.0449813
-0.0449813
-0.0776099
0.0434937
-0.120247
0.0331031
-0.103648
-0.023941
-0.023941
0.0168336
-0.023941
0.0722491
0.155131
0.00831779
0.0780101
-0.0488378
0.0157946
0.0571078
-0.00088273
0.00540952
0.00540952
-0.0608326
-0.0379814
0.014266
0.040772
0.00775025
-0.0861774
-0.00909775
-0.0719714
-0.0011018
-0.0594308
0.019818
0.0659181
0.0659181
-0.17931
-0.0144719
0.0156069
-0.0144719
-0.0144719
-0.188168
-0.0144719
0.0208753
0.0208753
0.0208753
0.0208753
0.0126264
0.0457112
0.0850101
0.0105313
0.0105313
0.0105313
0.0105313
-0.106254
0.0183589
0.0105313
0.0105313
-0.135439
-0.11052
-0.0837235
-0.0282453
-0.0337125
-0.0408869
0.0426522
0.0279321
-0.0371716
0.0279321
-0.161926
0.422034
0.10523
0.0219424
-0.110964
-0.0854266
-0.0854266
0.105319
0.0182792
0.0235265
-0.114745
0.0379811
0.0379811
0.0609837
0.0408034
0.103272
0.14414
0.0437407
-0.081067
0.0348178
0.0231564
0.0376585
-0.0969284
0.0459236
0.0171716
0.00408261
0.168979
0.0364145
-0.034047
-0.00595132
-0.059007
-0.00595132
-0.0810807
0.30018
-0.00699054
0.000424376
0.111188
-0.00332113
0.043028
0.0162089
0.0304796
0.0304796
0.0304796
0.14756
0.0672331
-2.11892e-93
-4.74303e-322
0.0265778
-4.74303e-322
0.0695339
0.040244
-0.0927679
-0.0927679
-0.0927679
-0.0301069
0.0444509
0.0687719
-0.0976163
-0.0972765
-0.0217994
-0.0295049
-0.0888679
-0.024537
-0.000695465
0.0397247
0.0397247
-5.73913e-19
0.0357565
0.0357565
0.0545322
0.0500804
0.114754
-0.043721
-9.01312e-94
-9.01312e-94
-0.0402692
-9.01312e-94
-9.01312e-94
0.061716
0.0428165
-0.0258029
0.0220479
0.0220479
0.0293004
0.047035
-0.0576562
0.0534613
0.00502267
0.0796569
-0.147488
-0.141305
0.0124675
0.0124675
0.0170991
0.0170991
0.0170991
0.0342534
-6.18704e-237
0.248745
0.0337055
-0.0121993
0.0423371
0.0317924
0.109114
0.0749979
0.0609642
0.074718
0.0172305
-0.00932212
-0.027674
0.0733098
-0.0240243
-0.0240243
-0.10721
0.0337031
0.1397
0.000416789
-0.0312928
-0.0658616
-0.043615
-0.0967579
-0.043615
-0.043615
0.0729775
0.0483234
0.124346
0.0409712
0.0782834
0.0409712
0.125736
0.0373922
0.0210558
0.0210558
-0.00703333
0.0210558
0.118747
